These are the execution Ridge Regression analysis with Lambda = 0.01
ACCURACY: 0.9553089382123575
The following is the corresponding W[] lists: 
1.0555126559517924E-9, -7.532789983913741E-8, 8.049200002003546E-8, -8.389223893725582E-8, -1.2796450852419453E-7, -1.8130412825487818E-7, 7.649048942780603E-8, 1.9853519642934088E-7, -1.6817422904445477E-7, -1.0109627662814344E-7, -3.4266754402371806E-7, 2.7925206869170716E-8, 1.3556920082557408E-7, -8.232625715631298E-8, -6.685803340156531E-8, 4.588389086883131E-8, -1.1455443059104611E-7, -8.944969051790755E-8, -2.295744281521465E-8, -1.7140481050549398E-7, 1.1501284476097762E-7, -7.799110311216114E-8, 9.556845955960711E-8, 3.187109908335727E-8, 1.0606459370504754E-7, -2.080582233901897E-9, 2.414122042671925E-7, 7.672623049308471E-8, 1.4599073417016446E-7, 3.551692328379747E-8, 1.9946498195609294E-7, 5.724222450349077E-9, 2.5983865808437584E-7, 5.805999758279643E-7, -6.96578170230436E-8, 1.6840395545614254E-7, -1.102390510453817E-8, -2.135052647563642E-7, 1.9162545504129067E-7, 1.1225373293513183E-7, -1.9750227236571476E-7, -1.0433598194284182E-7, 5.208602048405431E-7, 1.1242158368198054E-7, -2.1782391144064888E-7, -3.1016295013240395E-9, 1.0897881265070043E-7, 1.552436256268716E-7, 2.0534804861776753E-7, 2.992349109892776E-7, 1.6198263375842242E-7, -2.7176074426733005E-7, -1.5552096536023175E-8, -3.83035627038983E-8, -1.0857944852683118E-7, 4.960947880397285E-8, -7.314080155651461E-9, -2.1857985206885746E-7, -1.4481166375004273E-7, -1.792262876454062E-7, 1.6412544052068704E-7, 3.005285708311362E-8, -2.1565344340604824E-8, 2.116071074081973E-7, -2.667112406372928E-7, -9.411420329231928E-8, -2.9808226880565777E-7, 7.333721616337495E-8, 2.2667713109075E-7, -4.118604344823419E-8, -1.802037400309294E-7, 4.556390231244403E-8, -9.007295832457472E-8, 5.9340822339910045E-8, 1.3883409937060802E-7, -1.004418408423281E-7, 3.343116024999E-8, 1.0892044678469234E-7, -6.588495626466718E-8, 2.1864711548940743E-8, -2.0920479577434494E-7, -9.409235423090043E-8, 1.1229312719145657E-8, 6.697359807905566E-8, 2.259090338558607E-7, -1.6322224288279892E-7, 8.327392573796659E-8, 3.356915109670264E-7, 1.75668934019698E-7, 1.4351348738011807E-7, 4.233191016531728E-7, 9.398221725082437E-8, -1.387276264442466E-7, -4.644035579398122E-8, -1.673903222591231E-8, 3.3738419657349996E-8, 3.234060016532557E-8, 2.4033467467956574E-8, -1.1553375057868185E-7, 1.644045696277022E-7, 3.14599630120334E-7, -1.3097128582759957E-7, -2.7413791460550864E-8, 3.004057503460757E-7, 1.6698440128574459E-7, 6.047824227211995E-8, -1.7619537265630913E-7, 9.98497392903811E-9, -8.832424837095668E-8, -6.751998369884816E-8, 3.696529801103051E-8, -8.962769254508506E-8, -1.0443488441890352E-7, -1.9752989311272611E-7, -8.607245716696592E-9, -2.460539320734148E-9, 4.9136439749408385E-8, 4.872737031905007E-8, 2.2970346297761563E-7, 5.34920280036642E-7, 3.400360629020884E-8, 2.7649383910019093E-7, 1.5712728481414263E-7, 1.9186863897661935E-7, -3.344263547035627E-8, 9.387440958379202E-8, -2.2951449057011011E-7, 2.1298810776681148E-7, -1.2585188248090987E-7, 2.9364602921054855E-7, -1.1753227395954562E-7, -1.923100932257493E-7, 2.2246298519326065E-7, -9.987166952992102E-8, -1.0897302065232948E-7, -1.2642908204643877E-7, -6.465777408473034E-8, 1.1693142513944159E-7, -1.692550665180461E-7, -2.402765089043659E-8, -1.1025209566438905E-7, 1.727049053457077E-9, -1.8659871275242334E-7, 1.234698548355086E-7, 8.724507189907712E-8, -8.401890700561322E-8, -1.706553009328804E-7, -1.5183265050495773E-8, 1.4840685889826928E-7, -1.3619277535866325E-7, 1.2038499980148568E-7, -1.4591577495491056E-7, -4.1898613542865695E-8, 5.8468825555184714E-8, 1.1428523959988665E-7, 6.030774047264443E-8, -1.0858898336872615E-7, -1.0705405165030694E-8, 6.837673859110205E-8, 9.464344642919153E-8, 7.878906909046813E-8, 7.159431989817033E-9, -1.4190314132699215E-7, 9.546339582808882E-8, -6.13879933455208E-8, -1.2280394922323497E-7, -7.315338313455611E-8, -2.9893255317900895E-8, -2.3797887655860983E-7, 3.347715014092566E-8, -1.4597950013997484E-7, -1.2901854899751862E-7, 1.6225501267158393E-7, -2.965593346930764E-7, -1.899977772949539E-7, -1.4938089752771122E-7, 1.8598317835767736E-7, 7.9116273777519E-8, 1.3421431676987766E-7, 1.4124013051531315E-7, 6.360424770187708E-8, -2.7205639902586365E-7, 8.089644747346317E-8, 2.1736119877008825E-7, 2.8706966478353506E-7, 7.72362569440986E-9, -1.580938364221887E-7, -2.864847540661612E-7, -5.6693509553218265E-8, -1.2625954853666837E-7, 1.2063981560553008E-7, 1.510032336927255E-7, 2.6541141206738916E-8, -1.0884011769878605E-7, -3.9049590831257234E-8, -1.0915060694707265E-8, -1.513803857246063E-8, 1.7730460920113816E-7, 2.8513731268571493E-8, 2.277422911731802E-8, -1.6010800827036344E-7, -2.2278529242739148E-7, 1.1249487463078128E-7, 1.250871071932661E-7, 1.2631052121668583E-7, -3.650396424725141E-8, -2.0710552753889322E-8, -1.7279432450389608E-7, -1.6150212459548024E-7, -4.414261619354487E-8, -1.5877325468121705E-7, 8.228247751584954E-8, -1.917411379124615E-7, -8.169907141464085E-8, -2.942624235318498E-8, -7.138670730923472E-8, -1.3101352429399868E-7, -5.660146819209659E-9, 4.810018550813212E-8, -1.1877000117429144E-7, -1.2016714880915684E-7, 8.493499085427598E-9, 6.511081771999094E-8, -2.7388541556664068E-8, -4.059032517351083E-8, -2.723038294243782E-8, 3.90726416501986E-9, -1.528984227494179E-7, -9.213814426099423E-8, 1.4440759368876937E-8, 5.1261367807905543E-8, -6.693461208749177E-8, 2.423474936055464E-7, -9.46591614399269E-8, 1.7775119126912523E-7, 1.1108486976868154E-9, -1.2900653917273136E-7, 1.620565863704161E-8, 8.400984422582534E-8, -8.699860428099572E-8, -2.481177154415223E-7, -2.033332583060948E-7, -2.586338430681132E-7, -8.398614045064337E-8, 5.682640166289909E-8, -3.256169085691654E-8, 6.822912996783393E-8, 2.901888215446534E-7, -2.2897222733586174E-7, 3.930457543175195E-8, -2.5035641525000905E-8, -2.2779029636672544E-8, 1.2126667308521363E-7, 1.6804674288394454E-7, -6.55515302180652E-8, 2.4965862378884705E-8, 9.340418399424298E-9, -7.530739873452505E-9, -2.43049096115461E-7, 1.8209642600021914E-7, 1.4779517107412104E-7, 3.0770305415189524E-7, 1.4850085493806097E-7, -7.346653462888604E-8, 1.394303351256367E-7, -6.42653266644018E-8, 5.544625989358884E-8, 1.0647119742039308E-7, 2.7518990999693057E-8, -6.80149663198506E-8, -1.3368748750473782E-7, 1.749757944301082E-7, 2.2896357760305478E-7, -4.5626514469110774E-8, -1.1529935150738268E-7, 1.7863677351899613E-8, 1.3780717651441713E-8, 1.8073809363377552E-7, -1.0192718702475213E-7, -1.1420393758160365E-7, -7.484919447485767E-9, 2.530448990046752E-7, 5.986982412987423E-8, 4.053487468497441E-8, 4.3748605584077875E-8, -1.2371663124615902E-8, -1.1566296155901922E-7, -8.732920384878769E-8, -4.4113489887494235E-8, 2.8806163084826907E-7, -4.511890930289964E-8, 3.3748497713519023E-8, -4.531050334305848E-8, -2.2612354713430253E-8, 1.6499650462201508E-7, 4.1447776667040567E-8, -6.333293663511615E-8, -3.1767107997670174E-7, -6.570751094431601E-8, 1.1552411889989983E-7, 1.5741663309123496E-7, -2.0489258963031554E-7, 1.5132101918120348E-7, 6.972872605508932E-8, -1.1508143203931887E-7, 1.01120486057355E-7, 5.371278345175266E-8, -1.7162625488963198E-7, 1.2871434227502524E-7, -5.4174086826581264E-9, 1.3315168979144716E-7, 2.715697237613176E-8, 8.178000024135164E-8, -1.7216070221899715E-7, -2.5764843074851746E-7, -2.2702185097993275E-7, 2.1239161953399899E-7, -4.379656358036168E-8, 1.2271322561514552E-7, 1.7125117845788625E-7, 1.5774867490342636E-7, -2.6809361980699784E-9, 7.144410707679285E-8, -1.800807602775817E-7, 5.1272210098552077E-8, 9.409920178281895E-8, 1.786325225949346E-7, -2.0697776044694497E-7, -1.4209075344631829E-7, -3.1648873117908545E-8, 5.814602686020987E-8, 7.193522416035265E-8, -2.370455569119846E-7, -1.6652642213482828E-7, -9.91951703670519E-8, 4.7400922750510595E-8, -9.81543382834207E-8, 1.7281739909661562E-7, 1.423549053492407E-7, 1.3280238148632898E-8, -5.152985223232309E-9, -5.476787040700257E-8, -1.036182876070904E-7, 2.2206591624109621E-7, -9.952182589172433E-8, 5.8458041262547037E-8, -3.397987016092804E-8, -2.313974245773311E-7, 8.929707182783795E-8, -9.634012546095717E-8, -4.945831793345471E-8, -2.767497515833576E-7, -4.072807205553532E-8, -3.861033607700576E-9, 1.1046297460232253E-7, -8.791879735508192E-9, -3.802692222005632E-8, -5.0333233795040605E-8, 1.1534231305749536E-7, -1.381446258344376E-7, 6.772508091179578E-8, -3.768285052166642E-8, -2.6527268854967976E-7, -1.1041962924893882E-7, 1.1456617215483252E-7, -2.672478780445987E-8, -1.1452394728401309E-7, -6.244303493674482E-10, -9.406219925389854E-8, 5.2014573645718804E-8, -1.325759428964231E-8, 1.5242374043907526E-8, 7.413977495575102E-8, -4.155379882614988E-8, 2.9668129958505665E-7, -4.1140327439209974E-8, 3.6286222106191267E-7, 4.278292967813425E-7, 9.413817802071648E-8, -2.621131164422424E-7, 1.223878813009277E-7, -9.87656227653254E-9, 1.7672937652364562E-7, 6.880778749421065E-8, -9.833079485349238E-8, -5.162209554444352E-7, -2.663609930968826E-7, -7.898719896978076E-9, -1.7764078070094556E-7, 1.1888892161566524E-7, -1.5399528223237053E-7, 7.140536884104429E-8, 1.2834058631579424E-7, -1.3678686039413744E-8, 1.5067757889610294E-8, 7.53629670577307E-8, -1.600392037887113E-8, 2.8779169227544572E-8, 6.634517637603165E-8, 1.0573380469090404E-7, 3.0823504153263594E-7, -3.991406909472689E-8, -8.905010229150154E-8, -7.761754457448587E-8, -7.902347415653015E-9, 7.794130683192338E-8, -5.550426617880339E-8, 3.26985269471245E-8, -3.4862884442986817E-7, -8.380161864388905E-8, 8.180447468452361E-8, 1.0500703440884124E-7, -4.891203865198629E-7, 3.139784676881599E-7, -1.94546456238324E-7, -6.574067472633086E-9, 5.7320039654939363E-8, -1.365152417479585E-7, -2.3224382937096249E-7, 6.26998477830523E-8, 1.2626897329900426E-7, 4.79981830038581E-8, 2.158544568521916E-8, 3.571102417236268E-8, -1.8405232275601292E-7, 2.5150733250680425E-8, -2.3111409189896117E-8, -4.4278078031864175E-8, -2.0759008551319096E-7, 1.923990826253573E-7, -4.0117301741239517E-7, 1.9990638224656028E-8, -4.211620897481548E-8, -1.3984998176528845E-7, 1.806387184803256E-7, 1.163308167698607E-7, -1.7061073021713543E-7, 1.534550171484904E-7, -2.0170307012780546E-8, 6.402475422566894E-8, 7.454552382094456E-8, -1.3926194600585933E-7, -6.875774650586951E-9, 1.8088538604449427E-8, 2.0873453145379702E-8, -4.022160740254105E-8, -3.958780171748601E-8, 5.6273395211445073E-8, -1.5373656719405185E-7, -2.0703376247614995E-7, 2.1719335841706167E-7, -1.640278753371855E-7, 4.104050505628815E-8, -5.633880061663336E-7, -3.014553371228065E-7, 1.3930083473409748E-7, 8.326887805190313E-8, -1.1599523786417075E-7, -1.089977588741235E-7, 1.931419326082574E-8, -1.8951196529516582E-7, -1.1290237128108852E-7, 5.031354403118136E-7, 5.402359800077549E-7, 2.6998172831820795E-7, 1.6506350332000616E-4, -3.0061929640293373E-4, 9.356584716781226E-5, -2.6446465337313284E-4, -1.722892993350998E-5, -2.0685277158166457E-4, -1.699927067163044E-4, 2.0069535864837904E-4, -1.7231980803465241E-4, -1.2110846691353166E-4, -2.503846479243265E-4, -1.8699136074156944E-4, 1.0302364162487215E-4, -3.579927054416042E-4, -1.1915657174063164E-4, -2.0319864723842125E-4, -6.747673180572037E-5, -5.654687922603788E-4, 2.0135447042521836E-4, -2.9876245049596063E-4, 9.613302286852074E-5, -3.309361328297871E-4, -3.152008617443241E-4, 1.190803407823162E-6, -5.236362997013303E-4, -7.76167215748051E-4, -1.3668751726164346E-4, -9.354857111896381E-5, 0.0013102919508326144, 0.0011261043156861534, 
2.729946727908342E-8, -1.7762527600346217E-7, -1.1517595238045725E-7, -4.723928455416658E-7, -5.513433291149618E-8, 1.2414472545170794E-7, -7.952227672528817E-8, 1.258658805218668E-7, 1.2190208692818468E-7, 4.660702155651186E-8, 4.8681619468199605E-8, 4.9580143116194955E-8, 5.96424087097822E-8, -1.3386652087785475E-7, -1.3443099333456178E-7, -1.395753834872183E-7, -5.01098825793587E-8, -3.142257660963796E-8, 4.7351363132084265E-8, -9.339413453261792E-8, -3.6276531919306444E-8, 1.1794420671850702E-7, 5.740602016351298E-8, 1.9722983951871477E-7, 7.009329173197862E-8, -2.2794999627456354E-9, -7.59886335679644E-8, 1.8590351573912493E-7, -2.3046524224399854E-8, 7.361476922119684E-8, 6.148420720031582E-8, -1.6874128231391338E-7, 3.386771402920042E-7, 2.0416863481608078E-7, -1.0062825108365564E-7, -2.0261615030056766E-7, -1.5655244843317879E-7, -5.513886314062322E-8, 4.3918006146780995E-8, -3.572688554362883E-7, -4.0027084890107046E-8, 5.955792619179307E-8, -3.9089824346558896E-8, 2.5676681205769276E-7, 9.574853510510572E-8, 2.907405976145251E-7, 2.1999100115323867E-7, -9.739995346951668E-8, 7.607737226341512E-8, 1.3757256114509148E-7, -1.315386826927347E-7, 1.2343881399728294E-7, 4.7675838353025264E-8, 1.694359377307504E-7, -2.999298412528192E-8, -4.9944096307670654E-8, -9.121013597762983E-8, -1.7848243531213017E-8, 5.916097322293631E-8, 2.3178276612517727E-8, -2.466299170745468E-7, -3.355516841898781E-7, -3.615270887928807E-8, -2.0019506190583004E-7, -1.9808864967771348E-8, -1.8241169924872919E-7, 1.8165660474102422E-8, -4.539866075717261E-9, 5.090918306828926E-10, -1.0053637496167081E-7, -1.4144638878820395E-7, 2.308091048021354E-7, -8.993718088231154E-9, -3.661341682979493E-7, -2.692680179291647E-7, -8.827968149842558E-8, 7.63209866493952E-8, -4.046907653480229E-8, -1.7186851240828967E-7, 8.128083756301485E-8, 2.6826138284390065E-7, 4.005387091217795E-8, -1.5032070526242046E-8, -1.0718526051547632E-8, -6.458640923369231E-8, -4.835218370396986E-8, -2.2119832512606908E-7, 2.029104552425138E-7, 1.4342991631724697E-7, -6.542098869374907E-8, 1.3505437949811002E-7, -6.795729246353006E-8, 2.514928579720527E-7, -8.093786439030418E-8, -2.915395028219745E-7, -2.529749008029065E-8, 1.834399250038436E-7, 3.2679245019976803E-7, -3.1719439368615794E-8, -8.499528418263104E-8, 3.197332583227648E-7, 1.757870965618982E-8, 1.3530943804909218E-8, 1.4128928861099255E-7, 2.343941324283673E-7, -1.657668667250514E-7, -1.4288619754387838E-8, 1.7570884054779784E-7, 1.4284936076042406E-7, 7.434843687742424E-9, -8.270104739917472E-8, -1.2045357025154504E-8, -2.3137529304590398E-8, 1.506322966558582E-7, 1.460696675692018E-7, 1.0562236629337542E-7, 2.161482907339698E-8, -1.318908011630568E-7, 1.4195004146587435E-7, -1.1655184421398286E-7, -3.2865673875200247E-7, 2.0678528369920468E-7, 1.3668319673191956E-8, 4.510564860280794E-8, 7.669623470123259E-8, 1.4835024645826004E-8, 3.751294229716437E-8, 2.0598892150464586E-7, -2.0380699664616857E-8, 2.3036140934023215E-7, 8.791638579259555E-8, -1.1188516400136061E-8, -6.642659744376498E-8, 7.452753289300892E-9, -1.7562419423633056E-8, 8.828299222821673E-8, 8.536052908360139E-8, -2.112128975852361E-7, -5.250473802829984E-8, 1.707300004400569E-7, 1.515363609147005E-7, 1.8447173451009772E-7, 2.6210200830697644E-8, 1.1400394698971437E-7, -5.109683098818357E-7, 1.376718536320472E-7, -1.7074077779455837E-7, 1.642976569743977E-7, 1.1522331506684279E-7, -1.1598612022710485E-7, 3.574598736722689E-8, -4.531372441962563E-8, 4.6171492181319064E-8, 2.095282492902238E-7, 2.5230305209338796E-8, -8.113518267914808E-8, -3.2405803742689876E-8, -2.7530741808511745E-9, -8.038164249108274E-8, 7.023888670865162E-8, 8.363999408648081E-8, 6.890301694092913E-8, -9.488742400559595E-8, 3.4735840230814476E-8, 2.377789360385386E-7, 1.562689622108255E-7, -8.98857021045334E-8, -1.807772070634316E-7, -2.0664997317264874E-7, 5.525397095211323E-8, -2.5973967918282756E-8, 1.1431269818084054E-7, -6.329378892450798E-8, -2.289353286095593E-7, 1.0707579202291527E-7, -1.3916938597554475E-8, 2.018254239493247E-7, -5.794589486549491E-9, -4.0368310747083934E-8, -2.1302837483802457E-9, 7.314202856557572E-8, -1.4358877211600531E-7, -1.5234468097005004E-7, -1.3581585719881257E-7, -6.469124655476662E-8, 1.521946824956644E-7, 3.6048245593762143E-8, 3.9370378687139685E-8, 2.1240617864921395E-7, 7.911864080424791E-8, 7.830402647158146E-8, -1.342106684022844E-7, -2.1920325944280153E-8, -4.208886519354303E-8, -2.4605329075787456E-7, -3.4859495719286936E-8, 3.9918740444074054E-8, -1.640736902859023E-7, 9.145956423624888E-8, 6.104926582053184E-8, -8.244677575420431E-9, -1.40831914249641E-7, 2.424616914050624E-8, -7.864342277432354E-9, 9.603687666013946E-8, -1.2441791607177088E-7, 8.149165461700962E-8, 4.017296701332077E-8, -1.5625660925924153E-7, 1.5470000359003022E-7, 1.8165584614536603E-8, -2.5641280978629537E-7, 5.992473037404865E-8, -2.4807800240400913E-7, -3.1632779334747797E-7, 8.349684422099064E-8, 6.220943000728707E-8, 1.3295461419253913E-7, 7.036767907876046E-8, -3.2687756391932784E-9, 1.2419075079183747E-7, -3.501042918714872E-8, -1.3894245883859993E-7, -1.9501763893306412E-8, -3.656726844971206E-8, -1.4792064608050935E-7, 4.8060849238244425E-8, 8.729019644187916E-8, 1.3299435666509414E-7, -8.53023963602335E-8, -8.443743998298816E-8, -6.203260170305304E-8, 8.582078423354455E-8, 1.9521748311071274E-7, -3.5719740476218E-8, 1.9866650624865144E-7, 2.0226634987072593E-7, -4.186436767530716E-8, -7.045471067341226E-8, -1.2728643531660795E-7, 2.4510226704608055E-8, -9.914141735835795E-8, -3.24690153221657E-9, 9.633183481272646E-8, -1.7265054729646235E-7, -2.0933532971597193E-7, -2.2844159876719623E-8, -4.232486184176024E-8, -5.0898888995786506E-8, -1.232022435272734E-7, -9.343972866484308E-9, -6.722514546500115E-9, 2.8006219810674068E-8, 5.044745336251841E-9, 6.611726315026471E-8, 1.2859021980230462E-7, 2.295263347978129E-7, 4.038282274814113E-8, -3.3192631901947845E-7, 1.2486394409388188E-7, 8.913386868593988E-9, -1.790375770221843E-7, 2.046960039692733E-7, 2.309744506146558E-7, -2.633617758555799E-7, -4.478677060438306E-7, 3.6935823233013587E-7, -5.70996363551373E-8, -3.0447098167927276E-7, -4.374570677060875E-7, 1.3007066689547016E-7, 1.6891211980332435E-8, -2.2704865533975503E-7, 5.7197115382455274E-8, 1.186293973163529E-8, 1.7797874105376205E-7, 8.379472672775925E-8, -3.7584997859905205E-8, 5.194541465285124E-8, -1.8816079178094423E-7, 3.3029135394576656E-7, 1.1221451458698583E-7, 1.0298708863620135E-7, -7.188396917646153E-8, 1.330496297209256E-7, 9.152148332226903E-8, 1.9721903817510362E-7, -3.471811053023125E-7, -1.0649125004103792E-7, 4.7154280612554365E-8, -6.472074600196968E-8, 1.8228977448016763E-7, 1.6506773981369769E-7, -7.938748320928928E-8, 7.841491264883509E-8, 4.1051219845318085E-8, -1.830022925421706E-7, 2.5196499720937427E-7, 1.4527169641425612E-7, 4.0697744197358765E-8, 2.0635821674484424E-7, 4.949090124817028E-8, 1.7553753026157895E-7, 1.010704326393653E-7, -1.864733260714087E-8, -3.447295851936181E-8, -2.498529420802214E-8, 6.257539792164591E-9, 1.23685409075529E-7, -7.209221369413926E-8, 5.162803759948011E-8, 1.6798779890167593E-7, 2.6127820706103336E-7, -9.969762764993089E-8, 6.307794920436428E-8, 5.090471185040056E-8, 6.480498359652337E-8, -1.3067577067060023E-7, 8.492164014401481E-8, 1.7774746690196905E-7, -9.969709693647771E-8, -6.377634023349102E-8, 3.575193889580689E-7, 2.550272829994983E-7, -1.414202768408927E-7, 8.320571840450262E-8, -4.852207530241365E-8, -2.6695381710489325E-7, 8.846036476564139E-8, 2.053642259260107E-7, -2.4875665495344056E-7, -1.0758646309200312E-7, -2.4615589183131814E-8, -1.985311276782099E-7, -5.5776573847471283E-8, -4.8572935426688774E-8, -3.908349712651786E-8, 1.3853997754365567E-7, -6.798338407366205E-9, -1.593723123454295E-7, -7.99064666085136E-8, -3.8866850226278815E-8, 1.7771076451431897E-7, -1.1382872422016695E-8, -2.4404670895358476E-7, 2.3262610178214268E-7, -2.6273167366920606E-7, 1.739894695916357E-7, -4.945896373623061E-9, -6.040705155413468E-8, -1.4682096266202206E-7, 9.317636873613693E-8, -3.4109438102655263E-7, 1.8785378172622883E-7, -9.393092376158353E-8, -4.190470211949305E-8, 2.201551712016539E-7, -1.509198537876561E-7, -2.0781382156641358E-7, 3.3525857599373595E-7, 4.3420286238970876E-7, 1.9721499150269603E-7, 1.1406021603918613E-7, 1.7912861937124364E-7, 1.808696847896686E-7, -3.2276951539114956E-7, 1.4810794577770587E-7, -2.2995072202038974E-7, 8.082772608703328E-8, 1.0049912857508162E-7, -1.6938812741831034E-7, 2.425927031103796E-7, 1.9010093900407564E-7, -2.2452564263207643E-7, 2.2220881747856888E-7, 1.9998889254974525E-7, 2.7200141940729684E-8, 1.1036814734671843E-7, -2.652242572683323E-8, 2.2889490937095106E-8, -2.3838238892203234E-7, -2.823120360642774E-8, 6.718390533310256E-8, -6.687272360324474E-8, -5.08493261251972E-9, -4.698048700111523E-8, -9.456745148657621E-8, 1.5895889373768697E-7, -8.454053277734855E-8, -3.226520264862648E-8, 3.052552395538935E-7, -1.1865100719268113E-7, -1.8960595438139297E-7, -2.84039692355909E-7, -1.0646529431049701E-7, -6.214359570115367E-8, -8.202353190080432E-8, -1.180524488781054E-7, -8.916706615675378E-8, 1.4621808173203133E-7, 1.252879750059075E-7, -2.3505980451567934E-7, -3.1821154769840506E-9, 1.7963242502775196E-7, 1.4600104885491522E-7, -3.274358578264066E-9, 4.3479726304259285E-8, 2.860871444159652E-8, -3.7488426813125134E-8, 8.892255058328709E-8, 1.0317963535071124E-7, -1.5854506700754465E-7, -1.3420665953592265E-7, 2.6127825298996534E-7, 4.756441833157466E-8, 1.491312766141918E-8, 4.813566013838016E-8, 2.2991993647275122E-8, -5.0817074890706953E-8, 4.3532455645860245E-8, 2.9505884878577473E-7, -1.0941694706942995E-7, -8.393125625229144E-8, -3.449478605719732E-7, -6.150725129861724E-8, -2.5865055406477606E-8, -2.3140855984461715E-7, -1.791521688372906E-7, -1.0369092344204148E-7, 2.2535754663964293E-7, -2.97391401824416E-8, -6.427411468706858E-8, 1.84222859657346E-8, -1.6967268221899277E-7, 2.5450035746249114E-7, 1.5504082017266828E-7, -3.0524557335317626E-7, 3.6675951045901256E-7, 4.12058386668679E-7, -4.6867390931344864E-8, 7.125615937204417E-8, -1.8024666374604786E-7, -1.7165177792088074E-7, 1.763479197337334E-7, 2.69549360686389E-7, -1.235944767627445E-7, -2.7077349486029547E-8, -5.082100390955981E-8, 6.418709666631059E-8, 1.3261883312796444E-9, 6.169890639091943E-8, -6.246101770891942E-8, 2.6809372739374906E-9, -7.230153769769639E-8, -7.474735335873907E-8, 1.7546058769416181E-7, -9.092205180912641E-8, -2.0402946719867783E-7, 1.1271196079715094E-7, 1.8524103421930784E-7, 2.616279589991811E-7, -2.6527643912437287E-7, 3.0127310904418923E-7, -2.7293970847320912E-8, 3.2548474116654305E-7, 5.827375699906704E-5, 1.187277107857544E-4, -3.404367826446943E-4, 3.1504774071168865E-4, 3.6701170016134805E-4, 4.908164768605064E-4, 3.898775391986613E-4, -4.684689089479378E-4, 2.768629858557956E-4, 1.3654267867494287E-4, -2.4934411937009896E-5, -1.7177134278657525E-4, 2.1744988417021159E-4, 1.47238585258629E-4, -4.870161520843214E-4, 5.937350581535868E-4, -4.8359590631659027E-4, -1.6667108494281268E-4, -1.1288977838522887E-4, 1.4429128399418305E-4, 1.2453064581324194E-4, -2.2188748023672873E-4, -4.910741135026965E-4, 2.796317442053898E-4, -2.45269174650977E-6, -1.628054167278335E-4, 2.2387131694992073E-4, -4.842133198123622E-4, -2.330959188410318E-4, 0.001367805327807161, 
-1.0985063516107505E-7, 3.335864704404788E-7, 3.163523830240233E-8, 1.2873329291902224E-7, 1.9177021743921178E-7, -3.5004528336686593E-7, 1.962208069857698E-7, 3.015108025903301E-7, -4.6461272970999723E-7, -2.642391746554949E-7, 6.803086866475443E-8, -4.867688312359797E-9, 2.3956731281207978E-8, -1.284448660155645E-7, 6.59394855220703E-8, -2.464160664940197E-8, -1.9165393553526755E-7, 3.3889151418547573E-7, 4.3459180453699243E-7, -4.109437843741993E-7, -1.6805384766537435E-7, -1.077721119939074E-7, 1.7404593754409538E-7, 2.483821950085004E-7, -1.6622539539956148E-7, 1.3545334205573952E-7, -1.2845703302530133E-7, 8.897221475806715E-8, -1.5697316940059972E-7, -4.746452712888883E-8, -9.046487729352358E-8, 2.791650567199572E-7, 2.8291707647442324E-7, -4.667111166620211E-8, -8.578752126715312E-8, 1.8678311679199426E-7, -1.905607006645493E-7, 2.5898871049398734E-7, 2.5524516730597705E-7, 1.2834949726716577E-7, 6.261416759023994E-8, 4.0194224785273116E-8, -4.095567850729871E-7, 7.209369952105489E-8, 1.870953012345E-7, 3.9061202382146775E-7, 1.2035028265756277E-7, 3.3133596891032564E-8, -1.4155134092282766E-7, -6.575384675854886E-8, -1.3401071430628559E-8, -8.059005343514556E-8, 3.6061187325603505E-7, 2.4543241578385214E-7, -2.0163445062844083E-7, 1.927192971796083E-7, 4.510789767164148E-8, 1.7549613119413373E-7, 1.4029398080435165E-7, -3.080842034486434E-7, 2.3565029146070534E-7, 5.787132951321078E-7, -1.0969298444069001E-8, 4.908429066967087E-7, -1.0323180299959732E-7, 1.3407083190543609E-7, -1.4194389229333928E-7, -2.114711599713561E-8, 6.95789500835556E-8, 1.0198570063577047E-7, 1.835014261826078E-7, -4.682642272907238E-7, -3.930432806636574E-7, 6.17541162801401E-9, 1.7750029223238216E-7, 1.2180633478726058E-7, 4.5159797159401324E-8, 1.1797155534621379E-7, 8.923226519742814E-8, -6.909204318752646E-9, -7.018419595112077E-8, -3.222424175489309E-8, -6.737854296330593E-8, 1.5007972012899565E-7, 1.2494841121277573E-7, -9.815426943523883E-8, 9.714895793459112E-8, -2.1140759401188182E-8, 1.0305683534631922E-7, 2.422665296636519E-7, 2.9467368345843E-8, 3.627688195505296E-7, 7.866442751455886E-7, -3.55200730824167E-7, 4.2030797667496344E-7, -2.1856411132065578E-8, 3.704307754742151E-8, -8.356723912260524E-8, -2.2534371444242368E-7, -1.1869273581953666E-7, -3.441633871433625E-8, 9.848975905351398E-8, 2.6302023476368266E-8, -1.6549406970366293E-7, 1.0808574311501037E-7, 2.753083867846438E-7, 1.4091019824202538E-7, -7.056419972578137E-9, 1.255050730664578E-7, -1.491222530925725E-8, 7.90307874835345E-8, -1.626071110871744E-8, -1.269184389905651E-7, -1.4306738594778102E-7, 2.0447184440056005E-7, -7.679376621677819E-7, 3.6853639375441554E-7, 9.409072714219053E-8, -3.496657468877391E-7, -3.2070944399230615E-7, -9.127610547124104E-8, -1.961126775903699E-7, 1.1462954307577023E-7, -3.880427790025936E-8, -3.2602465939360913E-7, -5.872705617932619E-7, 9.949952963204767E-8, -2.7692288251292964E-7, -1.2318930906216556E-7, 2.095494098429245E-7, 3.625764655610729E-7, 1.3374062006434486E-7, -1.5709436728426034E-7, -1.6462889140595932E-7, -7.310326817555631E-8, 1.6740577640020472E-7, 3.041517001107249E-10, 7.15899273276111E-8, 1.2760143253247496E-7, 5.193820708111873E-8, -4.460867939032532E-7, -3.404743428629562E-8, -1.035699348499097E-7, -3.652724481896483E-7, -1.286587492345219E-7, -1.230462559530921E-9, 8.90152696980484E-8, -2.5387468059637077E-7, 1.3634831422096924E-7, -1.5030303045224735E-7, 1.0439489703131842E-7, 2.423727662563375E-7, -3.58351970480963E-8, -1.7314364035011442E-7, 2.2655159754609342E-8, 2.1917160334117552E-7, -8.448542627745074E-8, -1.3986796184026628E-7, -1.0446523007098548E-7, 1.4968543036788462E-7, -8.659908215236111E-8, 1.1153422243040303E-7, -1.376591780289862E-7, -9.644924642002216E-8, 1.828517109774433E-8, 7.42909431264912E-8, -4.5712068344262844E-8, 1.9838755899214372E-7, -1.1035459857087597E-7, -1.773607252740402E-7, -4.217194179437894E-7, 7.632228564870194E-8, 9.353403618683914E-8, 2.3121270900046494E-7, 6.125966422142165E-11, -2.635060180407128E-7, -8.783319140375181E-8, -4.567199844086073E-7, -4.515686045404527E-9, 2.297299411403571E-7, 8.38567610035032E-8, -5.131211116442459E-8, 1.261726208832744E-7, 2.708792686427811E-8, -2.2245038180449624E-7, 2.039245898059579E-7, 2.1770699212668998E-7, -9.485708486533431E-8, 8.699162655278361E-8, 9.138521504408385E-8, -3.4697340833046725E-8, 4.899507110350187E-7, 4.711056362530363E-7, 1.7918656206113249E-7, 2.764387177736242E-7, -5.700739834805413E-7, -3.402509406426302E-7, -1.9345856237552728E-7, 5.068313767607135E-7, -1.9732946827453858E-7, 4.1824131550789755E-7, -3.911117183897945E-7, 9.887846613213663E-10, 1.1428333193475978E-7, -2.8249360387418197E-7, 4.783857296307317E-9, 1.8367675981337248E-7, 7.054429825487671E-8, 1.246657863111709E-7, -2.7853710198782985E-8, 1.2782173155672166E-7, 1.481173572938953E-7, 1.2308506867076854E-7, 4.0793230923246564E-7, -2.1599799865607423E-7, -6.185590456149435E-8, 1.623799161093487E-8, -3.0523242445136204E-7, -1.0702983232281311E-7, 3.671659200668125E-7, 1.866411440414111E-7, -1.1454669176647734E-7, 1.0725415317909675E-7, -1.8111861313349567E-7, 5.943429227911625E-7, -6.742991119409086E-8, 6.61568276891735E-8, -9.529652392359064E-8, -3.0625363376953624E-7, 7.65425253276679E-8, 2.5304141115993864E-7, -1.1992337442869516E-8, 1.0695865025062551E-7, 1.3764923318304084E-7, 7.057646955507533E-8, -9.717494510383587E-8, 4.911770488892013E-7, -3.730213769972413E-8, -1.9910336312783943E-7, 4.825689328118283E-8, 2.3052495088556952E-7, 4.3932705391833116E-8, -1.6366360444668986E-7, -4.082593681464181E-7, -1.238269834736931E-7, 1.0612495980552953E-7, -2.583333993791876E-7, 1.5134027575041957E-7, 1.4076417396196525E-8, -2.7047072518840334E-8, 2.541657756354246E-7, -3.563184757160401E-8, 1.0629539309030326E-7, 1.3441867664559909E-7, 6.32898741563545E-8, -7.195655512799225E-8, -1.8484480049334981E-7, 4.181848867580227E-8, 1.8584595790315993E-7, -1.3564277998794597E-7, 5.844173529886833E-7, 2.5237704913468886E-7, 4.967254347494751E-7, -2.5889980073900637E-7, -1.786429463788315E-7, -1.6587210469071513E-7, -2.687497150487153E-7, 1.0973330395498156E-7, -1.4314911888166176E-7, -1.3267722018330958E-8, 9.78468573950492E-10, -3.0997195931783993E-7, -3.514267333193312E-8, 1.1175131884099272E-8, 2.8548868193684096E-8, 5.4565104961269904E-8, -6.999455347548936E-8, -5.688609653196927E-8, 3.6076211265187343E-7, 5.246020110019674E-7, -4.518683333667464E-8, -1.9513128501665648E-7, -6.4320799169095E-8, -4.0115566930176834E-7, 1.4352243741447228E-7, -3.382050815745901E-7, -1.0297537657940355E-7, 3.650438472973816E-7, -3.6283441866196445E-8, 3.0127228980320684E-8, 3.3699188300837176E-7, -3.119927820281665E-7, -2.501585287703307E-7, 1.0815260841951347E-8, 5.111949973029598E-8, -6.933159327160892E-8, -4.592374818639659E-8, -2.3015183461789139E-7, 9.244664182508102E-8, -1.0521899431195665E-7, -2.9283349198436115E-7, 1.3940379116579572E-7, 1.9755280672214734E-7, 3.9586228567321843E-7, -2.2384877552800282E-7, 2.4385495344816807E-7, 3.631156240602895E-7, 8.227986828580898E-8, -1.991320959866598E-7, -1.1654086567675825E-7, 4.094774451776232E-8, 8.317511588229425E-8, 1.6928475187084508E-7, 8.216616053732506E-8, 8.539701238337884E-8, 5.982545205132205E-8, 3.672975243314107E-7, 1.7426708359293962E-7, -2.2607540023460975E-8, -1.712942075625702E-7, 2.733039580544423E-7, -1.015633941717552E-7, 4.6593050714062163E-8, -1.4250601532642264E-7, -2.800701036180499E-7, 1.673813604992347E-8, 3.374557499966807E-7, -3.151136239564265E-7, -5.5791947388360974E-8, -2.2835874896816362E-8, 2.9414927000335935E-7, -4.12138616129522E-8, -8.33232779492754E-8, 1.2262220712315299E-7, 3.212363811104073E-7, -2.4871530495234633E-7, -3.356906455492684E-8, -1.0836741617378897E-9, 2.4232922291571563E-7, -1.4656916655582637E-7, -1.401492978267187E-7, 1.0411559914105778E-7, -2.5683006943453663E-7, 4.595278209076592E-8, 1.1044129325092228E-7, 5.1274164409516686E-8, 2.779651462408473E-7, -5.231193250620133E-8, -2.29201533827366E-7, -1.613481717055396E-7, -1.6383102268168656E-7, -4.036171261071816E-7, 3.550709936152308E-8, 1.858978172669444E-7, -3.0206612724752297E-7, -5.172340945023335E-8, -8.902662045472014E-8, -9.621916775085208E-8, 7.991710531882795E-8, -5.88102686815857E-8, -1.5939314992116754E-7, 7.01806974927107E-8, -1.1685344835287143E-7, -3.707300051815278E-7, -1.803135914921281E-7, 4.76422800273531E-8, -1.6457591768127084E-7, -1.7055285021071262E-8, 1.1434699023279181E-7, -2.358794900786197E-7, 7.742925763444252E-8, -6.431165226734841E-8, -9.368728486268346E-8, 9.134634779164086E-8, 1.1883653024227739E-7, -1.2615822368882543E-7, 2.395690886540651E-7, -7.760268515170584E-8, -1.7233783726131812E-7, -2.0488776929110377E-7, 3.95871163264128E-7, 3.0696155803883273E-7, -2.2309517621779298E-7, -1.981698639304227E-7, 2.0796730786899212E-7, 1.917456204745743E-8, -1.0200645530284442E-7, 9.417257111316594E-8, -6.42392335593168E-8, -4.0205063677915486E-7, 8.631232395626664E-8, 2.7529935310552637E-8, 4.634875530800383E-9, 5.48889616195057E-8, 1.405860844067179E-7, -3.041884345662325E-7, 1.1701135961545925E-7, -1.3943772999422274E-7, -1.2958102075925412E-7, 1.4725456895333976E-7, -2.6541116204661865E-7, 4.3351659501738886E-7, -4.333870303523019E-8, -2.917887295933064E-7, 1.4627336817897585E-7, -2.3336613777357544E-7, -6.213571032038254E-8, 4.973320926957075E-8, 6.134650699767422E-8, -6.13103374979988E-8, -6.61667152070947E-8, -3.3177272070836936E-8, -9.082204141509764E-8, 3.605886511521871E-8, -8.731271894306928E-8, 1.707216633946993E-7, 2.218994322998328E-7, -1.6072069599259527E-7, 1.90753153450298E-7, 2.295430235873137E-7, 8.666586234233557E-8, -2.6027955978560536E-7, -3.048863381537604E-8, 5.51955832150711E-7, -7.44469229330308E-8, 5.317721336708004E-8, 2.757086070785146E-7, 2.2993675792489468E-8, -2.0197587726207164E-7, 6.597178300243072E-8, -1.332085675110822E-7, -2.4518449275268154E-7, 1.786190628702977E-7, 3.15282787339081E-7, -2.60971435255215E-8, 7.727163700550142E-8, 3.427316594259555E-7, -4.0408548996506386E-8, 1.0722486886336219E-7, 8.104996060858842E-8, -3.927056171264148E-8, -1.2722970296125665E-7, -3.113687530255949E-7, -3.4387621074456716E-7, -6.766974072730512E-9, -2.2418451217978629E-7, -2.1629322223422282E-8, 9.099298797701856E-8, -1.5355337353206478E-7, -4.219163918872686E-8, 4.6934940121043004E-8, 5.53574560723827E-7, -1.0675474316811823E-7, -2.9400699453569654E-7, 2.598574182666983E-7, 4.23905062919064E-8, -1.4100088415945248E-7, 1.0627196786936055E-7, 2.445417313757031E-8, 1.0556842489653035E-7, 1.3392461478387407E-7, -2.387688567944568E-7, -1.2996855668112764E-7, 1.8772891920576757E-7, 2.285123904317908E-7, -1.5413891417179843E-4, 3.7757227950357497E-4, 1.858351814078473E-4, -2.7026078722959605E-4, -2.8968855549779094E-5, 3.1548974661300334E-5, 2.9827983655739837E-4, 2.1783141134602276E-4, 4.4305546063257346E-4, 1.8585591972552546E-4, -1.425464523060041E-4, 3.700706154044141E-4, -1.4643271938393607E-4, -1.7297890970901763E-4, 2.437690784695477E-4, -3.762553066735299E-4, 1.8550560771319656E-4, -3.494044080042442E-4, -2.874836468962431E-4, -2.71812444986314E-4, 4.735700270387131E-4, -6.254313893341096E-4, 7.718183327971694E-4, -4.941185812837613E-4, -3.175488000654064E-4, 8.368963747220283E-4, 2.676388977381779E-4, -6.852354125429982E-4, 3.969875414542042E-4, 8.865620525199376E-4, 
-7.528440631341312E-9, -4.60938395623978E-8, 2.0781874888321957E-7, -4.568804325957315E-8, -2.5513376374861897E-7, -2.0390774166841476E-7, -1.7575587391777957E-7, 2.0526750529969533E-7, 3.125824340049337E-8, -3.047889162613291E-8, 3.423836369015773E-7, 1.5929414461389196E-7, 8.527577275173451E-8, 6.769213122170214E-7, 1.6842153739917549E-7, 1.990715847963816E-7, -2.9097885119095494E-7, -1.2998897491579008E-8, 1.524723913065821E-7, -3.39442588835223E-8, -4.2672046903942776E-8, -2.545772071998151E-7, 2.3586945964128163E-7, 4.476210116912898E-8, 1.4403605603178562E-8, 7.614420564316523E-8, -7.989231403602352E-8, 1.7176410976244763E-7, -1.3199622331297313E-8, -5.656725260991389E-8, 1.8001749197925508E-7, 3.390230140046044E-8, -2.7225131632801216E-7, -5.943380085247869E-8, -5.7357133374923624E-8, 2.3769905487744942E-7, 2.0381713741445798E-7, 2.8404269003907413E-8, -1.1101551354761377E-8, -1.5525660264328831E-7, 3.6611426684613856E-8, 9.272054211897982E-9, -1.0796932015213798E-7, 3.2183256763056527E-7, -1.6521377833419054E-8, -2.9746730349172575E-7, 2.662964782009442E-7, 1.6209816176316954E-7, -1.6127223486563272E-7, -1.567140819838042E-7, 1.3196037058531679E-8, -2.741392180399118E-7, -9.300381515765207E-8, -3.2304265066885363E-7, -7.655304561331369E-8, 2.05912104284794E-7, 1.6806331410576312E-7, -1.2865197414073158E-7, -1.3643699854913505E-7, 6.559861210778317E-7, 1.6866651688502243E-7, 6.252110795665725E-8, -1.6041976658249188E-7, 1.5486242532347117E-7, -1.0542321387435483E-8, -1.850181705399221E-7, 2.40482140781491E-7, -1.4295786356364014E-7, 2.5533040247251217E-7, 1.6680054625474166E-9, -2.8314757190109237E-8, 1.7552465980150547E-8, 7.273295551173781E-7, 2.393322465502205E-7, -1.5570108859183E-7, -2.579393854424553E-7, -1.8314920733330061E-7, 2.9731113000765657E-7, 8.262264065928243E-8, 1.9533368771347424E-7, 6.858009891719341E-8, -1.4902737085045779E-7, 7.530096734724107E-8, -4.3414014863945176E-8, -5.4043872084894734E-8, -2.625051817770449E-7, -4.2103227040231636E-8, 7.734879541105859E-8, -4.3780997572901425E-7, -3.6456602972046884E-7, 1.5020613127821013E-7, 1.0044388499625745E-7, -2.5581198758143583E-7, 6.41875702828077E-8, 5.674631397402341E-7, 3.0161199827211797E-7, 2.5374322057957094E-7, 2.7234452420310634E-7, 1.3863221946438673E-7, -1.7553820582959635E-7, -3.371587170545691E-7, 1.2159588584135105E-8, -1.2757996752939925E-8, 1.4364152547142506E-7, -3.002314165861907E-7, 2.3396493787295152E-7, 2.4967373533948216E-7, 8.394000642321407E-8, -2.9536515985306667E-7, -7.276466681160109E-8, -4.920435783993332E-7, 2.0640750279663133E-7, -6.585736186690781E-8, 1.0531018963381084E-7, 3.285733864898273E-7, -2.710017967490592E-8, 9.568462557234253E-8, 2.1173544190164785E-7, -1.5277922995290426E-7, -1.0120002363987751E-7, 5.552703389159455E-8, -4.2618127066353625E-8, -3.6447729211844063E-7, -2.0900972218068477E-7, 2.7522905628511407E-7, 1.1209117549673947E-7, -8.515629374110145E-8, 3.3935783878348735E-7, -2.0458028930449359E-7, -1.867189829613365E-7, -2.9471170967723845E-7, 2.332401845721003E-7, -2.3884303708499117E-7, -1.687686255512565E-7, -1.2018676507821704E-7, 2.1451650504160747E-7, -3.9442263151240704E-7, -2.1232012688927558E-7, -8.755939624067973E-8, -2.117189757809605E-7, 2.8864276357474117E-7, -1.3533368629847915E-7, -9.605609783634954E-8, -8.282421379460071E-7, -2.7441420169318564E-7, -4.331242321735858E-7, -1.3272467699156576E-7, -8.512269717356016E-8, 2.0624186933281092E-7, -1.0686517090004987E-7, 2.2642326480575525E-7, 3.410847600747038E-7, 2.4032534768133413E-7, 1.9888017438326644E-8, -4.052515698151372E-7, -5.4185470059054796E-8, -5.7743560248450476E-8, 3.1267070454360025E-7, 1.0724312149973401E-7, -2.0808959443974375E-8, -1.6084810190967726E-7, -1.3521959422334835E-9, 4.4041049143308757E-7, 2.676469744270921E-7, 1.4335282144484875E-7, 3.7909328879974877E-7, 3.134436851525003E-8, -6.935030398376192E-8, 3.958584553489534E-7, 1.0744568593324377E-7, -1.7311814644075738E-7, -5.370590351943249E-7, 1.5047842979123526E-7, 7.844098035600722E-9, -1.3765183629111213E-7, -1.4923603145081455E-8, -5.0548507537236156E-8, -1.7614111397608275E-9, -1.0941792723304958E-7, -3.152180397372263E-7, 2.8022239648228474E-7, -3.225042060953979E-7, 4.539689585503898E-7, 2.7095151255330247E-7, 1.6383379679856925E-7, -1.8532837189939143E-8, 2.2568010951683067E-7, -8.809326280137923E-8, -6.566637372835493E-8, 3.999353029796023E-8, -5.71452560674333E-7, -2.8834512247277303E-8, -1.2880204348975945E-8, 2.4331122133199277E-7, -3.862658506655509E-7, 7.148288864860419E-8, 2.672652702267386E-7, 1.768528804613407E-7, -7.865082029315866E-7, 4.0852278275197335E-8, -3.393710298478271E-7, 1.5928327367846227E-7, 4.006739867099912E-7, 1.1275735862392985E-7, -3.318387124908198E-8, 2.3953141065424466E-7, 9.981008725624426E-8, 1.1088553943023146E-7, -2.3430669401403368E-7, -5.1465704154577555E-8, -1.3209777103617216E-7, 6.993367006259038E-8, 6.013953034232187E-7, -7.744012196577614E-8, 3.557069545840454E-7, -1.664030952006078E-7, 3.7224780152459406E-8, -4.5349486266413675E-7, -7.355117441339813E-8, -3.2157549316567216E-8, -1.5016175342243145E-7, 3.3701833788088323E-7, 1.0029121738961292E-7, -5.42293804459361E-8, 7.885047993316243E-8, -3.5798714381503755E-8, -1.1270154213412268E-8, -2.063522707029493E-8, -5.541510247943897E-7, 1.0535462049582937E-7, 7.383827006825431E-8, -4.2353846904243935E-8, -2.709085048720923E-7, -4.028343827655474E-7, 1.0408521293989335E-7, -1.448345431800237E-7, 8.589126681365398E-8, -1.436168979258504E-7, -1.726368952873458E-7, -5.586164574996513E-8, 2.5475300225491707E-7, -2.438445179997578E-7, 3.386168468151339E-7, -1.822470524722089E-8, -1.4233596936387831E-8, -2.1588411244356576E-7, -2.0018273033242392E-7, -8.348720368106591E-8, 5.420749447993736E-7, 2.009974020084785E-7, -2.2039530053502766E-7, 1.090936144889514E-7, 2.946628187131089E-7, -6.020870470280068E-8, 2.4273456660274245E-7, 3.3635534918218164E-7, -1.005612990592868E-7, 1.7956418292501123E-7, 1.8621310401985724E-7, 2.3617043402315983E-7, 2.7636152091659355E-7, -1.702185799690411E-7, -3.970291277953657E-8, 1.52529683379146E-7, -4.5635374228869985E-7, 1.7031355155983946E-8, 7.377648764300502E-8, -2.2646899885185117E-7, 1.6940760527656277E-7, -3.1737688392589804E-7, 1.1802799019057265E-7, 5.18307248987522E-7, -3.658831363666034E-8, 1.3477655981039798E-7, -1.7795444003341493E-7, 3.8073628915522455E-7, -2.990326831793052E-7, -4.723214939791668E-8, 2.9123385786588612E-8, -1.247918717487027E-7, 1.1656319250616826E-8, -2.7850879425916375E-7, 2.0123321653607434E-7, -7.833643135024694E-8, -2.6136738903399315E-7, 1.9924437597475132E-7, -1.1038656055389127E-7, -1.761779628444213E-7, 1.10381152864354E-7, 1.4222564253780368E-7, -3.034160216506223E-9, 4.3940090536492697E-7, 1.3711678801747783E-7, 9.743628429960295E-8, 3.053351141317998E-7, 9.672040859069415E-9, 2.316918160003932E-7, -1.3098514499690995E-8, -1.3959773993597303E-7, -2.0171388883818475E-7, -3.9319911748102543E-7, 3.367000529399866E-9, 3.3070718425578985E-7, 1.81325634648121E-7, 2.0536533599758046E-7, -2.108592852633462E-7, -8.074250166764126E-8, -1.4375007654645062E-9, -1.5028948467505142E-7, -1.599487110112607E-7, -1.6853918205263783E-7, 2.540915013695484E-7, 5.376502795158514E-7, 6.011522958945119E-7, 1.5333374595267772E-8, -2.513453556555119E-7, -2.3740287262524455E-7, 2.902263335194962E-7, -1.784667670503115E-7, -6.183969909986005E-7, 2.3171037606828064E-7, 1.446160295434894E-7, -5.571286352418555E-8, -1.2637137420735932E-7, 8.737569483190244E-8, -1.4879048093855235E-8, -3.86216381892896E-8, 1.501728507252366E-7, -9.267368451535068E-8, 5.7471610880382E-7, 1.8880064088540377E-7, -2.259121183063488E-7, -5.942237241537509E-7, -2.173198798500869E-7, 1.0956147054801225E-7, 2.2131496323761494E-7, 1.3121094503112579E-8, -5.48705972027395E-8, -7.501215363933364E-8, 5.302741066823056E-7, 2.258908763187437E-8, 3.0082120559363996E-7, 2.6507907797813086E-7, 3.0608947444976736E-7, 1.0561026956083912E-7, 2.5177786016830917E-7, -1.3802189611454216E-7, 1.6289277747815506E-7, 2.7908636110715827E-7, 2.3152709795320142E-7, 3.772592332145827E-7, -5.174085145731623E-8, 1.5511361427338348E-7, -3.997612149007484E-8, -1.4081284115435668E-7, -3.1989814526285007E-8, -5.201448005900733E-9, 1.908945308884828E-7, 1.0694845148035035E-7, -2.236402079478288E-7, 1.1708291449021757E-7, 7.071331749316973E-8, -3.6503057048660744E-7, 4.279959148722531E-7, -6.256418705401954E-7, 8.286172351327822E-9, 5.8256377170708545E-8, 4.380329372091371E-7, -3.755591073272204E-8, 7.304265454041188E-8, 1.8010548669567983E-7, 1.416424213232495E-7, -2.5814663556920978E-8, 1.400912156601924E-7, 9.332477179816985E-8, 2.652485358261398E-7, 1.631585488396486E-7, 1.9605638384918884E-7, 2.450099308850506E-7, 1.074703182936118E-7, 1.3790879689443346E-7, -8.464024803809445E-8, 4.258895795596178E-9, 1.0399625174122933E-7, 2.674524807507882E-8, -5.75660791550565E-8, -5.1065885489726037E-8, 6.671018985974883E-7, 7.69256209807625E-8, -1.0229489457790305E-7, 2.1339864897775386E-7, 1.791322302654857E-7, 1.762867402858425E-7, -2.6436218848503617E-8, -1.2489381821062722E-7, 1.2713122723977984E-7, -1.1177523625730777E-7, 1.5556889279533076E-7, -1.1122611280638254E-7, 2.3507395789893297E-7, 8.588488381477604E-8, -3.408351844738979E-8, 1.0087982048877154E-8, -3.608519830576717E-7, -1.1466115048880593E-7, -1.1635136853378726E-7, -1.440014182400154E-7, -1.5301091810484766E-7, -2.1115208217643902E-8, 5.6018231163800386E-8, 1.9883897895727124E-7, -6.578297113802908E-8, 1.1323995368823316E-9, -1.4011163882340982E-7, -2.5383403741447574E-7, -1.0644044145447057E-8, -1.2105668469081534E-7, -1.2151187036428168E-9, -1.6779869134917678E-7, -5.469725320371964E-8, 2.0594286185617358E-7, 2.568117502168018E-7, 1.3524430286899124E-7, 9.65250869322106E-8, 4.9087576533907247E-8, -2.588608614167992E-7, -3.8628453350683886E-7, -1.2878703500586903E-7, -6.142875887130135E-8, 2.700610082732753E-7, 7.35514830345376E-8, 1.252249254992552E-7, 2.570134083084879E-8, -8.395347430861952E-8, -4.7186627705420614E-7, -2.8930456290059773E-7, 7.887938979679284E-8, 2.8178070249962247E-7, 3.48302965090402E-7, -3.0131316853551296E-9, -2.3234216970918538E-7, -1.2810395532701763E-7, 2.397075260851042E-7, -2.9246942982522324E-8, 2.3984131028212687E-7, 2.2277061960420607E-7, -1.953475591956861E-8, -1.1559243871407572E-7, 1.6070027910949487E-7, 1.1666137376262375E-7, 1.8949519466860872E-7, 8.858946691495585E-8, 3.1138566451623167E-7, -8.647838697303114E-8, -4.6398844733453916E-8, 3.5776893041814013E-7, 4.406587096432897E-7, 3.5252817675086246E-7, -1.212641264657625E-7, 2.7657982358542973E-7, 1.4051789953884924E-7, -6.48856588537961E-8, 1.9910474378350058E-7, 1.318761093109328E-7, 4.3339789116546066E-7, -8.585510336052343E-5, -1.6444009690124418E-4, 6.312020202512824E-5, 2.1916532251787656E-4, -2.4795863430278337E-4, 1.6233617395387847E-4, -6.65210648521384E-5, 8.850175194335005E-5, -7.104075630133991E-4, 3.408003503677385E-4, -7.057123305101148E-4, 5.5810204132635284E-5, 5.453388499863841E-4, -3.3917476439670704E-4, -6.32405442260668E-5, -3.1984388020136334E-4, 2.0510977833506025E-4, -2.2300119356979557E-4, -5.9728254123202016E-5, 2.2441216170198858E-4, -1.8952817194548582E-4, -8.066454744777453E-5, 5.578782009751719E-4, -7.842086058190693E-6, 2.1412567925921015E-4, -2.019306974200596E-4, -5.397093851618565E-4, -4.240013040810003E-4, -2.0802056808113712E-4, 0.001661903280562929, 
4.882886060596681E-7, 2.3762631556290386E-7, 3.068094537534562E-7, 3.090554756813818E-7, 3.079263918486451E-7, 2.3679902852178778E-7, -8.520310318137822E-9, -4.108657042343441E-7, -1.9181615438719343E-7, 2.665687550881935E-7, 1.2067144268212452E-7, 1.9895263187206312E-7, -4.973590365338737E-7, -2.727646248058915E-7, -1.8976014030747318E-8, 2.2023206294246116E-7, -2.0315355694588198E-7, -4.7283413104762436E-7, -3.7441003554657866E-7, 1.4864122867621265E-7, 1.746609119624824E-7, 2.7790306129609075E-7, -6.916166482099228E-8, 2.782194537983738E-7, -2.489341629390002E-8, -2.469690170715633E-7, 2.6711070721294084E-7, -1.992865837319109E-7, -2.8465900486346836E-8, -1.6879154266235216E-7, 2.8874234941289153E-7, 5.083763090292802E-8, -7.629872546071948E-7, -1.1783142709909655E-7, 1.2203179943311643E-7, 4.7356126472939446E-7, -2.827160303708478E-9, 1.270791678001203E-7, -1.5412318715558754E-7, 1.1537310739171124E-8, -1.50036267218802E-7, 1.747627709234879E-7, -1.3426868145804993E-7, -1.5596725577972822E-7, -1.0522059491500536E-8, -3.333164431541323E-7, 1.0168772813633565E-8, -2.0539176597737854E-7, -1.72364069154958E-7, 4.489595780898152E-7, -7.217522714579061E-8, 8.39477613135311E-8, 2.0611108819013043E-7, 2.1149716434714003E-7, -4.507402785000663E-8, -5.6816274105694834E-8, 4.831036487651065E-9, 1.2948491658431473E-7, -1.0402632724159537E-7, 3.716511819382029E-7, -1.1387562438133527E-7, 1.0360922870152213E-7, -1.6730689003456652E-7, 1.298602101559505E-7, -2.4251419793787384E-7, 5.376062303425896E-8, 7.344946076689469E-7, 3.9651541787787326E-7, -2.5247749501532554E-7, 8.463631790577323E-8, -4.5534117028511935E-7, -3.756916415056179E-8, -8.997162238808737E-8, -3.314542614462465E-7, 2.3389451832930104E-7, 2.8770379401604695E-8, -1.8329086518710668E-7, 2.945319887743232E-7, 6.330743902197652E-7, -2.0022900144529148E-7, 9.694952206636988E-8, 1.6056069839199313E-7, 1.2740163873530038E-7, -4.964810081538998E-7, 4.148267020202426E-8, -5.7990174814597846E-8, 1.1211774518674882E-7, 1.4856803088947045E-7, 3.816407565303397E-7, -4.5512076716211477E-8, -1.5359175964125155E-7, -3.953288318551683E-7, 1.358030002880909E-7, -5.361163023990868E-7, 3.7378948788815286E-7, -9.101628265299304E-8, -1.1188135253460929E-7, 2.7308670968286998E-8, -1.9986780551739587E-7, 9.150528389313808E-8, 5.10174316390853E-7, 5.096000008747908E-8, 3.5203664268862594E-7, -1.5984277519953837E-8, 7.24981640431946E-8, -4.338989290750195E-9, 1.8126720027069073E-7, -1.8489891452983224E-7, -3.4946818499288826E-7, -1.0218649202316495E-7, 2.3798905029888894E-8, -2.593895370612643E-7, -3.523911277730702E-8, -7.4272567141001985E-9, 2.0067621033018166E-7, 9.431190463197979E-8, -7.56120358596886E-8, -3.352036150821122E-7, -1.3784845155278852E-7, 1.833361151670429E-7, -6.442573150831775E-8, -1.62545677467002E-7, -6.459910556139086E-8, -1.3455406366138486E-7, -6.895303593252507E-8, -1.5281232200854173E-7, -4.118456543056803E-8, 2.0362925782263267E-8, 2.7595238419133246E-7, 5.700913113171442E-7, -4.3565174617457924E-8, -2.1391342183220845E-7, -4.9299014049481813E-8, 7.536800587539072E-8, -1.0535299721386948E-8, -2.0978549402461162E-7, -1.8546556718174928E-8, 9.351015186548017E-8, -2.774755284125882E-7, -1.7419543941123758E-7, 6.741730042136654E-7, -5.835107447923838E-7, -7.622256383493689E-11, 3.4890091659965263E-7, 6.840225909844773E-8, 3.0842367655400253E-7, -2.463596185998799E-7, -1.231015669982757E-7, -9.74479029859667E-8, -8.496285359309524E-8, 5.341848617748233E-7, 3.6447668060012794E-7, 3.059557772383705E-7, -2.6591079829162075E-7, -3.137463173881564E-7, 4.4938267691614535E-8, -8.946555118825673E-8, 3.1292877451474233E-7, 4.987451649439189E-8, -4.151971399401947E-7, -6.579360058476601E-8, -8.28978535431904E-9, -2.3671931681025565E-7, 4.2044395853895567E-7, 2.076958963871643E-8, 2.10496971157331E-7, -7.941289969760175E-8, 3.349155712365845E-7, 2.0789583857182474E-7, -2.2645177582478737E-7, -1.914685265542972E-7, 2.496060075096292E-7, -2.5218910788362723E-7, 2.5102271706476306E-8, -2.7111667888424557E-8, -1.0111587932761036E-7, 5.175360328259073E-7, 4.094728029610815E-7, -2.5017082575401676E-7, -5.121682066014501E-8, -3.385268172628033E-7, -3.872291942480468E-8, 7.381143609185092E-8, -2.834578658861781E-7, -8.738683550176248E-8, -2.694725799445288E-7, 3.880736121398104E-8, 1.3726813547259597E-7, -1.4311841450708139E-8, 4.525924568554286E-7, -1.945926329918865E-7, 1.9212284751897315E-7, 7.706512906599884E-8, 6.255887450641477E-8, 1.7833514439482959E-9, 1.5272845592833556E-7, 2.1744164908070905E-7, -2.4479358236796162E-8, 8.844539405469121E-9, 3.345363699547468E-8, -2.1720343609693377E-7, -2.3627765321898203E-7, -2.507864944269303E-8, -3.4917486717899693E-7, 2.612187250513362E-8, -1.843262224542474E-7, -5.199233252284151E-9, 5.7571573104684386E-8, 8.3515429328182E-8, 2.7589229544762783E-7, 5.3173831186305604E-8, 1.490267073078969E-7, 1.837966023351583E-7, -1.7297659995016898E-7, -7.159541038066701E-9, 2.2946059461488557E-7, 2.246897756138927E-7, -3.358063906048372E-7, -2.8509898066532753E-7, 2.0129397707118475E-8, 1.3127841879539209E-8, 4.495930038360964E-8, 1.625889755561141E-7, 4.638677583033641E-8, -1.6304407881436567E-7, -2.5037549526794713E-7, 3.3491166422180434E-7, -1.7140090936280317E-7, -1.716601410056684E-7, -7.025863931733192E-8, -3.470691946267488E-8, 2.0684628325480087E-7, -1.8469624969434908E-8, -1.583285946752761E-7, 4.7132143180661864E-7, 1.9181437848346014E-7, -3.892411164088658E-7, 3.4193420372100487E-7, -5.931464707490044E-8, 2.841504818726217E-7, 1.7751222602078262E-7, -3.4234121087817245E-7, -3.0870774045511384E-7, -4.5846601352614584E-7, 2.5319737567609484E-7, 2.4960726202484103E-7, 1.1728277567782574E-7, -3.3946025279923357E-7, 4.4176255381154036E-7, 2.3052538703462065E-7, 7.035930423222509E-8, 4.9529268319550524E-8, -1.6710027812129968E-7, 1.197609171798678E-7, 6.123293383079298E-8, 2.8247008823901604E-7, -8.533969270329851E-8, -9.893175708785505E-9, 1.7161545112239913E-7, 1.7441550667584685E-7, -1.763087414461751E-7, -3.5552285242357377E-7, -8.392812995125195E-8, 2.9565057613991905E-7, -2.758871152727477E-7, 1.7741597213657086E-7, 1.8396269552011015E-7, -2.0187433429284745E-7, 2.501409911045663E-7, -2.3500729976072406E-7, 1.404171279778604E-7, -2.6817936866442884E-7, 2.238422188934341E-7, -2.664668248944297E-7, -1.0509149724799829E-7, 3.0178071646144215E-8, 2.713643868434708E-7, 3.7541268384408606E-7, 6.524455473015972E-8, -2.439653306637641E-7, -1.3558138457266158E-7, -3.279909486880868E-7, -5.2895066563219715E-8, -2.600555976080455E-7, 1.9847155937808546E-7, -2.4298888296916276E-7, 1.4911065318655435E-7, -7.331346804217874E-8, -2.8766145407133785E-8, 2.150202743207187E-8, 9.429129659835147E-8, -1.5935224719450815E-7, 5.386446163245152E-8, 8.686900938444201E-8, 3.5410192081518944E-7, 5.768138784708163E-8, 2.934701405717099E-7, 3.577895636522782E-8, 1.2453692559783627E-7, -1.8223602007551877E-7, -1.5188745984712822E-7, -8.49933865316199E-8, 1.1372141550658375E-7, -7.022407402621257E-8, -4.061538339515883E-9, 3.8784470553447744E-8, 1.4909038003962796E-7, -5.359722121512101E-8, 7.910228456958082E-8, 2.058784706428186E-7, -2.8679196918938135E-8, -1.6628303621529926E-7, 2.0717187442602215E-7, 1.855452041170965E-7, -1.6450575139185142E-7, -1.5140502299541737E-7, -1.2563379135212688E-7, -3.327871915990841E-8, 4.687372872531189E-9, -2.032347766004218E-7, -7.859966094542288E-8, 2.8567347531033325E-8, -1.1047916516246683E-7, 4.19823334818209E-7, 5.3745983484988065E-8, 1.8815804713677078E-7, 4.202929586556859E-7, 7.942854923038537E-8, -1.2783625886460162E-7, 1.1126748144391705E-7, -2.0094857192240746E-7, -2.1813735663871357E-7, 8.179085484401655E-8, 4.1757549801118617E-7, -1.7655837933299804E-7, 2.2913134141662012E-7, 1.0912135814787325E-7, -1.1404724842471311E-7, -1.822940559602871E-7, -4.282487685543131E-8, 3.6025230845617803E-7, -1.8150025927380977E-7, 3.547461832133963E-7, -1.8876020254561304E-7, 8.743080342609574E-9, 3.713729454899305E-8, 1.4949169919046589E-7, -2.71880967568735E-7, -5.161140620076452E-7, 2.3860834471277824E-7, -3.082422605669515E-9, -3.7701996792621317E-7, 6.173238927935494E-8, 1.7104880150839916E-7, 8.088924822911522E-8, 3.90980380611588E-8, 1.8296958690735164E-8, 7.269278603987359E-8, 1.7721034083095478E-7, -5.652171516466062E-8, 3.371316401939021E-7, 7.937101517519617E-8, -4.973901757243302E-7, 6.052183455927845E-8, -6.33149022201686E-8, -5.7667930819692E-7, 2.0256381446722306E-7, -2.463092179272828E-7, -1.0853711535501957E-7, -8.056847650355687E-8, 2.49796510229228E-7, -5.9499117233969767E-8, 1.8933784441526273E-7, 8.387805223991678E-9, 1.859514873651511E-7, 5.068529972643246E-7, 3.336533065117438E-7, -2.1108021290342796E-7, -3.552348621446714E-7, -1.5655479884737538E-7, 1.863819587071202E-7, -2.1280629072044107E-7, -2.39466652504635E-7, -2.0723602901352141E-7, 1.2465580602388925E-7, -1.8328540696265025E-7, 1.757297264887824E-8, 4.797280077250634E-7, -3.2670482303528364E-7, 1.7089682356142488E-8, -1.8797755521652567E-7, -1.6223452265962628E-7, -3.22618371907501E-7, -1.5590052736980724E-7, 3.093063256142767E-7, -2.8632768869491735E-7, 5.0420527004024826E-8, 7.607210800873045E-8, -1.5860774183202453E-8, 3.855084830839363E-7, -8.734042600743196E-8, 7.665999050718188E-8, -2.3913584818706943E-7, -4.713383786201985E-7, 2.6811327521213533E-7, 9.863623457851585E-8, 8.335690372141454E-8, 5.634174421001279E-7, -2.5356139213553016E-7, 2.654269305416663E-7, 7.206233584381021E-8, 3.0736123245458346E-7, 2.8775901048900227E-7, 1.1109178274944687E-7, 2.328520301765705E-8, -3.4414948508873463E-8, 2.0902732360915467E-8, -1.0760055533977023E-7, 1.6299308237058355E-7, -8.059546873955428E-8, 3.9934005350422914E-7, -1.1499541030495454E-7, -4.956697766628658E-8, 2.0186711340429418E-7, 2.7054053524795065E-7, -1.1036262877431234E-7, 3.942883246068673E-8, -1.859777240485901E-7, 9.803672097929416E-8, 3.4331526352749363E-7, 8.419230193640964E-8, -3.1433151558739773E-7, -1.1636359285640669E-7, -9.366269587559703E-8, -1.9987627804651078E-7, -2.5558995942541023E-8, 1.7834335926942688E-8, 4.119377178551581E-7, 3.2784509824547165E-8, -1.3671828176523128E-7, 2.066487019986994E-8, -6.500451566870578E-7, 2.5755103501510683E-8, -3.989012499572559E-7, 3.4902967884418977E-7, -2.0213958932363175E-7, 1.309057280134637E-7, -4.888540822953234E-8, -2.2742632922418206E-7, -1.5809725322176954E-7, 1.3974510896726928E-7, -2.9480367942981525E-8, 2.289815067975943E-7, -1.1002790104364129E-8, 6.281974912680348E-8, 1.076502464525079E-7, 1.9729484553754822E-7, -1.99697614372671E-9, -9.012126038439211E-8, 3.356337494215216E-7, -1.71276864698619E-8, 2.393349967399397E-7, 2.097174704011141E-7, 1.793895644700442E-7, 3.799130117433644E-7, -2.9403365578792583E-4, -2.485261523761549E-4, 3.4480073609423775E-5, -1.563846011587734E-4, -1.344301731507171E-4, -1.3152124094630935E-4, -7.333143006876223E-5, 2.692285191365323E-4, -2.21764698204992E-4, 1.019343031203031E-5, -1.3837001624413315E-5, 1.920491042880825E-4, -1.9309229994881344E-4, -1.9616257347158953E-5, 1.9865534440849405E-4, -1.4032472728356962E-4, -5.744439316403953E-5, 2.131009139810283E-5, 8.521553218405488E-5, 6.194416301938213E-4, -2.2743602027535244E-4, 3.341163889041428E-4, -6.73240785832876E-5, -0.0010897076756670534, -2.0290937757787294E-4, 1.7673226440027864E-4, -1.8456369708822363E-4, 7.46088417244989E-4, 1.6146295902917283E-4, 0.0015460516575216254, 
3.2045123034978194E-7, 2.386249771883222E-8, 2.8773562968416803E-7, 4.150588917066679E-7, 3.263297389570691E-7, -4.7255237733345426E-9, -2.046654931034407E-7, -1.7404177476306214E-7, 5.10748674542943E-7, 1.2704302360131204E-7, -7.682036856962546E-8, -1.515869793123875E-7, 1.71550537883767E-7, -4.892260117432207E-8, 3.5926052854922655E-7, 1.8534529741852662E-7, 3.609859222819438E-7, 1.480578230931276E-7, -2.2227966271238093E-8, 2.5655985793075636E-7, 6.558283596426204E-8, 2.0856767344853862E-7, -2.0965124025380053E-7, 2.9575706543299425E-8, 4.5593073570324936E-8, -2.3313472392558038E-7, 1.9798293460018593E-7, 5.0449078371367265E-8, 2.6965862891146612E-8, 1.695515709747174E-7, -2.332639487547047E-8, -9.305007737612551E-8, 3.004951956804011E-7, -1.7130278516210937E-7, -4.028287643987021E-7, 1.1210305682113681E-7, -1.8512200893046814E-7, -4.8241359288978585E-8, -2.0558724543805946E-7, -5.0505799325599684E-8, 2.015957778160548E-7, -2.5657619353221996E-7, -1.0127822514818381E-8, 3.03879418989947E-7, -3.2349347401047393E-7, 5.879703583258267E-8, 4.975900553480722E-8, 7.518743937887867E-8, -5.795839403836451E-8, 5.38176232751982E-7, -4.4707287657618135E-7, 2.1586326269398617E-7, 1.0590070529585117E-7, -7.526736759932636E-9, 1.526447029647583E-7, -5.0768416840014904E-8, 8.388726071751418E-8, 8.137654518856439E-8, 1.0232334678090034E-7, 2.124836703552061E-7, -3.0656583168621717E-7, 3.8460068889123904E-8, -3.0178178281505353E-7, 1.2284085902567172E-7, -1.8013305840148566E-7, 3.388598879367577E-7, -8.174175662795492E-8, 8.982264172974517E-8, -1.0312603720104738E-7, 3.5869372303151635E-7, 1.1908783310144635E-7, -2.65643156651828E-7, 3.9168905587093166E-7, 3.11847475924686E-7, -2.2996659471084545E-7, 1.5928200916025402E-7, 7.32413648076553E-8, -2.8420093004158266E-8, -4.2534529255347695E-7, -3.7852205331038957E-7, -6.041492979684283E-8, -5.1060908689439245E-9, 3.1108765633207756E-7, -2.546302789600394E-7, -4.756013213157976E-8, 1.9090818103503926E-7, 9.951761592877485E-8, -7.036201343966346E-8, 4.533181200827188E-8, -1.9627577513606002E-7, -5.7279922686713786E-8, -3.11490609164236E-7, 1.898805183066379E-8, 1.5210976369183196E-7, -5.861759143900171E-8, 2.0333923405586706E-7, -1.418192409401517E-7, -4.69829327239128E-7, -3.8231890219207683E-7, -6.846237816357445E-8, -3.5424929957029766E-8, 3.016678359390916E-8, -8.030206258995858E-8, -1.4311974211170836E-7, 2.308441740316129E-7, -2.3415779930627272E-7, -1.720501522624882E-7, 1.1211573727704932E-7, 6.470451922658371E-8, -1.2687121087051023E-7, 3.254338121357839E-7, 1.4079582923746897E-7, 1.3727635524419622E-7, 9.597530018268943E-8, 3.155511224800728E-7, 9.088972012476898E-8, 8.457091355782373E-7, 1.3094989822264424E-7, 1.4349212985435975E-7, -4.829326217418753E-7, -3.931593088239464E-7, -1.36804794763629E-7, -3.4100254430246484E-7, 5.846646304278027E-8, 2.4601756537516723E-7, 1.3884710266732027E-7, 2.0269001495461912E-7, 6.122789379640856E-7, -3.1414613744638826E-8, -2.658781353895732E-8, 4.859665923104339E-7, 3.5089977390450955E-8, 1.3310881772337297E-7, 3.256345788012432E-7, 6.726358409677095E-8, -3.2376069777171394E-8, -5.696483131342568E-8, 2.0929507758443046E-7, -4.435544342816598E-7, -1.2260550409463196E-7, 3.0080339095507556E-7, 6.157772647659227E-8, -5.302560572614179E-8, -1.609950289937365E-7, -1.1750962322227405E-8, 7.067729331034372E-7, 1.863301348472455E-7, 1.6215792340548722E-7, -4.1831342459115544E-7, 3.361587334443367E-7, -4.5775327800406085E-7, -1.1685049365972308E-7, 3.418542062918283E-7, 9.274782123002685E-8, -4.409619714087583E-7, 3.8094947711944815E-8, 2.6757457649600654E-7, -1.0631016328467986E-7, 1.0257720372067052E-7, -8.795105932822735E-8, -2.684074261216135E-7, -2.3565752594176726E-7, -1.97746142226747E-7, 9.341517175187988E-8, 5.510385837573575E-8, -5.004283741533285E-8, 4.2096593657397315E-7, 2.0125165256354215E-7, -4.854030152247952E-7, -2.730758110031622E-7, 3.851741456993579E-7, -1.5796806491237569E-7, -3.8750126675297987E-7, 1.1046142581310386E-7, -3.9342367023820643E-7, 3.095002793744834E-7, 1.9438679846242256E-7, -1.781401733327106E-8, 1.4964087244764807E-8, 7.678588431642557E-9, -1.1907690407748703E-7, -6.194444461365096E-8, -5.614479062666172E-7, -2.1782574882978478E-8, 8.663513343316671E-11, -1.9477077458584866E-7, -5.320499099357293E-8, -4.775543158555396E-8, 2.3970244556296045E-8, 3.1888261888284627E-7, 1.1362930674765526E-7, -5.02375114302946E-7, -5.744889279177821E-7, -5.952217633739034E-8, 3.179086819453029E-7, 4.489225683644384E-7, 5.1782754183274744E-8, 1.99667074289891E-7, 2.3022475833487364E-7, 1.8930802143832358E-7, 2.0845026319717534E-7, 3.1876923478304444E-7, 1.623695156646308E-7, 7.968719773772334E-8, 2.9006245493952264E-7, -2.6999494292434776E-7, -1.402102959059641E-7, -3.852664151015907E-8, -5.079443162445471E-8, 2.1340770196341983E-7, -9.194258648908854E-8, -7.567665123149352E-9, 2.214316923762718E-7, 4.956251742275652E-7, -8.305610089070682E-7, 2.889716128632843E-7, -6.147318011113893E-8, 2.3019367350133906E-7, 5.039412819296571E-7, -1.9307170830628155E-7, 6.231565211028418E-7, -3.9442642947543627E-8, -8.513276429950897E-8, 6.819609382760485E-8, 3.83304728958597E-8, 1.820314986478321E-7, -4.104182836224722E-7, 1.9016576251164167E-7, 2.168422078894505E-7, -1.5276969086632619E-7, 7.287302835869788E-8, 9.677319681768595E-8, 8.085176906042366E-8, 2.1838190798288987E-7, 7.523518785843831E-8, 4.126726832250107E-7, 6.899693806518508E-8, -1.8400758167254274E-7, 2.714286802107374E-7, -3.263264617859894E-7, 1.158776739299643E-7, -2.8781782245952716E-7, -5.059473313619446E-7, 1.627531141547835E-7, 2.6374768102840337E-8, -2.0503273312869794E-7, 8.570529229655561E-9, -2.537104795345261E-9, 9.265830912315346E-8, -2.224561913222327E-7, 1.5245052483144155E-7, -1.0265689622443132E-7, 2.7055462406558892E-8, -1.4637390827433936E-7, 9.142611927142775E-8, 4.377545468351094E-7, -3.6619782884845394E-8, 1.6472376949833443E-8, 7.828127462575043E-7, -4.679416684759041E-7, -2.7316570887338525E-7, -4.589955560116006E-7, 6.203570425004046E-7, -3.273653299814404E-7, -6.418947296198692E-8, -5.570678344029872E-7, -2.2520224091991265E-7, 4.384397351118062E-7, 1.733191476332257E-7, 2.1808692414025616E-7, 3.380592457933871E-8, -4.6609761481150674E-7, -5.691602590214891E-8, 1.1368654018362172E-7, 1.8846005368662573E-7, 5.299017032826549E-7, -9.085204869182254E-8, -5.7072628509363056E-8, 2.6407071048849375E-8, 4.788255429486771E-7, -1.759855986994162E-7, -4.941460345785216E-7, -3.4851488958637903E-7, 9.200767042397716E-9, 3.5429550315409756E-7, -2.95747727016624E-7, -6.826304433858035E-8, 4.9077506569540526E-8, 2.483707572062234E-8, -1.8219573421495752E-7, -9.5207520126257E-8, 7.962910711822618E-8, -2.647327465958528E-7, -1.7518853685564913E-7, 3.561231242251258E-7, 1.034855466338136E-7, 1.5558266830400575E-7, 2.3479870702981122E-7, 3.958285437712133E-7, -2.8482608902914354E-7, -8.828088561150556E-9, -2.2143908084889126E-7, -2.2549027326446603E-7, -2.9129017343707096E-7, -2.3502439986375737E-7, -6.094598713300759E-8, -1.814336051521544E-8, 3.4880186454633756E-7, 2.4107759920837605E-7, 2.6496258246446767E-7, -2.3324615351569356E-7, 5.216824208920283E-8, 1.9700960249749908E-7, 1.4085117923121507E-7, 4.4885687483976376E-7, 2.420803933513867E-8, -1.743686501899566E-7, -2.78540481397038E-7, -2.9798230884173347E-7, -5.3231114291219965E-8, -5.593678919979979E-8, -6.777781072724336E-8, -4.423159125829473E-8, 2.566729642009426E-7, 3.9777414428680593E-7, -2.7540515919317415E-8, 3.782343420816946E-8, -3.7274505031626184E-8, 3.3862747308195746E-9, 2.4997822363190493E-7, -2.543805946334525E-7, 5.106957531688413E-7, 1.3473431532103904E-7, 1.5413032132557116E-7, 1.7496573253064651E-7, 4.530491721975345E-7, -1.3616840044441854E-8, -3.5260774188732513E-7, -3.822107289524408E-8, -1.6645836932294874E-7, -2.000347307083262E-7, -1.0881806855979592E-7, 1.330655968867884E-7, -2.2202528608708418E-7, 2.414167988997286E-7, -5.802404256340197E-8, 2.6971541430553193E-7, -3.1105806742905407E-7, 4.551282447084974E-7, -1.8703430346632586E-7, -4.0958743734408664E-8, 9.884611106690199E-8, 2.1160059864826718E-7, 1.0725210365990789E-7, -3.081170214640789E-8, -8.244599874203394E-8, 1.1031402854697887E-7, -8.832115899284421E-8, 3.5927681513638984E-7, -2.542683867823275E-7, 2.3982325732264596E-7, 2.353484064324506E-8, 8.976670262692996E-8, -2.906535905777715E-7, 2.032553916619057E-7, 2.5192713991593665E-7, 2.272846413754124E-8, 1.1154885658748438E-7, -2.0113975375662996E-8, -1.2741020262481173E-7, 9.385729741461708E-8, 6.538656712840021E-8, -7.983805659656321E-8, 2.4088177051471094E-7, 3.702765993693597E-8, 2.1944652083346184E-7, -2.1552252083194938E-7, -2.3701280168777958E-7, -1.4080560034166112E-7, 2.9484004573823063E-7, -3.362296604578376E-8, 5.423260508430964E-7, 6.12363920959839E-8, -8.224067036788311E-9, -1.1219150092982877E-7, 2.3024114332092013E-7, 1.357515003550058E-7, 6.642239720166994E-11, 2.711967162509392E-7, -4.185035400105506E-7, -3.953434745629253E-8, 1.9771911979050663E-7, 7.296764175308106E-8, 1.531873558220127E-7, -1.6071359376531645E-7, 9.061067254696418E-8, -9.05411267389779E-8, 1.236510706996401E-7, 1.008195221182037E-7, 2.5092580945594945E-7, -6.8350405886943446E-9, 8.636103886405502E-9, 1.813646153222414E-9, 3.256680262833459E-8, -7.807428066061603E-9, 1.2533235058601254E-7, -1.2762615581357217E-7, -1.4175344954146123E-7, -5.71397913079823E-8, -8.691676678580075E-8, 3.5980021296978836E-7, 1.9623570005949145E-8, 2.1738572471092856E-7, -1.4539749823125174E-7, 2.3497187695435644E-7, -1.8023641894390054E-8, -1.284997429541915E-8, 1.4419761084454486E-7, -2.469866897538383E-7, -3.7572948678227064E-7, 2.8542270646812323E-7, -2.349741176093553E-9, -1.0864310273436186E-7, -7.064218625312716E-8, 5.1209592357494506E-8, 3.104181745685199E-7, 3.071489463614765E-7, -1.669914546486477E-7, 1.1688011727948122E-7, 2.549899721374481E-7, 1.4491074321023566E-7, 2.572260516466696E-8, -3.4944972419391956E-8, 2.647238127843476E-7, -8.289691126657048E-8, 2.8511401493597203E-7, -1.2018264652956206E-7, 6.407013164716069E-8, -5.658531392923406E-7, -1.9001580252198326E-7, 5.565199410964273E-7, -7.136356432132122E-8, -6.42428008452885E-8, -3.6666883013416984E-7, -7.98309571342404E-8, -5.179221121779286E-7, -9.08671968701246E-8, -1.951755037634331E-7, 1.3184618867280687E-7, -1.4004917153310784E-7, 4.6649661654856787E-7, 1.8459096668489186E-7, -1.2943066740556444E-8, 1.4440469113637839E-7, -1.2693103298537627E-7, 4.769928672388615E-7, -1.050561531052086E-7, -5.33021119795135E-7, -4.172390129058532E-8, 1.2804833961345072E-7, -2.053685633202978E-8, -1.1457529484438864E-7, 2.325697130271344E-8, 1.2477650595449076E-7, 3.5165071968890816E-7, 3.384162014261434E-4, -2.1227882416729962E-5, -5.2775381641035535E-5, 3.103704073507838E-5, -1.80001133967406E-4, 2.7680449185622E-4, -7.179438935916086E-5, -1.0028486279002553E-4, 5.2014766250484E-4, 2.1745916819760862E-4, 5.336192330415604E-4, -1.304902532032865E-4, -1.1563344876282675E-4, -1.0592043508022321E-4, 5.803509492919717E-4, -5.620036932896265E-4, 3.993475576013917E-4, 3.7352490488657954E-4, 1.628270086163556E-4, -8.298160976116689E-5, -4.0900695067159365E-4, -1.3628721509005364E-4, -3.358413276618816E-4, -7.466397371854841E-4, -3.951466256877714E-5, -6.590854393771074E-4, -1.0702248578843753E-4, -2.9259387137277814E-4, 2.3965675746210016E-4, 0.001395549111624993, 
6.772744398044219E-8, 1.791559130982756E-7, -2.2572474304666876E-8, -7.366288370093831E-8, -4.453040703911506E-7, -2.1487076449940833E-7, -9.310582979678992E-8, 6.529804549649896E-8, 8.367842764125535E-8, -9.237150744076089E-8, -4.0804843921966937E-7, -3.308456308016925E-7, 5.779512345229733E-8, 3.1677276094310507E-7, -9.007234679772264E-8, 2.5465386557896376E-7, -5.0607478941771364E-8, 1.7196730228563352E-7, -3.3031635546242697E-7, 1.4185759559233695E-7, 1.808953157906983E-8, -1.4078802203778482E-7, 1.6035529673976366E-7, -9.691580657327141E-8, 4.189105740448558E-8, -4.22863692866481E-8, -1.5994903564563455E-7, -5.97597661167044E-8, -1.2179634783192892E-7, 7.177804649339114E-8, 3.692935088702724E-8, -8.294829645020055E-8, -5.680877864043921E-7, -2.2871587555241958E-7, -5.495914536438704E-8, -4.973891614351342E-7, 1.0655671509876735E-7, -2.775098032057479E-7, 1.3520993363384852E-7, -2.732056714266873E-7, -3.617740045313481E-7, 3.586873383652114E-7, 2.5433407028661765E-7, -4.0004119469363117E-7, 1.0568792746798961E-7, 8.938529501820967E-8, -2.0641043191478072E-7, 2.6198592297293683E-7, -6.541882745599715E-8, -1.7669182265360352E-7, 9.499653210741336E-8, 2.0216390890510853E-8, -5.0767491982997116E-8, -4.075731602789548E-7, -4.876106226498802E-8, 5.488712330079272E-9, 3.3574558684274315E-8, 2.5310098588923457E-8, -1.848834094520969E-8, 1.2123985589771556E-8, -2.560555166561785E-7, -3.6515443489318703E-7, 1.1909484576018854E-7, -2.691514327424763E-7, -2.766951432421823E-7, -5.118506255113174E-7, 3.007118849487585E-7, 1.7013070130008962E-7, 2.2744718689327597E-7, 1.2209248906450575E-7, -1.6008267652682766E-7, 2.0803442799006908E-7, 6.4669438150551425E-9, 1.2192412690168826E-7, 1.864601859438942E-9, 3.739624701217112E-8, 2.768267031197445E-10, 2.983949103958825E-8, 2.2659052771797358E-7, 1.0264035856886042E-7, 4.029137120241011E-8, -1.6583361411350382E-7, -8.489093429993588E-8, 1.7833934312209521E-7, 3.679967582562147E-8, 2.3509564656513592E-8, 1.5567500062185602E-8, -4.7624229831285315E-8, -2.0957608304561678E-7, -1.907860889489856E-7, 1.1950787726266208E-7, 2.9455597015803793E-7, 1.6629175363799167E-7, 4.1771258431990603E-7, 3.5121682215292826E-7, -5.986366906119103E-8, -1.846649342981525E-7, 4.026758083116211E-8, 3.445448028108559E-7, -2.2692723919312335E-7, -2.351513888922019E-7, 1.3154957000014943E-7, -2.7345261987686872E-8, -4.8703483562445045E-8, -9.80020279916995E-9, 3.664545386243632E-9, -1.2596449958949582E-7, -2.9944216154359985E-8, -2.8887867182555834E-9, -1.7430834016658723E-7, -2.6161573543759496E-8, -3.06653035510876E-8, 1.5511343338373489E-7, -7.98860430808818E-8, 3.7967961463869323E-7, 2.7803961767019683E-7, -5.919584225382617E-8, 3.724399495928722E-7, -5.479910568078541E-7, 1.4668345996687084E-7, 2.2024220903097484E-7, -1.4892773784857425E-7, 1.5812122180394073E-7, -8.321262914753148E-8, 3.155887769647475E-7, -2.30628748081608E-7, -1.1529610790007366E-9, -1.8797178958641863E-7, 1.8491829265519556E-7, -1.8461711636315719E-7, -2.2246816956827163E-7, 2.075844647687424E-7, -2.5864251849459197E-8, 1.992754536741166E-7, -2.7499043340641613E-7, -6.058154774413737E-8, 8.390222864891543E-8, 9.559851210262826E-8, 1.439031343271184E-7, 1.452750430012331E-7, -1.6357063035183124E-7, 1.1541049960217099E-7, -9.178369070613981E-8, -7.488951967526777E-8, 4.664303895509237E-7, 5.232639024837145E-8, 6.456736222913681E-8, 2.647916802346191E-7, -2.7643654679166444E-7, 1.8003210356054005E-7, 9.58754430653942E-8, -1.421355143506912E-7, 5.2423958379853E-8, 1.5911786079998747E-7, 4.011676781510277E-7, 3.735569156664753E-8, 1.5797559958402716E-7, -2.3703951433520627E-7, -2.2483368025148196E-7, -2.3782630525225475E-7, -9.373350160816193E-8, -5.9129046345962906E-8, 1.2322368836276491E-7, -2.2990032339217432E-7, 7.044213611732459E-8, 1.3756480076551226E-7, 1.74392135318123E-7, -7.401222483093635E-8, 5.0842876456768976E-8, 7.49137937072848E-9, 3.8304092439686483E-7, 1.922831636765736E-7, 3.25089063523687E-7, 2.2884479447598032E-7, -2.988495094928586E-7, -2.66798037704659E-7, 2.701092830826836E-7, -2.283672908626297E-7, 8.490963290502959E-9, -3.3177165811583126E-8, 9.266933566434784E-9, 2.8066957154392884E-7, -1.4262893108379595E-8, -3.705894453174713E-7, -2.3540525031952342E-7, -1.0154566302868794E-7, 1.924111712433507E-7, -4.967547859609509E-8, -1.3498075405940016E-7, -1.64396421613379E-7, 1.1959274775849435E-7, -2.6285303878677286E-7, -4.2488040704381133E-8, -7.933543119144493E-8, -3.619005296036067E-8, -2.267894913445553E-7, 5.541553526572142E-8, -2.9127191901406065E-8, 8.970968581226911E-8, 9.937341570372055E-8, 7.906541815064275E-8, 4.165582754852146E-8, 9.368691569257661E-8, -1.492379303991567E-7, 3.37001289140315E-8, 1.7469737624380727E-7, -5.0637161952847685E-8, 4.8626506900563045E-9, 8.840033054163987E-8, -4.9487435044611414E-8, 2.0585980646160656E-8, -1.2087157824379193E-8, 3.6923537108641976E-8, 1.752360303105073E-8, 4.3038418558723994E-8, 1.373391538292212E-7, 3.778951910818525E-7, -2.1367581771422394E-8, 3.9301535343159467E-7, -3.1615729754571252E-9, 4.0042609526942394E-8, 2.179522332755029E-7, 1.4380094645373387E-7, -4.0503126938557704E-7, 7.872131824570214E-8, -8.760228891913654E-8, 1.1445302726425103E-7, -1.9167944166343066E-7, 1.4843794637551687E-7, -7.138747127098052E-8, -1.7241616976695454E-7, 8.083576899495243E-8, -1.619145499376516E-7, 4.177315540712325E-8, 3.0392979429038106E-8, 6.831301501433716E-8, 4.849293273131114E-8, -2.6606580704978974E-8, 1.5891750177106775E-8, -1.2338932332821214E-7, -5.009789631469445E-8, -9.438279551929943E-8, -5.985410464071292E-8, 1.4459973478130907E-7, 4.782636552042374E-9, -2.202102945792359E-8, -4.4603097194042E-9, -4.08819038534542E-8, 1.429784702468555E-7, 7.387260622003308E-8, 5.256620317405233E-8, -6.45404893385728E-8, -1.6808222353602415E-7, -1.5257249581661E-8, -1.1911782567300212E-7, 2.469384010984802E-7, -6.863224135249507E-8, -5.933094487186563E-7, -6.491747682048684E-7, 3.9729853113437834E-7, -1.702167305795058E-7, -5.504866449812766E-7, -2.3339641448170001E-7, -2.8690121027494446E-7, -4.057858895645129E-8, -2.0321414613295407E-8, 2.0108420506165514E-7, -1.459555977553278E-7, -2.4843086827088106E-7, 2.875207088582681E-7, -5.711607213206553E-8, 6.071578417729769E-8, -2.3725181510782836E-7, -4.290143442157177E-8, 3.458868721780172E-7, -3.956821771003118E-8, -1.5089636791599648E-7, -8.991750811657132E-8, 2.7140838570194625E-7, 6.043306702431281E-8, 1.7223507366991106E-7, 3.7991750177830233E-7, 2.2766277337285855E-7, 1.8121074522672845E-7, -1.436705035616398E-7, 1.8909741143301865E-7, 4.448995921570575E-8, -1.938330264081383E-7, -1.0327072457874098E-7, -7.712542243855773E-9, 3.943158840737715E-8, 9.248262597981267E-8, 1.2961008203715818E-7, 2.1721565475293994E-7, 2.141409715852739E-7, -7.018035414366564E-8, -5.938831551810696E-8, 1.251550340711323E-7, 1.0701110718058608E-7, 4.3032365340216036E-7, 4.527492254864249E-7, 2.983043853726519E-7, -2.327258960824955E-7, -1.849793579135793E-7, 4.0152335574488295E-7, 1.2502901362457223E-7, -5.008491847617855E-7, -1.4354704290401548E-7, -3.18431589799238E-7, -1.508670782391857E-7, -1.8780227299462128E-7, -1.0417061299566499E-7, 1.8664348054618887E-7, -1.6290601705963162E-7, -1.5645069693589751E-7, 1.428024076893408E-7, 8.20298350743977E-8, 1.5219046876875076E-7, -4.547059564628866E-8, 1.607650802933815E-7, -1.6772988260849593E-7, 9.498844064702112E-8, 2.1808231615139752E-7, -9.570839242441604E-8, -1.4206738869264293E-7, -1.78086671416652E-7, -2.138233274987494E-7, 2.3770101264195204E-7, -4.0476549036621696E-7, 2.9207046383363853E-7, -9.333186550350213E-8, -1.880699741239672E-7, -3.562995402134719E-8, -1.6789947798947932E-7, 1.7808247777572122E-7, 1.279828432138375E-7, 3.0401609939956855E-7, 1.2928457826580173E-7, 7.437733484615242E-8, -5.036973550107502E-8, -1.8811402447302965E-7, -6.979658776869932E-8, -9.325105207176967E-8, -5.700396803860244E-9, 1.8649483451324046E-7, -1.3587606118868848E-7, 2.1733189648134357E-7, -6.115429074335917E-8, 2.4199314567326E-7, 2.3290297114732487E-7, 1.8248798525832457E-8, 2.224878010215947E-8, -2.5359570028428767E-8, -6.592749836237193E-8, 9.723240403950197E-8, 1.9097634769917593E-7, 6.42189907820912E-8, 9.777907951100796E-8, -1.5226904635599348E-7, 1.106070383180008E-7, -1.2351598635661864E-7, -1.0366791302767322E-7, 2.211734637985097E-7, 1.9824892695609256E-7, -1.5535412293685308E-7, 5.274636626858793E-8, 1.2434980497075214E-8, 2.5507285821481414E-8, -1.1080910530782484E-7, -4.7987689687809755E-8, -1.224062846379376E-7, 1.4809175643893302E-7, -1.0336725091248418E-7, -3.130823708053051E-8, -2.557951375896205E-8, 3.0037336885223093E-9, 2.0189475393550395E-7, -4.333437135219513E-8, -5.549804220814784E-8, 1.710206139901847E-7, -1.0640343735122444E-7, 1.175445321802467E-8, 2.384132371533462E-7, 1.008240790079118E-7, 2.2002141659052629E-7, 1.2745039343130872E-7, 2.0999883667019053E-7, 1.4917384267349002E-7, 4.0957644952216577E-7, -1.2518260256232906E-7, 1.7652539160179112E-7, -1.0153488488767793E-7, 5.909901218390156E-8, -1.7149877403168517E-7, 2.5409069503070664E-7, 4.163560564309382E-8, 2.414252124351055E-7, 2.2443771267646465E-8, 1.612651147959365E-9, -6.30348899921263E-8, -1.058477857490671E-7, 5.654014724040961E-8, 1.5161454911583517E-7, 1.2162406533680558E-7, -1.9613881019304294E-7, 3.5997652759776367E-7, 1.5750942772637543E-7, 1.919283691747997E-8, 7.638612013620427E-8, 8.123863998154127E-8, 1.2129394336111642E-8, 8.109548711766858E-8, -1.0995915944919145E-7, 1.326084222874713E-7, -1.9335605602545609E-7, -5.347720398824932E-8, -5.5341216947455164E-8, -1.4162856847073165E-7, 1.295238617741129E-7, -1.256474843623731E-7, 2.3205260561467E-7, 1.1673101643709996E-8, 1.9937899786262486E-7, -1.7405257790900096E-7, -2.0595394352603697E-7, 9.492378401257011E-8, -1.4811205669087214E-7, -1.6487092183488152E-7, -9.257472651679877E-8, -2.506568541467933E-7, 8.392895308340432E-8, -1.1133751485921988E-7, 1.0578741822548266E-7, -2.244831166077646E-8, -2.537330451581297E-8, 2.477411219860218E-8, 1.6867897815662438E-7, -7.845916806344194E-8, -4.748988516680431E-8, 1.1293227453750699E-7, -1.2808536381867314E-7, 3.0846029323523196E-7, -1.0447650292331459E-7, -1.1033511887654226E-7, 5.366505437481171E-7, 3.9251701696871934E-7, 4.1095631037930265E-7, 3.872429661213119E-10, 1.1762533089926156E-7, 3.471544468152544E-7, 1.7924716086190233E-7, 4.031478273892972E-8, -1.6792260425517578E-8, 2.4719407577794777E-7, 2.4797598215390494E-7, 6.208884048340293E-9, 1.1125999075739696E-7, 1.4624746963209075E-7, 2.46452199536918E-7, -2.4875500134159778E-8, 2.0338754804356015E-7, 8.895116119840627E-8, 2.7542090341785783E-9, 1.3321439194039322E-7, 2.57559675426833E-7, 7.435971405091946E-5, -5.973571620174778E-5, 3.172850161094706E-5, -9.067352042551085E-5, 3.227652070077029E-4, 9.047432920806063E-5, -2.900766506649416E-4, -8.832372989162038E-5, -1.546116547605151E-4, -2.6345044752328317E-4, 5.842621529677011E-4, 3.8949188946175257E-4, -2.886928635595229E-4, -7.829763151362234E-4, 2.1121974379192002E-4, 1.5763867689505174E-4, -2.3444999012388055E-4, 4.424654176101485E-4, 1.638921243074285E-4, 5.4475653981666445E-5, -1.3695894455439318E-4, -2.2683575802469498E-4, 3.8436255020501714E-4, -1.6470169662647833E-4, 9.367946944579573E-4, 7.596288688024773E-4, 5.921265489798083E-4, 2.878476237716003E-4, 3.3634527042491775E-4, 0.0010250815852558576, 
2.9802267266780863E-7, 1.274227128274194E-7, -2.9520000778810408E-8, 1.1280068882205981E-7, -4.7274175217654087E-7, 3.574647168641349E-7, 3.06690786095018E-7, -2.301890425997833E-7, -4.5841213954399285E-7, 8.781000625562328E-8, -1.7507464828754526E-7, -3.2437639813299344E-7, -2.9583528408652524E-7, 2.7669546789864023E-7, 2.7287022988566137E-7, 6.688256541890692E-8, 1.6627062856521253E-7, -1.6559072552912012E-8, 1.2248824436397828E-7, 1.1093008944232828E-8, -1.9160661184720124E-7, -6.465451576092313E-8, -6.890621537472709E-8, -1.238774721454589E-7, -2.0020306968101717E-8, -1.973970390555289E-7, 5.6024532670776035E-8, -2.1007978433260567E-7, 4.551541219925459E-8, -6.718927889139056E-8, 3.026837634287154E-7, 5.106130248472959E-7, 6.98318557307686E-8, -4.815579917000256E-7, -1.7754554021756308E-7, -2.0803311265254344E-7, 5.202922646596576E-7, 1.0801167835737854E-7, 2.4300933513991886E-7, -5.371248872431869E-8, 3.966300238256345E-7, -3.5634495387990126E-7, 2.8656607421133896E-7, 5.566525870511492E-8, 1.2352575071163805E-7, 1.14974460366183E-8, 5.491510151234972E-8, 4.08225270865987E-8, -1.686301154722907E-7, -5.7809817053759266E-8, 1.8160830409548829E-7, -2.3962950887654077E-7, -4.4661874636869556E-7, -6.127358105020577E-8, 1.295790936724907E-7, -4.599669624951182E-8, 9.231069827295535E-8, 2.6024369437010714E-7, 1.1410954412198889E-7, -2.44765024351227E-7, 9.382509721818242E-8, -1.3146868338470747E-7, 1.2577660966365096E-7, -3.671626162056317E-8, 2.1283088338351776E-7, 2.0443634658237532E-8, 2.019534863871709E-8, 2.700626898764615E-7, 5.44916755590653E-8, 1.5690817733315113E-7, 3.2256133077060713E-7, 2.668224538152054E-7, 9.330440481819244E-8, -4.185066661902273E-8, -9.276715582470372E-8, 2.3339140939813093E-7, 1.1881677291765615E-8, 1.1409937257979141E-7, 1.6224777625969392E-7, -1.0026120442371828E-7, -2.783874982069428E-7, 1.5273913656672756E-7, 1.488105660550634E-7, 9.816689560109649E-8, -2.762543900766617E-8, 2.468606898356428E-7, 1.880042411267374E-7, -1.7420485879054266E-8, 2.5722563481341885E-8, 2.423605964360799E-8, 9.365106234082105E-8, -1.6360896943060017E-7, -2.742543777358225E-7, -5.7690106484739456E-8, -6.635621041943769E-7, 5.206240869763692E-8, -2.0003240298911495E-7, -4.157460400766511E-8, 8.47029640029317E-8, -6.532030198742442E-8, -4.500468315581215E-8, 2.537006607004418E-7, -1.6152421462158604E-7, -2.708070171176162E-7, -3.384712301998632E-7, 2.4147012066656105E-7, -7.646014502425554E-8, -5.576062455727295E-7, -1.8993532263699055E-7, 2.8273808823862305E-8, 7.464485103847215E-8, -2.9492329608721384E-7, 2.768325645564745E-7, 7.921913093821423E-8, 1.4618953511231752E-7, -1.182294046083631E-7, -3.2622076122505954E-7, -1.028693884127629E-7, 1.7476996742840527E-7, 1.6094699222973907E-7, -6.387221658950378E-8, 5.996879744402106E-7, 1.5064069424105264E-7, 3.026658054496283E-8, -2.1874713901033912E-7, -3.468161382330542E-7, -4.079722422153728E-8, 1.657015515583574E-8, -6.987416526772073E-8, -4.777433527260363E-7, -1.5373765213876485E-8, -3.108436077128091E-7, 1.903066654475344E-7, 1.681253597400678E-7, -1.1424005711151433E-7, -1.0400897326294678E-7, 2.4914933749915615E-7, 2.2123218594104298E-7, -2.3204780700469942E-7, 1.7147762617482892E-8, 2.30990833042616E-8, 1.4934551636565402E-7, 1.8383437076362032E-8, 1.4513077834905965E-7, -2.911721603832987E-7, 9.580344733441282E-10, -1.409663783281084E-7, -1.438045224801712E-7, -3.9097932156725584E-7, 1.830856402701744E-7, -3.868522149609818E-7, 3.101798312386425E-7, -1.311397278963393E-7, -8.483048567021609E-8, 6.927585351839012E-8, 3.8242506841016765E-8, -1.0447951610667784E-7, 5.100852259537436E-8, -8.801786957884596E-8, -1.721370854893077E-7, -1.9286495352017566E-8, 6.680379442474253E-8, 4.200050704911802E-8, 1.630306376824517E-7, -5.652648348160423E-8, 1.3255986770857018E-8, 5.856298490222399E-8, 6.291188928514208E-9, 1.2964956998409606E-7, 1.788531929406152E-7, 1.8754063801401004E-7, -3.0789930472396707E-7, -1.0111792436092975E-7, -1.3997853900504322E-7, 5.635439130080696E-7, 2.1589416834261566E-8, -2.1038100866301747E-8, 3.9636758169526294E-8, 9.118863648331382E-8, -6.422882984203042E-8, -4.658305556202004E-9, 7.414162333161942E-8, -5.5452294108384755E-8, 9.785172757305355E-8, 2.0652505079897463E-7, 2.645780042224421E-8, -2.2754449566723695E-7, -2.302572042693497E-8, -1.153393577645296E-7, 2.4787370583205317E-7, 2.0343098728401583E-7, -1.286856182984449E-7, 1.4982498044310513E-7, -1.3040527665161868E-8, -2.79057235463446E-9, -1.7846378725599588E-7, 1.56482656813476E-7, 3.063726574864034E-8, -2.869607576393654E-7, 1.4918850899677634E-7, -1.1936533900635682E-7, 4.0945197639330574E-7, -5.25855022751264E-7, 6.750201989337512E-8, -9.168767179049162E-8, 8.214030977201505E-8, -1.2641426175090617E-7, 5.2155997690495604E-8, 1.418805611197702E-7, -2.9209283594607013E-7, -2.4813706619879307E-7, 5.5139279094943E-8, 8.401821836689707E-8, -1.388103193636835E-7, 3.8695888739010976E-7, 1.5151298362675227E-7, 5.663744547038733E-8, -1.1289722145678613E-7, -4.661894118008817E-8, 5.183716765356147E-8, -3.2286074227447347E-7, -5.327537296926933E-8, 2.515842579560828E-8, 2.0505447671634866E-7, -1.3469198606304572E-8, -1.2587439356896273E-7, 1.0528052933560498E-7, 9.184760001687133E-8, 6.343640739361245E-8, -1.5346611603232043E-8, -2.991156427438691E-9, 1.4290868269806774E-7, -1.1501204614321619E-7, 1.7440894978549728E-7, 5.173324985515351E-8, -2.3712675493221438E-7, 9.580528031226153E-8, 7.884693815787957E-8, -1.002945735318531E-7, -2.1799445892525475E-7, 1.2442709016624556E-7, 4.916312165962459E-7, 3.713881417540261E-7, 2.2843827941033686E-8, -1.9721068221791504E-7, 1.345095562292861E-7, 1.7880338765733872E-7, 1.2985367632705936E-7, -1.4956157931458172E-7, 7.374042192321255E-8, -5.5122958208794346E-8, -1.0044822012415234E-8, -6.515554271118571E-8, -2.1536674984828318E-8, 1.0944643940092541E-7, 1.822626844112176E-7, 7.955780908271384E-8, 2.3078660350465194E-8, -6.411162028400375E-8, -1.6870269975587864E-7, -6.808922654442816E-8, 3.71593438496057E-8, -3.5717127003106553E-7, 3.532245267719024E-7, 2.621171800192655E-7, 3.340212122790999E-7, -1.8420946997723296E-7, 7.385149463731314E-8, 1.9835268039003152E-7, 3.700199272676018E-7, -3.1166994906681603E-7, -4.311365820892086E-8, 1.505745781066857E-7, 8.934740725508663E-8, 1.2845523753398895E-7, 4.660130703522845E-8, 6.134392697220363E-8, 2.333921277037105E-7, -1.4302921934623295E-7, -2.1688289683736402E-8, -1.3977881150422633E-7, 2.947657160451996E-7, -1.032514397213418E-7, -2.0427520526365036E-7, 2.629663329618697E-7, -3.838127471796581E-8, -1.5105423367854373E-8, 4.978711121255294E-7, -1.1063608141251814E-7, 3.9313400561241986E-9, 7.500057374731033E-8, 3.184076244841626E-7, -2.48745281290827E-7, -2.1455823096938643E-9, -3.650443340630367E-9, -2.418217228276705E-7, -3.139140408473264E-7, -8.93591573323384E-8, 1.2366192265578706E-7, 8.608314030086385E-8, -3.6818423117508815E-9, 1.5366131284370078E-7, 2.3963427340018316E-8, -7.51313258584233E-8, 2.6110865362993017E-7, 3.485034410944633E-8, -8.167608238763215E-8, 6.983990828864002E-8, 1.297024326411221E-8, 6.904100604886332E-8, -2.0706654101442488E-7, -2.3587832302915625E-7, 8.89804846017681E-8, 2.3207381837749245E-7, -1.2794593189102984E-7, 2.7276418084525946E-7, 3.981113985200269E-7, 2.066084284408696E-7, -9.412795102805468E-9, -9.14519550710174E-9, 2.1508188404262674E-7, 3.0678759454555043E-7, 3.198447386017012E-7, -6.665819990926393E-9, -9.418627762602901E-8, -8.578277778323343E-8, 2.2095950545490004E-7, 1.7076692821430313E-7, -7.7954456622468E-10, 6.524782721088882E-8, -8.08727683926556E-9, 2.4239100977455223E-7, 9.702350607193182E-9, 1.3418024061406527E-7, -1.243073399225492E-7, 2.173185342515199E-8, 5.575146250701131E-8, 2.6516968209624607E-7, 2.6189813456995083E-7, 4.252040853078348E-8, -2.5153310871513957E-7, -1.2192490682207986E-7, 2.3505498945305373E-7, -1.3458237223946677E-8, -1.2369807892677704E-7, 4.193810822262672E-8, 3.932028664384602E-7, 3.6646413421552015E-7, 1.736501695282544E-7, -1.1078896690714404E-8, 7.567774848896054E-8, 4.894563762534576E-8, -1.0959662019967344E-7, -1.4409236656546483E-8, 4.818651047811161E-8, 2.3803362495815092E-7, 1.3007640536556624E-8, 8.302417530176745E-8, -7.115094668319384E-8, 1.1949393788242125E-8, 1.3661583269952907E-8, -4.5283182036134374E-8, 2.514412271601178E-7, -6.396533744543452E-8, 1.404283802979126E-7, 3.1332543537889126E-7, -8.392713823107574E-8, -2.400313922646719E-7, 2.7151359198766665E-7, 2.507709169479132E-8, 6.60270235161709E-8, -7.61407825449777E-8, 2.722528227053165E-7, 1.1960685175434926E-7, -1.1811078291737249E-8, -3.7946428167787994E-7, -1.9219340953552047E-7, -3.0657972422202733E-7, 2.2247496992364048E-8, -5.6821858157228114E-8, 1.4390198757256713E-7, -1.6102657107734674E-7, -1.0818831933812043E-7, -1.918347357468201E-9, 1.1375591611769244E-7, 8.265108822490192E-8, 5.261755662428607E-8, -9.67252808903453E-9, 2.5945306546280565E-8, 2.482703277851905E-8, 5.968852609482865E-9, 2.6811587473344875E-7, 2.3165104183622838E-7, -9.257110222603301E-9, -1.887758834109384E-7, -2.848441964904293E-7, 3.118279722857344E-7, 3.046811578806242E-7, 6.473882129484658E-8, 2.364720461842793E-7, 3.3206776091337724E-7, 9.583028768846092E-8, -1.435965764473706E-7, -1.396456106578907E-7, 3.274466502036217E-7, 2.4139881544676114E-7, 1.1007538544166686E-7, -2.8069052003545605E-7, 2.123154571111055E-8, -2.2571214909515792E-7, 2.660939256814024E-7, -2.1176246337465056E-7, 1.8669581997662302E-8, -2.0511843582695142E-7, 3.169515381284646E-7, 2.3554087293107443E-7, -4.930934993217447E-8, -1.4323918410890597E-7, -3.489871566740559E-8, -1.919398534906867E-7, 3.725056095799563E-8, 3.777962656623797E-8, -1.3826937295323185E-7, 2.1422058094036344E-7, -4.922240686809385E-8, -1.647164679177706E-7, 2.9753044312787765E-9, 7.708346316662437E-8, -1.2362791159669564E-8, 1.229528027655429E-7, 3.1385383883847635E-7, -9.524633045025034E-8, -4.0741458577362794E-7, -8.142458221339691E-8, 4.293985436689169E-7, -1.286909793694718E-10, 4.224006951576777E-7, 2.445524237505645E-7, -1.2406871366547013E-7, -1.3915204476035758E-7, -3.7667379575626664E-8, 6.403245313940685E-7, -1.4876949872669295E-7, 1.8297254956049638E-7, 2.090509895163255E-7, 1.9183595170004748E-7, -1.1670736243334215E-7, -1.0296030759582061E-7, 1.378600096403154E-7, -1.850957321134437E-7, 1.67346361568695E-7, 2.024908607521194E-8, -3.134694352957222E-7, -1.0450565186163348E-7, -1.779843982173903E-7, 4.5029275880812255E-8, -8.253611214587398E-8, -3.030686150216564E-7, -1.4357859814682725E-7, 2.1548595736095793E-7, -6.720069812456562E-9, 3.473213244462557E-7, 7.388141146226506E-8, 8.458575015998473E-8, 2.410697868882798E-7, -1.945711089863803E-4, 1.98784210449735E-4, 1.9726230922446154E-4, -6.593845244006528E-5, 2.598640719544545E-4, -1.948242414962807E-4, -1.282542752144139E-4, -6.803244660581043E-5, 3.1869782790662027E-4, 4.533664113769404E-6, 2.2780408610337396E-4, 1.1309223649480453E-4, -2.7005025187142685E-4, -2.5877675760668847E-5, -1.6588436568801734E-4, 5.509532765571928E-5, 1.1262493870692786E-4, 1.5889947072722028E-4, 7.309807532193383E-5, -5.720483180665179E-4, -2.917225776598408E-4, -1.0913138937702861E-4, 9.840437314136484E-4, 5.551350229335533E-4, -4.089382428133105E-4, -4.187726095326293E-4, -3.045807495941883E-4, 8.01521281032852E-4, 2.1175354223756587E-4, 0.0010871984314668008, 
