These are the execution Ridge Regression analysis with Lambda = 5.0
ACCURACY: 0.828134373125375
The following is the corresponding W[] lists: 
0.0, 0.0, 0.0, 0.0, 0.0, 0.0, 0.0, 0.0, 0.0, 0.0, 0.0, 0.0, 0.0, 0.0, 0.0, 0.0, 0.0, 0.0, 0.0, 0.0, 0.0, 0.0, 0.0, 0.0, 0.0, 0.0, 0.0, 0.0, 0.0, 0.0, 0.0, 0.0, 0.0, -0.0015923813276439152, -0.054208695819060244, 0.010892889276199703, 0.09207916720648734, -0.07211446122402437, 0.0023815812932052815, -6.123697105600329E-4, 7.687872015424626E-5, -0.0010396094573479511, -7.605309273786402E-5, -6.629081127732366E-4, 0.005699728106601505, 0.08500916253624066, -0.029284916424187547, -0.019041209293984687, -0.002777638488816963, 0.0, 0.0, 0.0, 0.0, 0.0, 0.0, 0.0, 0.0, 0.0, 0.0, 0.0, 0.0, 0.007670813937176774, -0.0025855439670396593, -0.0011027073994409491, -0.0014439376698794889, 1.1360309322626657E-5, 0.002243901971035128, -0.002376365902304334, 2.727679898573266E-4, 3.7388889699594736E-4, -7.077189963922422E-4, -2.5281439928502764E-4, -4.0446737527309617E-4, -2.868829128492383E-4, -2.866730352369241E-4, 1.3780513548145422E-4, -5.484148478397204E-4, -0.0020575558262929316, 0.002823683380015754, -0.0021700644338250303, -0.05830075929942085, 0.0, 0.0, 0.0, 0.0, 0.0, 0.0, 0.0, -0.006833389029979283, -8.360308506035716E-4, -4.6675541343423635E-4, -7.501936148453813E-4, 7.24259761244396E-4, -8.57084464033367E-4, 4.1099407237823664E-5, 6.175191297735891E-4, -5.312116906616216E-4, -3.8145187908833516E-4, 2.303350929469171E-4, -1.603194744807715E-4, -3.563048031350287E-4, -1.4065761305878595E-4, -1.4303238715893655E-4, -8.646558276266778E-4, 1.3444448851226368E-5, -3.7830235540438573E-4, -6.772138473489858E-6, -0.0015669479346507198, 1.0024913774351226E-4, -0.013219961464301117, 0.0, 0.0, 0.0, 0.0, 0.0, 0.01777108834703163, -0.006604561845891329, 0.0011352210434992216, 0.0015180353462031031, -1.6736084096563477E-4, -6.699617159005839E-4, -4.1693537920544835E-4, -3.389713809216204E-5, -1.327207232214044E-4, 3.970792440641731E-5, 1.497560205995232E-5, -2.2371688355426268E-4, 6.805044222953034E-5, 5.848863980594223E-5, -2.410444245601065E-4, 3.421056126743775E-5, 1.7292098752143154E-4, -1.6797583254648637E-4, -1.9934346388263697E-4, 0.0010232947201314051, -8.186618581653953E-4, 4.106116039645408E-4, -8.891898288384933E-4, -0.0024999710390956973, 0.0, 0.0, 0.006794392835532559, -0.03409223009118618, -0.008659256470290783, 0.0017103672593773613, -0.0015389996422966203, -2.0791479907268683E-4, -7.285432416126149E-5, 2.690807806465057E-4, -1.670843103314739E-4, -2.6449001664257944E-4, -6.665980479651728E-5, -2.1488701513445833E-4, 2.4297581244857484E-4, -2.3893012645262614E-5, -1.8314499541883446E-5, -1.5363325752671433E-4, 1.6276970430955195E-4, -3.913654312585668E-5, -2.2382496666958045E-4, -8.061472888252432E-5, -2.5248221975290874E-4, -3.146484484579622E-4, -3.9187607858359616E-4, -1.9168125505869237E-4, 3.4090543376841774E-4, 8.301476710544881E-4, 0.0, 0.0, 0.0, 0.031003001359227973, -1.3191312262142589E-5, 3.461285957466888E-4, 2.8450554166538795E-4, -7.602940350449712E-5, -1.5673703547383207E-4, 1.239000862797405E-5, 1.8095259414138952E-5, -1.488249282753225E-4, 1.7796463302891804E-4, -1.541533293061049E-4, 5.788489471435657E-5, 1.1231004843803958E-4, 1.7130076808922426E-5, 1.782191450426896E-5, 3.183087464674887E-5, -2.1431360256789615E-4, 1.3187830809136157E-4, -2.052858332813121E-4, -5.368208992965262E-6, 1.0639503825379896E-4, -5.931702951679304E-4, -1.3755019138822993E-4, -1.4209431893505515E-4, 1.489479165349956E-4, -0.004261003419209392, 0.0, 0.007640445367604177, 0.0012365157422560198, 3.529561659007131E-4, -5.033933123618335E-4, -1.9968025887946454E-4, -1.778013172134826E-4, 2.8070683571157886E-4, -1.9275184935476676E-4, -8.993230137765315E-5, 9.798203618331246E-5, 1.7379171781657056E-5, -1.2466743039312772E-5, -7.976744220124811E-5, 4.592062277889379E-5, 1.9519044909883452E-4, -3.506618530658537E-5, -1.5239910110487326E-4, 4.088440977717899E-4, -1.1398164268714088E-4, 1.5004147040805497E-4, 3.336138145136549E-4, 6.720840820361175E-5, -2.482427104563615E-4, -9.249382209172865E-5, -0.0010778477547250032, 6.877781878299054E-4, 0.006940471297783758, 0.0, -0.004281922209646198, -5.334121084206848E-6, -8.637543167625087E-4, 2.044654035410201E-4, 7.205259941277948E-5, -1.3712638639893482E-4, -5.7259865904053235E-5, -1.1903082405599554E-4, 1.896122638495069E-4, -1.3482431686613524E-4, 2.771507115570938E-4, -5.913069530535428E-6, 1.47848776854786E-5, 1.5988738814209295E-4, -1.1616680870543369E-4, 4.034501687071039E-4, 4.261683934694517E-5, -7.69346542648826E-5, -8.657546920410319E-5, -2.6519990511157193E-5, -4.6983988801730216E-4, 2.2624127764696663E-4, 2.6154070758850826E-5, -0.0011576823864035627, 0.001131856316993149, -0.002818429317145552, -0.002301568568176355, 0.0, 0.001341498005593776, -0.001085520686709809, 4.8521750180500095E-4, -2.2307722276740857E-4, 7.20961988979187E-4, -3.3477574836281794E-4, 2.38911969114686E-4, -1.3092316305774514E-4, -1.7226340173942943E-4, -1.5063755130954374E-4, -9.11200799151273E-5, -7.449705869228427E-5, 1.0835805174272623E-4, -2.3846916721433883E-4, 1.4455729922276112E-4, -5.749677275212519E-5, -2.0049238597992974E-4, 3.2725976331032564E-4, 1.1821984229509398E-4, 2.3734027481510313E-4, 5.02011978622222E-4, -8.350374926626457E-5, -3.8593038302636566E-4, 4.844959081697583E-4, -0.0022441527249793475, 0.0017501609937479472, 0.005010270034240144, 0.0, 2.580715380498431E-4, 5.032954165397291E-4, 1.490731404487503E-4, -0.0010171050243866738, -5.398389396180221E-4, 5.725590896340371E-4, -7.652339484629501E-5, 8.446738870731593E-5, 2.7300173735700817E-4, 1.3742012183101963E-4, 4.1092244744846824E-5, 2.3689762133677692E-4, -4.183630769037675E-7, -3.525250691387259E-5, 2.630749772443577E-5, 1.3234603257664202E-4, 1.8568136392743565E-4, 1.6378851016024892E-4, -8.873500615561056E-5, 1.4354797986923163E-4, -6.760763941738044E-4, 8.841827199776991E-4, 2.6689419386550107E-5, -8.186370232301767E-4, -5.487897562328429E-4, -4.91191410329152E-4, -0.004091841853224176, 0.0, -0.0019782164602702482, 0.0029224029699694218, -0.0014069178892637873, 8.086933364867643E-4, 6.110376438136986E-5, -6.080248454682648E-4, 1.879163302290696E-4, -2.4398425057858554E-4, -3.646453934281108E-4, 5.941399644042487E-6, -2.3822859669068034E-4, 1.65847260570214E-4, 3.097463968052674E-5, -2.8625054278484663E-4, -2.1996281038638666E-4, -3.0248942231772563E-4, -2.0070035036615286E-4, -2.102616921183273E-5, 1.1427631372281407E-4, 2.7492740319002044E-4, 3.188544068984181E-4, 3.2601083545206875E-4, 3.315228947836294E-4, 8.532735134316337E-4, -0.001943799133602151, -0.001721975451365248, 0.002686342906493783, 0.0, 0.00201035546995178, -0.004441040424456526, 8.82303302863666E-4, 1.670743294691364E-4, 6.562334906794101E-5, 4.7633749941598656E-4, -2.650875874851492E-4, 5.915011919805822E-4, 4.750868153637648E-4, -7.019980538774565E-5, 1.4919883753582454E-4, -1.102956791487127E-4, -1.1794577927944083E-4, -4.1567525034510186E-4, 1.8128126283654123E-4, -5.124494891439644E-5, 1.7475602995296812E-4, 9.439393151406103E-6, -7.342137394787923E-5, 2.451996614845232E-4, 3.83037555295871E-6, -1.5917441000659117E-4, 5.178476304804103E-4, 6.93097605157759E-4, 0.001794885027662936, -0.005860821347037902, 0.0, 0.0, -0.003617276671631673, 0.0044040963615622365, -0.001931977495515782, -8.232883713549507E-4, -4.0060780847415425E-4, -3.693286536785235E-5, -1.9696637839717988E-4, -5.388237900181307E-4, -4.1898061957704717E-4, -6.620549966914935E-5, -2.3940155415790897E-4, 1.3150937614301973E-4, -3.710627274153943E-5, -5.42914488952105E-4, -1.3771051324234756E-4, -2.233148786824922E-4, -8.571466417727513E-4, -2.8546039221408984E-4, -3.704551105928695E-4, -1.4175524418075304E-4, -4.123206562534957E-4, 2.8254361585034507E-4, -4.1627368659172324E-4, 5.7735770584357495E-5, -0.0021511303924707354, 0.0010372342147791386, 0.0, 0.0, 0.0, -0.0032582291148293687, 5.36749280015182E-4, 0.0014054928190474524, -3.474816566075041E-4, -1.4392683788576585E-4, 8.624473146951228E-5, 3.5228924536244893E-4, 5.559845942788966E-4, 1.5628125315498212E-4, 1.8258585019862415E-4, -1.0526604615596418E-5, -1.7630853204966116E-4, -4.7441417040371006E-4, 6.37156540276356E-5, 1.9571012020404762E-4, 2.243143524594582E-4, -3.782796878935354E-5, 2.749113846748883E-4, 2.8660150452661833E-4, 6.775298830769955E-4, 1.3817790254125757E-4, 8.290404733245219E-4, -3.9393525663727403E-4, -0.0012968637408036288, 0.00270036172968703, 0.0, 0.0, 0.0, 0.0014931238428978401, 2.1110193570661023E-4, -0.0011151337722093335, 4.808908551623082E-4, 5.530723021787926E-4, -2.41779374657246E-5, -5.610233017556383E-5, -3.803806081424716E-5, -1.055047100329684E-4, -7.941215255748531E-5, -1.8013970810414824E-4, -9.989477319148838E-5, -2.196492910707354E-4, -2.473182287640643E-4, -2.638645302472792E-4, -7.068630489452855E-4, -3.087930412967566E-4, -9.979333078500194E-5, -2.1172960175734883E-4, -3.772185748557982E-4, 2.527194333233061E-4, -1.2146759381577188E-4, -1.1295925389564516E-4, 0.0012282923449120262, -0.00727262494950501, 0.030218315933701403, 0.0, 0.01373907256950472, -0.004167865112632082, -0.0010805369262562308, -8.959166730351956E-5, -3.8314141625563E-4, -4.117959639702506E-4, 3.665428162397109E-5, 1.4486147996931343E-4, -1.924120027748425E-4, 4.0494427624888826E-4, -4.46110748836315E-5, -2.8084295872311127E-4, -1.0288974108868191E-4, -3.9114827177661056E-4, 2.5384956715555055E-5, -3.4430745030855376E-4, 3.404159846847938E-5, -2.863224100556151E-4, 7.066096379796723E-5, 3.5517297299689286E-4, 1.3276855732465579E-4, -1.389733160691105E-4, -4.8549973719575824E-4, 6.126210642706893E-4, -0.001337883529932254, 0.017568514206810226, -0.11775453177213006, 0.0, 0.0, 0.005479891326316649, -7.099387722529694E-4, 8.07264538834773E-4, 5.461722568683776E-4, 7.140562420842717E-4, -3.695458593373796E-5, 1.0895986384921959E-4, 2.850058171447102E-4, -2.997272177812623E-4, 9.549247685954751E-5, -8.902958951701339E-5, -2.9157239313670074E-4, -4.205869448798683E-4, -1.439887558256224E-4, 1.1238612118482173E-6, -3.632597803461981E-5, 3.73665553993823E-4, 8.494846421254304E-6, -1.925359772182423E-4, -2.223175385457654E-4, -1.1708891484112132E-4, 6.163796531397295E-4, -8.524568623426554E-4, 0.0012977948820446631, 0.12189245353495196, -0.06797440589237375, 0.0, 0.10481758475343939, -0.001248207972919224, -0.0011648739310443205, -2.758229330954856E-4, -4.585108245045981E-4, -6.589367099500883E-4, 4.5308300089909326E-4, 4.084613435404536E-5, -2.148745251855523E-4, 6.681405702772463E-5, -1.2809888705868613E-4, 1.14660762476017E-4, -1.3343469351763724E-4, -1.943674387166096E-4, 1.666309748645302E-5, -3.02091273028049E-4, 8.991749531245835E-6, -1.4125506216249386E-4, -5.376810384313128E-5, -1.5219153029806277E-4, -3.646245927985931E-5, -7.711520783305455E-6, 2.7708880176652507E-4, -9.307343126691477E-4, 4.7316991973004463E-4, -0.05277724767853078, 0.0, 0.0, -0.05278709899709402, 0.0014368498487759497, -7.884983647382994E-5, 6.773861322853012E-4, -2.3456740685566055E-4, 9.038440711265075E-5, 7.521897748298255E-5, -7.941832659385118E-5, 3.9145602222521097E-4, -6.524239579135467E-5, 8.03498171044157E-5, -1.0317993520020305E-4, 1.6735822212208387E-4, -2.740660454470063E-5, -1.4769062855019233E-4, 2.0779174109224975E-4, -4.019330164373987E-5, -8.181701050117341E-5, 1.3251535696813223E-4, 2.6539071661099565E-4, 1.604912758142594E-4, -4.468590233262473E-4, 2.322532140961067E-4, 1.1934873998230125E-4, -4.551405424499392E-4, 0.03293709694587193, 0.0, 0.0, -0.003510434500987717, 2.3776604182985012E-4, -0.0013199542491798746, -3.069390759276857E-4, 6.067905124455758E-4, -8.351792530867147E-6, -7.287363545245062E-5, -7.696137348524133E-5, 1.9233229907758555E-5, 5.693246461398478E-5, -1.220915387650644E-4, 8.194288802026637E-5, -9.574094697859582E-6, 4.3673017321638874E-5, -3.115626830741617E-5, -2.7568925409008705E-4, -2.794406384272305E-7, -1.3168069919378972E-5, -2.3006746933522097E-4, 3.2180728388472635E-4, -4.6788111627272296E-4, 5.435899664902566E-4, -9.303762541580175E-4, 6.90916293915322E-4, -1.098235409940617E-4, -0.009028105432572767, 0.0, 0.0, 0.0, -4.096665601108938E-4, 8.666159023613243E-4, 9.58746002546633E-6, -8.346589524927016E-4, -1.1455884233220065E-4, -8.7387557959702E-5, 2.2574919996041067E-4, 1.4458201272966482E-4, -8.791243670326727E-5, 2.797233760879834E-4, -1.1009505905625984E-4, -4.998609666173109E-5, 9.397772171258856E-5, -5.868001868880965E-5, 1.1719084184773862E-4, 9.746992036253961E-5, -1.2302872149694842E-5, -4.374247259137813E-5, -4.898605347972383E-4, 5.56309122714764E-4, 3.078618490322642E-4, 4.901946680547708E-5, 5.226390173744646E-4, -9.960139283379773E-4, 0.003495596687902413, 0.0, 0.0, 0.0, -0.0018299385441210062, 4.273567754791822E-4, -8.570419913373349E-4, 6.58610590840316E-4, 2.538910865658452E-4, 2.0111843509952314E-4, -7.274979529001434E-5, -1.129058737724437E-4, -1.0057497934860828E-5, 2.9446161026683926E-5, -7.455335099926207E-5, 1.6217141949797088E-4, -1.041565507444327E-4, 2.3141424492378097E-6, -9.971329556626259E-5, -2.1594614698047218E-4, -1.692902792147673E-4, 2.1627608784794273E-4, 2.9376082535103367E-4, -2.967418670589706E-4, -8.06729725877223E-5, -2.146957637665717E-4, -4.278602656700739E-4, -0.0018333064940488713, -2.5570411935465175E-4, 0.0, 0.0, 0.005946259169315197, 0.0017682860517745918, -8.827733961244918E-4, -1.563210537162353E-4, -1.3060371876724843E-4, 3.7763636102096666E-5, -2.2728756999345972E-4, -3.544668930236165E-5, 1.785661659340852E-5, -1.021511229906737E-4, 1.3149049969898773E-4, 1.6085574414965347E-5, 3.292420123196958E-5, 9.27624561969927E-7, 2.0007233836496808E-4, 1.0305099967053077E-4, 8.79771651143989E-5, 4.116657974444671E-5, -4.440577731485552E-4, 2.5003639368064844E-5, -2.1080944929461386E-4, 2.239923059794064E-4, 6.55845155476506E-4, -8.197920446884248E-4, 9.986517186192417E-4, 0.0, 0.0, 0.0, 0.0, 0.0, 2.2459480959277097E-4, 9.706316755626731E-4, -3.8690251252193836E-4, -4.454753007461576E-4, 1.9260013538689944E-4, -2.2036000716520505E-4, -1.3752685433586695E-4, 1.741864919501444E-4, -3.343769661944955E-4, -5.1374972774313555E-5, -1.3444617014694428E-4, -5.289251929530646E-5, -3.594206258383676E-4, 3.99568212382169E-5, -1.24949916018604E-4, -1.818212455112801E-5, -2.243303195527621E-5, -1.6801363855079786E-4, 0.0011553077460268173, -0.0011816374738876888, -0.002178807278459648, 0.003921895164060091, -0.01632079536588056, 0.0, 0.0, 0.0, 0.0, 0.0, 0.025057787165685918, -0.0026538838883203453, 0.0010825231261944312, -7.585887437883419E-4, -1.7684332072748172E-4, -2.7122031522312605E-4, -2.82274081045882E-4, -5.614402353742295E-4, -1.4058211442743255E-4, -2.757628098615102E-4, -3.0581722282518593E-4, 2.360348056140365E-4, -3.9593367286303006E-4, -5.721639692056613E-5, -4.1896461694887726E-4, 2.062102021804296E-4, -3.4145948604418733E-4, -0.0010001624642791051, -8.037050762461345E-4, -0.0015627681035698423, 6.557957823680533E-4, 0.003748896025144344, 0.0, 0.0, 0.0, 0.0, 0.0, 0.0, 0.0, -0.0017416833674192356, -3.7119730419359043E-4, -1.0499969611687407E-4, -2.5316084189374926E-4, -2.2490851602119372E-4, -4.390552673102858E-4, -1.4719228268934904E-4, -2.937646410911253E-4, -1.03324870560475E-4, -5.496300462316585E-4, -6.259655686112317E-4, -1.9669043855405954E-4, 1.596868797976328E-5, -6.848949112595834E-4, 2.5528274399391185E-4, 3.9356040010797463E-4, 5.790253660749521E-4, 2.151021425737869E-4, 0.003321080044734414, -0.0033025850029605596, 0.013649837873030625, 0.0, 0.0, 0.0, 0.0, 0.0, 0.0, 0.0, 0.0, 0.0, -0.026347233883277803, 0.0036750683306241453, -0.0026156620333044425, 3.210736236664461E-4, 4.5545965718599705E-4, -0.0017195945542904953, -0.0022836808341751653, 0.002046952947513079, -0.0025794057955829453, 1.9851280213030204E-4, -4.578681875462062E-4, -9.571180097503181E-4, -5.9602136952912616E-5, -0.002000875510818436, 8.736231355134344E-4, -0.025452293927813424, 0.0, 0.0, 0.0, 0.0, 0.0, 0.0, 
0.0, 0.0, 0.0, 0.0, 0.0, 0.0, 0.0, 0.0, 0.0, 0.0, 0.0, 0.0, 0.0, 0.0, 0.0, 0.0, 0.0, 0.0, 0.0, 0.0, 0.0, 0.0, 0.0, 0.0, 0.0, 0.0, 0.0, 0.0, 0.0, 0.0, 0.0, 0.0, 0.0, 0.0063697270662745695, -0.0229461662590214, 0.0366620332405615, -2.7182416444057806E-4, -6.70407217879402E-4, 0.001269807652675474, -0.0012540558921357579, -3.916684847980068E-4, -3.5977730967890116E-4, -1.5757032002005353E-4, -0.0015146446197241907, 0.0032869101282024865, -0.08244292701919674, 0.02616675018931998, 0.02059872679924679, 0.002898011184480888, 0.0, 0.0, 0.0, 0.0, 0.0, 0.0, 0.0, 0.0, 0.0, 0.0, 0.0, 0.0, -0.001422599538380808, -0.0023548121690261247, -1.3825806523513475E-4, -0.001193117019098346, 0.0010864338161508979, -4.223922860366877E-4, -5.565834676582051E-4, 1.354810391683313E-4, 3.661290813746566E-5, -3.6290125328102295E-4, -9.62638782930284E-5, -2.790308174372862E-4, -1.365850154267916E-5, -4.1442933034456617E-4, -3.565804087099493E-4, 2.1145134959441963E-5, -3.8817974152477225E-4, -9.415268212931356E-6, 0.001358916012998468, -0.017724671187186982, 0.0, 0.0, 0.0, 0.0, 0.0, 0.0, 0.0, -6.802713008497225E-4, 6.488054449834329E-4, -0.0014185150516408762, 0.0012961064558525992, 4.5573464574244336E-4, -0.0010874756389985198, 4.4867081114200087E-4, 3.0737068173419314E-4, -9.628799747790993E-4, 3.472649063746484E-5, 1.0485207764711194E-4, -2.3479599367178417E-4, -2.092264259083529E-4, -1.8810395938172783E-4, -5.9311744959120746E-5, -3.7780318382317897E-4, -4.972072321222101E-4, -6.262433466868881E-4, 2.5328861635291375E-4, -0.001391546890671381, 0.0016228639486547665, -0.0018833339516012091, 0.0, 0.0, 0.0, 0.0, 0.0, 0.006735622474331369, -0.0032784539731648987, 2.0517963280851796E-4, -5.186859157605687E-4, -6.799312484490677E-4, 7.768789083072186E-5, 1.0483860916772825E-4, -6.399707925332962E-4, 3.920212953966498E-4, 2.2974748879019767E-4, -3.122887338336818E-4, 1.9149797852150943E-4, -1.3450869955115242E-4, -2.0549640148198885E-4, 2.830448782738975E-4, -1.5778942670170766E-4, -6.134337418804712E-5, 4.165651176652528E-4, -2.547136032834279E-4, 0.0010065940034753736, -0.0014587283144105625, 6.034130141866096E-4, -0.0012208984668918, -0.0017612896086567807, 0.0, 0.0, 0.01566773736803235, -0.0018650689237213669, -0.004378981476407503, 7.701709407775102E-4, -5.319909826257972E-4, 1.6920275881784428E-4, -8.969516093172712E-7, -7.12473236428856E-5, -2.8128568392593904E-4, 5.3562618611613066E-5, -5.643150221850742E-4, -1.2050153884397316E-4, -9.904329014489793E-5, -2.472530149460389E-5, 1.2346515252931168E-4, -2.618825764940352E-4, 1.4573077680983776E-4, -2.2691670522312384E-5, 1.5918805662454286E-4, -1.6453875271309608E-4, -5.627872517262363E-4, 3.576464085382128E-4, 5.4608202007366316E-5, 1.4395053122399505E-4, 5.264657978839717E-5, 3.98378990407561E-4, 0.0, 0.0, 0.0, -0.010279961107607776, 3.547820979181641E-5, -9.320554690907157E-4, 6.870581405217091E-4, -3.868700219179755E-4, 1.0688922653228226E-4, -4.1149086229099797E-4, -1.9096331860681473E-4, -2.83021778881162E-5, -5.9691529636654156E-5, -1.225494718159173E-4, 8.271696094570983E-5, -2.0473905063089163E-4, -8.838764398273744E-5, -9.945180315103524E-5, 7.629447242272927E-5, -4.3071222443675025E-4, 1.6824135304797908E-4, 1.0268094018939274E-4, 3.030683729597826E-4, -2.027119838368987E-4, -7.007510707396448E-4, 3.670566925895189E-5, 7.1479057813691474E-6, 1.45728438025197E-4, -0.0026722781777358358, 0.0, 0.0033375068941379742, 0.0024753682782666622, 2.4229246028513514E-4, 1.8861841960654123E-4, -8.510822893304756E-4, 2.0821502544156992E-4, -1.2140598986307461E-4, -1.4208133887753997E-4, 1.1593751725849688E-4, -4.48940908475621E-4, 2.374147291119999E-4, -1.1047381962628936E-4, -3.860992542834143E-5, 2.687029119466811E-4, -2.35905453014048E-4, 1.2608514349123662E-4, -6.13618644581098E-5, 2.353089118924404E-4, 2.0888529587887304E-4, -7.584776904248434E-5, -1.2279692634371275E-4, 1.7843608727102181E-4, 1.1043171400431472E-4, 2.690560074638026E-4, -0.0012338580163191904, 0.001388102876298214, 0.0018345467380423942, 0.0, -0.0011846476530088363, -2.9278480038403475E-4, -7.849565025717194E-4, -5.80246638731441E-4, 7.153285679897957E-4, -2.75158279648532E-4, 3.718240332098215E-4, -4.6823359231516186E-5, -2.7659641683888097E-5, -1.0464935510727557E-4, -2.0284471981246664E-4, 1.6345684233417686E-4, -1.4915021935185023E-4, 1.2655817895920326E-5, 2.054817748232753E-4, -4.5705640322632764E-5, 8.732763854137452E-5, -1.848821534960542E-4, -7.338403462195508E-5, -2.6063886149495805E-4, 1.5798838005043227E-5, -2.15628010205414E-4, -1.1135459545359067E-4, -9.144531821305266E-4, 0.001392115751651016, -0.0017201512047161573, -0.0021061435497346467, 0.0, -3.5693746973087116E-4, 4.0346202154145145E-4, -9.704466174575894E-5, 1.4432522215090753E-4, 5.145835829448071E-5, -2.339364611471967E-4, -2.8098320193001E-4, 1.421419030448621E-5, -2.4322167550627161E-4, -3.249286797907557E-5, -3.8381163494511007E-4, -8.015781043565902E-5, 2.753263621812247E-4, -7.25208379548851E-5, -6.987244169682596E-5, -2.8555517112123023E-5, 8.035867064830556E-5, 2.8981805870119448E-5, 3.0471952818768235E-4, -4.4088405376352415E-5, 4.98017392210049E-4, -1.596169412701349E-4, -1.3701664384480004E-4, 7.728736758136712E-4, -0.002277048182021833, 7.8042097802418E-4, 0.0036916546797725537, 0.0, -3.039711576925907E-4, 9.962356640288853E-4, 3.6816064242757274E-5, -4.1302800646365683E-4, -6.137250262225494E-4, 5.044441658880963E-4, 2.7369282733587222E-5, -9.453318061422645E-5, 3.066381969217962E-4, 7.723758934609483E-5, -2.3050600369458184E-4, -1.9886965315816718E-4, -3.733756473649363E-5, 4.907485420942608E-4, 1.291214828329538E-4, 6.236603398169167E-5, -3.6826039460842485E-4, -4.630181177391652E-5, -3.658772835671502E-4, -2.4410002567650248E-4, -6.747720672736195E-4, 1.6144370408718232E-4, -1.9875504376269903E-4, -7.041214967483449E-4, 5.304603187676473E-4, -9.770594886854227E-5, -0.0026071892248143032, 0.0, -0.0018674317561882296, -0.0014121018125154779, -0.0013090550127389765, 9.781713325544396E-4, 1.8290117636153886E-5, -2.3934736277026215E-4, -1.718454356152301E-4, -7.07285465213454E-5, -4.5902139946073814E-4, -2.1362442267011127E-4, 1.0990369200346393E-5, -1.1252432346857405E-4, -4.2687102769520756E-4, 3.7638493155365367E-4, 2.5864232864098943E-4, -3.426084771205805E-4, 1.109053044960998E-4, 1.1762491034594453E-4, 4.31501966364849E-4, 2.488946389134487E-4, 5.977819127697465E-4, 7.917058729796936E-5, 3.688074824309014E-4, 6.59487832115823E-4, -0.0027486974635297146, -0.002181489149688561, 0.0016884408185444946, 0.0, 0.0037109456543281075, 0.001580680658146507, 9.101652619927843E-4, -1.22265231616316E-4, 3.11115324798891E-4, -8.442812812417091E-5, 5.063058608578716E-4, 3.000936359349857E-4, 4.170169937785245E-4, 2.3509698884738956E-4, -4.714040381054992E-4, -1.1063679650176923E-4, -1.8190240878303418E-4, 9.319296734756239E-4, 5.989853715365555E-5, -3.7615808759434077E-4, -1.784716050245324E-4, -2.7131738589571326E-4, -4.892844596767579E-4, 8.64808229473595E-5, -5.834233233841741E-4, -2.470443557716451E-4, -4.519694771012278E-5, -5.603366333834231E-4, 0.0014091562347902803, 0.001665338772332441, 0.0, 0.0, -0.002199369097830391, -0.002408293782034269, -0.0020394863216854353, 5.726676827772082E-6, -7.814945608005058E-4, -2.898804657291858E-4, -3.8295861802431074E-4, -6.451110564499647E-4, -5.069414023095864E-4, -4.8052416076250304E-5, -9.972199089895512E-6, -5.5249065418242E-4, 1.6257121856078262E-4, 3.501109435983205E-4, -4.436267447295647E-5, -5.033774008696586E-5, -3.199382344795638E-4, 3.4557721777756103E-4, 2.8802174622465646E-4, 1.1213798865202659E-4, 4.0829344221313476E-4, 1.245561846672486E-4, 6.584744465519958E-4, 4.8767081130506284E-4, -0.002577082407327121, 7.296837970794975E-4, 0.0, 0.0, 0.0, 6.833444242005851E-4, 0.001507524142088692, 1.7310751215866957E-4, 3.0485540082866733E-4, 5.524951984705492E-4, 3.295818937939214E-4, 4.70110946934296E-4, 3.4440249299320924E-4, -6.158052252678503E-5, -1.0060419709331259E-4, -4.761404967275855E-4, 6.119522369272254E-4, 3.213131378800789E-4, 5.404636877234428E-5, -2.9070029848486077E-5, -2.478108768366118E-4, -4.2017654311064844E-5, -1.1931446811424973E-4, 1.2686116198642124E-5, -4.1033775039866414E-4, -2.3723645846205377E-5, -8.22721031159015E-4, 1.1573816192759882E-4, 0.0019307276601112314, -0.006176429872414844, 0.0, 0.0, 0.0, -3.3081259397349457E-4, -0.0011836333186873598, -4.787354338520394E-4, -5.056358172807707E-4, -3.8377417086680896E-4, -5.186638801521869E-4, -4.1855464429343183E-4, -2.3832993305550215E-4, -1.7858747140425904E-4, -1.4360606596560403E-4, -4.832875982682023E-4, 2.9134461096819554E-4, -1.2548461734662072E-4, 1.7304140126077314E-4, -6.726253298115693E-4, 7.407727941423554E-6, 1.0474451124007203E-4, 9.133099876735915E-5, -1.1328814236402408E-4, 4.346362977899274E-4, 7.604610317899207E-5, 3.3990068068796375E-4, -8.701436937531167E-4, -3.747897992105462E-4, 5.225167923679618E-5, 0.0412536460585009, 0.0, 0.0029012609887155744, -2.8386630725539335E-4, 8.613452520876725E-4, 6.970258692757348E-4, -4.047598873852478E-5, 1.4877492085208207E-4, 3.9539860804019766E-4, 2.589418301173752E-4, 1.2389994228806503E-4, 1.2587645458342274E-4, -1.8956157993401808E-4, 1.2590829334628925E-4, 1.4988825712133688E-4, 4.0127648004813655E-4, -3.367754216911944E-5, -2.9652056599855172E-6, -5.457511749950034E-5, -1.456224842522126E-4, -1.86145118414359E-4, 7.581015999377231E-5, -2.839158784860181E-4, 2.1527996464775504E-4, -1.1473184561788421E-4, 9.741034177369981E-4, -0.0021202921845848736, -0.017187753429510923, 0.021688525995278433, 0.0, 0.0, -0.0013892153940725396, -4.4154189183485444E-4, -1.557646248809414E-4, -4.5158214702685696E-4, 3.153462496906806E-5, -2.008772743627329E-4, 3.317706508690849E-5, -4.6683177857905113E-4, -3.3048518220038807E-4, 4.913767212611738E-5, -1.8528051002854955E-4, 2.8223770469035876E-4, -1.005816297123313E-4, -1.3355502426185554E-4, -3.534391350169132E-4, -2.3527986098601506E-4, 1.3034544836925676E-4, 6.811678264201714E-5, -2.3128250546464925E-4, 2.1002032047432028E-4, -5.029813585049223E-4, 1.5517186210048807E-4, -9.349131901408954E-4, 3.1139945195416823E-4, 0.16467408430904487, -0.22359219608282785, 0.0, 0.22301751174438902, 0.0014652869499571727, -7.843536782892154E-4, 2.81759715589217E-4, 5.016159250349243E-4, -2.263506642374859E-4, -1.2516954478170361E-5, 1.554804545397545E-4, 2.3914920738984493E-4, -1.4910706775931047E-4, 7.908661635354928E-5, 2.0530216322408044E-4, 2.7158095800191515E-4, 1.2682489637750777E-5, 6.794098480795043E-5, 1.7002560516741507E-4, 9.726514474400218E-5, -1.2765956118896115E-4, -1.769137045736167E-5, 1.8404137482457198E-4, 3.5779478657528575E-5, 5.595329546526654E-4, -9.60475446731282E-5, 1.3209427436632447E-4, 5.740063622945025E-4, -0.075785250246309, 0.0, 0.0, -0.11059562308373434, -0.0013541796522109739, 5.430871305027943E-4, -2.894727590979649E-4, -5.047576736238489E-4, -1.8270446459142686E-4, -1.3437696627262562E-4, -1.182810442932375E-4, -2.4009883127392798E-4, 3.556327531436114E-4, -3.1797104095712886E-4, -5.916926982480559E-6, 9.176705017980977E-5, 6.537723154332281E-5, -1.320707403595494E-4, -2.3305811492011072E-4, -3.1485973020861093E-4, -2.403586041342852E-4, 1.4971056854009142E-4, -5.50696053616215E-5, -3.2320180411919014E-4, -3.93114717207231E-4, 1.7632985181871653E-4, -6.148759271715232E-4, -1.4663467974016312E-4, 0.04404448665926891, 0.0, 0.0, -0.014622335896734912, 0.0016126280360578406, -6.322237646322158E-4, -4.689176430593503E-5, 2.4816990326655223E-4, 4.393873852771081E-6, -8.189421338558627E-5, -9.364979296417028E-5, 9.472264515385623E-5, -1.5624386672565512E-4, 2.3921555931336874E-4, -1.5146603591244202E-4, 8.587253689509263E-5, 2.6874694360079082E-5, 3.074358174410168E-5, 5.992790908135323E-5, 1.0735175539908387E-4, -3.9177135769623186E-5, 4.406124861260207E-5, 2.9134195595596397E-5, 2.3635871473944806E-4, -2.490633665284896E-4, -7.164002588422566E-5, -3.5276574327651076E-4, 8.159898248722196E-4, -0.010386049541083383, 0.0, 0.0, 0.0, -0.0028996788093996577, 5.63200310730549E-4, 1.5886165889787818E-4, -4.554112448235695E-4, 3.076719427108709E-5, -1.1154415962639397E-4, -1.1300611177148437E-4, 1.4283978232735168E-4, -7.902356789326284E-5, 7.364119300653502E-5, 1.1737770362723432E-4, -2.0478681296993024E-4, 1.8257446993092552E-4, -8.415539032794719E-5, -1.1922465509600207E-4, 1.2784544588721276E-5, -9.034545375817676E-5, -4.4229425622206253E-4, 3.3921946874254254E-4, 1.2718533722378322E-4, -4.110010368082227E-6, 1.8486480530049965E-4, 1.7593121100021027E-4, -7.185193795954874E-4, 0.0019889956939773486, 0.0, 0.0, 0.0, 7.382136147462501E-4, 7.104903338316431E-4, -3.300943072171462E-4, -2.3898019723667187E-4, -6.478819443166245E-5, 1.1343725079748065E-4, 1.2559360027216554E-4, 1.1750536527542684E-4, -1.4917503612039848E-4, -1.803923357965434E-4, -3.176533216160042E-4, -5.412342467892299E-5, 7.417067125979447E-5, -1.7854468058212325E-4, 1.0672640545057774E-4, -3.000854942228396E-4, 1.623646165342313E-4, 2.964556582936802E-5, 9.74187199000273E-6, -2.5764116110720865E-4, -2.4744928291215335E-4, 6.103657557315975E-4, -0.0011140759196937233, -6.524754890122607E-4, 3.941288906656845E-4, 0.0, 0.0, 0.032962105318021746, -0.0076918405815167646, -3.834184421514718E-4, -2.0921720189621558E-4, 3.801206998067352E-5, -3.453548763213739E-4, 7.723238045946404E-4, -4.1702378803376756E-4, 1.700370750245917E-4, -3.396863296489626E-5, 1.0057035679520713E-4, -2.3638175710715586E-5, -1.14866479971678E-4, 5.39543163660763E-6, 1.7548861964677306E-4, 1.7800686471979303E-4, 5.27090844381599E-4, -3.192417580899705E-4, -1.2119189971888396E-4, -1.122284031992672E-4, 4.354372500711237E-4, 0.0010157150452775434, -0.0029010122843564335, 0.005165202724098882, -0.004624284454020057, 0.0, 0.0, 0.0, 0.0, 0.0, 0.001446007490188385, -0.0026832377896708697, 5.798875546476614E-4, 5.20108325013112E-4, -2.8657966253919416E-4, -1.5208548351973924E-4, 2.8216674593785487E-4, -1.5547224167755636E-4, -2.977506423070588E-4, -2.0697391418160398E-4, -1.3441802793932135E-4, 3.656809044688433E-5, -1.978393445042314E-4, -4.0883248694317906E-4, -2.4234321094087274E-4, 5.239550027980051E-4, -5.498092729461011E-4, 7.92109854392769E-5, -4.26758510468419E-4, -4.374820472907673E-5, -1.255407691304295E-4, -0.005493622015874721, -0.08705454097425405, 0.0, 0.0, 0.0, 0.0, 0.0, 0.0397837718925013, -0.002273306023159792, 6.777090224413748E-4, -5.178624667115554E-4, -0.0016799027862873673, -3.5432208068929586E-4, -9.989728382164699E-4, 7.21685712809287E-5, -4.095074759894023E-4, 2.611980035178273E-4, -5.146595495749274E-4, -2.9634499855415444E-4, -4.905164781828328E-5, -1.1949035598958153E-4, -1.3509258416672545E-4, -4.8171880054995815E-4, 4.6985210746591533E-4, -8.73442526936342E-4, -5.946185726280334E-4, -8.59686320172952E-4, 0.0035830466893410694, -0.0021470373965660036, 0.0, 0.0, 0.0, 0.0, 0.0, 0.0, 0.0, 0.009794462940260304, -0.0014639681289517093, -4.7614507222944603E-4, 9.842724799571483E-4, 2.4226328004526052E-4, -1.4660232586336116E-4, 1.0915380200451039E-4, -1.7908909000080459E-4, 5.032119080855757E-5, 4.5673837819189684E-5, -8.113192756702283E-5, -1.3085888870950906E-4, -8.780772283224453E-5, -4.7441582109062914E-4, 3.544104652737617E-4, -9.489646316471001E-4, 2.4931930604482643E-4, 8.211960147658498E-4, 0.00209173863837539, -0.0014579494246619, -0.006336465822357136, 0.0, 0.0, 0.0, 0.0, 0.0, 0.0, 0.0, 0.0, 0.0, -0.009253202739465305, 7.459241908594907E-5, 9.193896368883336E-5, -9.652676880728562E-4, 6.674224862585464E-4, -0.0014820799739735286, -9.189520713743069E-4, 5.841326023736226E-4, -0.0010335307954727258, 1.8356255321821778E-4, 2.519170978111912E-4, -0.0014726879066853027, 0.0013101453144158087, -0.0010020888867321646, 0.0024210473577469505, -0.03275601288283787, 0.0, 0.0, 0.0, 0.0, 0.0, 0.0, 
0.0, 0.0, 0.0, 0.0, 0.0, 0.0, 0.0, 0.0, 0.0, 0.0, 0.0, 0.0, 0.0, 0.0, 0.0, 0.0, 0.0, 0.0, 0.0, 0.0, 0.0, 0.0, 0.0, 0.0, 0.0, 0.0, 0.0, 0.0, 0.0, 0.0, 0.0, 0.0, 0.0, 0.001035612257953952, 0.005958496362830889, 0.024969582218437238, -0.05011158654315597, 0.04353115562125418, -0.0031418494467593495, -0.0014723822645080146, -4.152881521454026E-4, -7.944979202088039E-4, 0.0017858414481338198, -0.004970587831318454, 0.016695738538400874, -0.0017585674230536795, -0.0011401258263706927, 0.0012422541066789184, 5.423219573954528E-5, 0.0, 0.0, 0.0, 0.0, 0.0, 0.0, 0.0, 0.0, 0.0, 0.0, 0.0, 0.0, -0.0037210296882497686, 0.008838341706085094, -0.004944883906520962, -3.651950040311739E-4, -0.0013931893045218023, 4.365988081693638E-4, -1.2102476844955473E-4, 9.30061404099102E-5, -0.001682440755404108, -6.741808473266265E-4, -6.759274718228585E-5, -2.164043042693698E-4, -1.0791171866232799E-4, -6.245330242608286E-4, -6.723978189458024E-4, 2.835232938707649E-4, -0.0018085596333129656, 4.097146114071637E-4, 0.002923477753132074, -0.1092082461104479, 0.0, 0.0, 0.0, 0.0, 0.0, 0.0, 0.0, -0.004746040684353272, 1.2082251464130616E-4, -0.004441569841351709, 0.004292512197065401, -8.572306385132048E-4, -2.5796975502554576E-4, 2.544726171376522E-4, -0.0014417086162418218, 0.0012213671633883995, -1.2184615666935059E-4, 3.3883453211913786E-4, -2.7811322952852664E-4, -5.88434513669565E-4, 1.5477507762942715E-4, 1.8707307267668848E-4, -7.345307490826164E-4, 1.0581350221734323E-4, -3.4169909206093575E-4, -7.072285334213146E-4, 4.886417219993125E-10, -0.001952682742896042, -0.004995221300109577, 0.0, 0.0, 0.0, 0.0, 0.0, -0.007232994511757445, 0.0011561741708745834, -5.902711403107165E-4, -4.572272597363618E-4, 0.001022402942736307, -9.667201637946664E-4, 6.99722492640189E-4, -2.288631311559128E-4, 2.606876001560021E-4, 3.739772312464114E-5, 2.4225127761052565E-4, -9.294195966332174E-5, 4.576467432466073E-4, -2.2256361919223867E-5, 2.0600436613476696E-4, -2.627492797429387E-4, -1.1819845963284489E-5, -2.412610970182009E-4, 3.0095701671123973E-4, -4.979335835755317E-4, -5.07522074174239E-4, 0.0011462425280327042, -0.0012964145870252685, -0.0016260616493752585, 0.0, 0.0, 0.02071078071818494, -0.048688539236572945, 0.004085183342758556, -1.356395542845815E-4, -8.020342619752394E-4, 1.0241532663239852E-4, -0.001382767307306982, 0.0013665811438342361, -2.3815754598554434E-5, 3.2277193606877855E-4, -5.197532626226132E-4, 1.847264912876992E-4, 8.486594379513445E-5, -1.2548455088488657E-4, 1.663711175911016E-4, -2.123387579696018E-4, 2.0266297502823935E-4, -1.8604260217266178E-4, 1.6758192420341603E-4, -3.389437589775481E-4, 5.842381654632297E-5, -4.3480119557190455E-4, 6.736733951023058E-4, -0.0018245502038663104, 0.001210750689277914, -7.222297704476199E-4, 0.0, 0.0, 0.0, 0.007158745387187333, -0.0013147951181533481, 6.581913198426347E-4, -0.0018169839081841979, 0.0014801381279603044, -3.091307343463393E-4, -1.6896209270159343E-4, 1.706611410073981E-4, 8.194234206365355E-5, 1.97055213811745E-4, -3.0120162042338877E-5, -1.5929544990048817E-6, 3.01406822341553E-4, -1.2845706772953987E-4, 1.0762135750105182E-4, 1.0477155211131598E-4, 1.2561629125739255E-4, -6.3409100405389E-5, -9.298450742904171E-5, 4.4101432708806447E-4, -5.062527944140109E-4, 2.86346883611203E-4, 5.042052761315795E-4, -3.7979609838144547E-4, 3.357166714585837E-4, -0.0011612397303074513, 0.0, 0.004878595055235963, -0.0011799535154801903, -1.1571302458829572E-4, -5.171209210179922E-4, 9.128551203307772E-4, -6.312522713692882E-4, 5.537227637223244E-4, -3.9232567221422955E-4, 1.0318533712302411E-5, -1.5999791676378296E-4, 7.213355852920113E-5, 9.38593321302576E-6, -1.0242879497791062E-4, 4.258214307377446E-5, -2.595845756432883E-4, 2.5138344588242017E-4, -3.642479646870765E-4, -8.804041285086785E-5, 5.890831410489639E-5, 1.386380778367093E-4, -2.7945972315997116E-4, 5.804146922367887E-4, -5.300192033541709E-4, -2.3798746573196994E-4, -2.748962718011932E-4, -3.500661206411914E-4, 0.003318018028743844, 0.0, -0.002168551465410687, 0.001158742445602675, -8.085207723910348E-4, 1.9953155432379783E-4, -6.107993078408498E-5, 2.3097004709518018E-4, -4.4379820174462466E-4, 4.2588500180009645E-4, -8.971713398264374E-5, 4.827049065162744E-5, 2.2724750478006568E-4, -2.809964090711217E-4, -1.533776581871244E-4, -4.738867279264509E-5, 9.874588519132496E-5, 1.66176984891835E-8, 2.0707871349559748E-4, -1.016522185961012E-4, 1.7601131732869028E-5, -7.607651892576658E-5, -1.0904510916388474E-4, -5.442335241728119E-4, 3.258193813085577E-4, -4.447433993851408E-4, 8.263088802406753E-4, -4.1904486849958283E-4, -6.738418572076196E-4, 0.0, 0.001532675385283666, -0.0030526762264438782, 6.514788377510107E-4, 2.487505502446297E-4, 3.3800003563599484E-4, -6.515835757638245E-4, 7.005148736238505E-5, -2.086387866616621E-4, -5.364932153887647E-4, -3.8896004096658347E-4, -6.945725682051435E-5, -1.1429980850539524E-4, 3.39567822753081E-4, -2.578090011207428E-4, -8.922820686718393E-6, -1.2516911320652207E-4, -2.3549651818744507E-4, 1.3594119316298812E-4, 1.2617269905514879E-5, 2.2476796999983652E-5, 4.327787796927377E-4, 5.741669569336148E-4, -5.738903630782592E-4, -1.3542714521071208E-4, -0.0011103503026818993, 1.2502139088308608E-4, 9.748193905115721E-4, 0.0, 2.669433868102234E-4, 2.449809836648079E-4, 6.56472286718874E-4, -9.478475425814341E-4, 1.5523584245175168E-4, 2.442718948121399E-4, -1.493266026985484E-4, 4.5406572693619757E-4, 4.961395759843326E-4, 3.142704534907304E-4, -1.1384588911483031E-4, 1.4022102387259506E-4, -1.9460378265315906E-4, -7.295318402884515E-5, 4.2643037531405706E-6, 1.4240299168712023E-5, 1.0936634523952793E-4, -9.74059895353841E-5, -1.49779500095433E-4, -5.647475316870182E-5, -7.647167312297148E-4, -1.6405727729384074E-5, 2.352643567177843E-5, 4.1419115667974145E-4, 3.2561340457652846E-4, -7.194963798111889E-4, -9.435535566775136E-4, 0.0, 0.004233681294078302, -4.1501061223052225E-4, -0.0017413311028628116, 4.430309927391937E-4, 7.749887794452381E-4, -2.5402276600215533E-4, -3.645544450778277E-4, -4.279471643350081E-4, -7.782801261707641E-4, -3.870501746738003E-4, -3.626460445903736E-4, -9.947074532150884E-5, -1.9744625699138547E-4, -2.93840094717577E-4, -3.477053545710288E-4, -2.193454503272994E-4, 2.3315012375120555E-4, -3.1114702864042863E-4, 2.857134940438045E-4, -3.228830681701079E-5, 3.908962754653314E-4, 2.1591746866516547E-4, -2.205030936744462E-4, 1.008500172137726E-4, 4.273309414799959E-5, 0.002394511217899864, -0.005650030244909268, 0.0, -0.0021206502447870695, -0.007588700389331532, 0.0050229725973930965, -1.1017769876394857E-4, -8.840755700552325E-4, 1.0425994313754253E-4, 5.216810488266007E-4, 3.5290955541794064E-4, 5.590508364274981E-4, 9.470200241628745E-7, -1.0663414328205722E-4, -3.1131890038212654E-4, 8.319455172251493E-5, -0.0010397533476061939, 2.965722996892054E-4, 5.274895031360417E-5, -1.632801583412883E-5, -3.9336426767615724E-5, -2.0761740733483936E-4, 3.350582236132543E-4, -3.93034823558442E-4, -5.233825596465209E-4, -8.306589617295944E-4, -3.9080093039742675E-6, 4.381683193677183E-5, -0.006055614365860433, 0.0, 0.0, 0.007998425370946008, -0.0024423886047981675, 0.004208474489071225, -0.0011520001195978809, -1.1637671896102284E-4, -4.535167305821872E-4, -4.564447576486111E-4, -7.204793819813585E-4, -6.331604453490006E-4, -2.1703063071969894E-4, -3.624807762841983E-4, -5.356396945001539E-5, 7.664758288800274E-5, -5.193746363935496E-4, -7.78161287125166E-5, 2.3467357789138046E-5, -3.719601988745314E-4, -9.643168387726786E-6, 2.710554940563392E-4, -4.3373419169338026E-4, 2.052923325037162E-4, 2.035253462025515E-4, 4.544168763312768E-4, 9.871044698400338E-4, -0.0019001365938384202, -0.0012969085437765297, 0.0, 0.0, 0.0, 0.0033017581913445944, -0.004613662837576231, 4.7434418855853475E-4, 2.1953436241858293E-4, -3.7583136160508564E-4, 6.012724636756924E-5, 1.5058085094878557E-4, 9.352147674288084E-5, 1.3084476290709324E-4, -1.7022646700467345E-4, 5.653710608760377E-4, -2.1585020629366625E-4, 7.774705824291559E-5, -1.2740037486620932E-4, 2.2263776212755372E-4, -8.066121946913589E-5, 4.1255887571511565E-5, 7.428173562421651E-6, 1.702618532626045E-4, -2.2909804578642316E-4, -7.935886301088322E-4, -9.100925639187826E-4, -4.2464143583173145E-4, -4.308207401246546E-4, 0.00721714045948867, 0.0, 0.0, 0.0, -1.078183631482735E-4, 0.003189903955300539, -3.7516605923732204E-4, -3.806291564576426E-4, 3.282406328345653E-4, -1.9796924745058063E-4, 1.589887548465082E-4, 5.806694648907967E-5, -3.3688133941320243E-4, 1.255219392418672E-4, 5.0644073842851354E-5, -2.955739721561367E-4, -2.4462005313884567E-4, -7.150960625805339E-5, -3.256983588024719E-5, -3.5087638614056437E-4, 6.668228188689055E-5, -9.032907859790344E-5, -4.2108296465764373E-4, 9.400044134316097E-5, -1.2691200213312833E-4, 0.0012864069984930696, -0.001026314286752996, 0.0013489312362999733, -0.0010413807250274877, -0.023916306134591316, 0.0, -0.0017139873686350708, -0.003695839596307783, -0.002350943295548082, 0.0012724317813532999, -5.071825326856188E-4, 1.5347530157099396E-4, -5.668145857049817E-5, -3.177637035086326E-4, -4.9208824553928344E-5, 6.521628352507053E-5, 2.0049968011192542E-4, 1.7685048233341075E-4, 2.6791487538818063E-4, -3.899942752293476E-4, -8.115539794776691E-5, -2.120071266611524E-4, 1.0479581737730216E-4, -2.593362235562277E-4, 4.94468534090693E-5, -2.2925870916216425E-5, -2.1457754095255519E-4, -7.161530724518269E-5, -0.0017575727458257534, 7.459274437153863E-4, 0.0029406456092325685, 0.0032188996167908305, 0.008469789924243142, 0.0, 0.0, 0.0037879710496472995, 0.0015415670449840332, -5.759487292145328E-4, 8.895025558257444E-4, 2.133312290144135E-4, -3.8857715961197406E-4, 6.244753296747971E-5, 9.424211670725075E-5, -5.159006822006289E-5, -1.9049446928417154E-4, 1.9253804788454335E-4, -1.7240209030348262E-4, -1.8823459539690044E-4, 3.607915639787736E-4, 2.603395427468353E-4, 9.679097859940821E-5, 1.631958334788353E-4, 1.5642793775852358E-4, -5.881740291268119E-4, 3.3848223155821984E-4, 3.2974751537783093E-4, 9.69934808122824E-4, -5.197696713149306E-4, 0.001535869120357082, -0.06848594883738268, 0.08190593407761272, 0.0, -0.207435065844912, -0.002273107599214614, -0.0011000996650549406, 9.164824440232221E-4, -2.345191807164187E-4, -2.8263005276413927E-4, 0.0011505795348861648, 5.417557908253064E-5, 2.431893264865128E-4, -2.2522327959806132E-4, 8.612879416348179E-5, 2.7887140990432634E-4, 2.729742237824136E-5, 4.925351611033096E-4, -1.4471397473367703E-4, -4.883157361510702E-5, -1.8901911237235758E-4, -1.3893985704737212E-4, -1.6963148270549415E-4, 2.49414445886192E-4, -3.1105624182907655E-4, -7.79165468296964E-4, -7.2981265421812E-5, 0.0011470558654781337, -0.0019079230411623985, 0.03733934621587255, 0.0, 0.0, 0.10564819846025, -0.001451931333479453, 4.2015701417095416E-5, -4.720665081563881E-4, 3.4632263794757E-4, -4.5645393279899316E-5, -7.252805710911024E-4, -4.817492468602627E-5, -2.035787474883464E-4, 1.903504497603784E-4, 3.2338346954582486E-4, -4.8134815091647456E-4, 2.7112985706116797E-4, -2.4913705571763387E-4, 2.3336496320021933E-4, 5.055618222790695E-5, 3.6541033022116046E-4, -6.264767255084795E-5, 1.9539987390683277E-4, 7.476941537830011E-4, 4.590599458997445E-4, 6.219996983657244E-4, 6.116773298057653E-4, 9.262851066044358E-4, 9.87502994220454E-4, -0.016685416778341445, 0.0, 0.0, 0.01685549380556515, 0.003155544417947505, -5.766150647288291E-4, -3.8981906537435097E-4, 4.127870961116986E-4, -7.207199417846284E-5, 8.05978298294764E-4, 8.532958010372537E-5, 7.961117860508545E-4, 7.0927061124793E-5, -8.746681974826348E-5, -1.3564818515188966E-4, -3.240635607423752E-4, 1.278875701127194E-4, 9.257179646454086E-5, 6.521893558476366E-5, -2.1148401347072897E-5, 4.820214145035947E-4, -3.089254412092041E-4, -3.367868665843608E-4, 3.532768169039745E-4, 3.7731993240371244E-4, -3.149566179292406E-4, 5.539839196007445E-4, -5.154860253943844E-4, -0.0021733028588469218, 0.0, 0.0, 0.0, -0.00398494360869984, 3.237804411327199E-4, 5.21764646213839E-4, 2.1988099705330487E-4, 3.980242881777725E-4, -1.1875324051713613E-4, 1.280133518421214E-4, -6.288814919979824E-4, -1.57631141289935E-4, -1.7328416656166122E-4, 3.061245094643127E-4, -3.7187760943660223E-5, -3.5317373492945706E-4, -2.88132804894201E-4, -1.498209664326466E-4, 2.6622494702730257E-4, -3.469157823504834E-5, 6.174020902274046E-4, 1.465688281255458E-4, -5.044881004582344E-4, 5.912869615432045E-4, -1.7185193548955243E-4, 1.741178203292117E-4, 0.0017089030748084811, -0.002094684997174319, 0.0, 0.0, 0.0, 1.421149138358133E-4, -0.002278705828025852, 0.0011337685848094709, -5.4965822838048294E-5, -1.5524507135956182E-4, 3.3358467032466605E-4, -1.3053302687974691E-4, 7.193465781113095E-4, -6.829328821908214E-5, 1.514641126657627E-4, -3.322940598926534E-5, -2.0171088152822142E-4, 4.860855490918258E-5, -1.1930706860252413E-4, -2.97702884621069E-4, -1.5377646574806753E-4, -1.3762373467476565E-4, 1.6814742305239268E-4, 4.5243480838468193E-4, 2.5275310914146413E-4, 0.001438872662237292, -6.217126155649648E-4, 0.0011600292335431665, 0.00113192516135314, -8.363253168082975E-4, 0.0, 0.0, 0.02817797753828592, -0.00509725371611776, 0.0036820672845247135, -0.001254058702697596, 0.001455724281678549, -4.7788321615886264E-4, -3.115315168794834E-4, 1.1356599396091859E-4, -3.125885630850701E-4, -2.617809528369147E-4, -1.9938121717757214E-4, -4.0573899925433064E-4, -1.2787039777409297E-4, -3.103909343388931E-4, -7.674052605872123E-5, -1.5841050719584004E-4, -5.270615484756519E-4, 3.1119473061367323E-4, -6.415606146905262E-4, 8.485418337281123E-4, 3.433715345181237E-4, -0.0027426587700724626, 0.0037425240076156417, -0.004257582343978899, 0.003131620117137186, 0.0, 0.0, 0.0, 0.0, 0.0, -0.004661765031072445, 0.0027648832947990347, -0.001878864277314323, -1.2314463228492939E-5, 1.5288577490395758E-4, 1.5273509945295413E-4, -1.5938872688540224E-4, 5.182244579758128E-5, 2.748852639792114E-4, 4.621089979316113E-5, 1.6590206631794592E-4, 7.30175269248871E-5, 7.256420653561075E-5, 2.9181022353424015E-4, -1.837947253687201E-4, -3.6123614719708413E-4, -2.335294260454304E-4, -0.002157799390219739, 0.0015610318331973946, -0.0012769569553494852, -0.00348604898001741, 0.016481491871818157, 0.22779724743310928, 0.0, 0.0, 0.0, 0.0, 0.0, -0.008862184378228666, -0.0043700491568675354, 0.0018528881359906053, -1.077419989194468E-4, -9.716258251009003E-4, -7.430617998445216E-5, -5.352190087010784E-4, 3.352498330914669E-4, -1.7861533254593523E-4, 1.6900086336385303E-4, -4.603298743451264E-5, 4.176597650364075E-5, -1.842711858683564E-4, -2.565973727670863E-4, 3.5532291615029965E-4, -3.8185360413377033E-4, 4.663008597537371E-4, -7.792682087961817E-4, 0.001173656628017438, 0.0025640178619181476, -0.005402612850770201, 0.006470533125087192, 0.0, 0.0, 0.0, 0.0, 0.0, 0.0, 0.0, 0.001416710429105225, 9.930532583109263E-4, -2.333931493842951E-4, 8.373725523476149E-4, 4.978448482296955E-4, -4.248247737248385E-4, 1.1213083247449652E-4, -3.4682690756437516E-4, -2.619948089778588E-4, 1.5560791006548826E-4, -4.7481890376172513E-4, 1.0116210522963632E-4, 5.275354088131583E-4, -7.678174512698325E-4, 0.0012665887658403576, 6.284521641373407E-4, 9.714476732049248E-4, -0.0012803633732243497, -0.0017746644450181695, 0.0011726190851625647, 0.021379435346958454, 0.0, 0.0, 0.0, 0.0, 0.0, 0.0, 0.0, 0.0, 0.0, 0.01514741485190084, -0.002305856933947112, 3.158162901255814E-4, -0.001664184261436637, 8.465365969460978E-4, -1.5447322271731575E-4, -0.001235080379505298, 4.828938553644925E-4, -3.713999538383883E-4, -6.732446590028091E-4, -9.162026314340544E-4, 6.030191331638935E-4, -0.002607147954757441, 0.002777624779743213, -0.007686589835850193, -0.09364464294640157, 0.0, 0.0, 0.0, 0.0, 0.0, 0.0, 
0.0, 0.0, 0.0, 0.0, 0.0, 0.0, 0.0, 0.0, 0.0, 0.0, 0.0, 0.0, 0.0, 0.0, 0.0, 0.0, 0.0, 0.0, 0.0, 0.0, 0.0, 0.0, 0.0, 0.0, 0.0, 0.0, 0.0, 0.0, 0.0, 0.0, 0.0, 0.0, 0.0, 0.003998946548133785, -0.039650017616324085, 0.004015534585283722, 0.07838532481892298, -0.06972262068234304, 0.004159274709722796, -0.0016670596134808785, 9.688970941292406E-4, 2.06824540041331E-4, 0.0010037055246355018, -0.00206390604423747, 0.0034608741055907727, 0.19077800544020931, -0.06519012383239597, -0.039299897658679056, -0.005838022594108055, 0.0, 0.0, 0.0, 0.0, 0.0, 0.0, 0.0, 0.0, 0.0, 0.0, 0.0, 0.0, 0.004511388049580614, -0.003719524133739947, 0.001478665948931354, 4.1921336021734823E-4, 6.880948838242434E-4, 7.72823588921109E-4, -7.891439460089714E-4, -1.8539336266956303E-4, 1.268761427057494E-4, 3.7816881025154843E-4, 3.150154984467975E-4, 2.1736032081570865E-4, 1.0447195187490844E-4, 6.369144310011694E-4, -0.001260672572459818, -5.8458449542673054E-5, -0.0014766176599666167, 0.0020143513419294164, -0.0019487362277776925, 0.03669094338354111, 0.0, 0.0, 0.0, 0.0, 0.0, 0.0, 0.0, 0.0022911642370621213, 0.004273092120690807, 0.0012475085306186827, -0.002121608287471439, 5.444382495323927E-4, -0.001590886508489874, 9.151790646345921E-4, -9.939881649037084E-4, 2.5464315332144634E-4, 2.9631702781344473E-4, -4.997687968819882E-4, 6.31531409489588E-4, -6.448868055870966E-4, 8.288242068572594E-5, 6.732732594511496E-4, -4.339180538598489E-4, 0.0011838051019544635, 1.758026163954076E-4, 5.169907386713154E-5, -9.817493616250802E-4, 0.0020105765126601123, -0.012172557553239614, 0.0, 0.0, 0.0, 0.0, 0.0, -0.019713874497090077, 0.005493686621480941, -0.0038252763655728223, 3.937272094323173E-4, -0.0017063438590377115, 0.0012684056132290548, -3.3429786906263425E-5, 1.572094026878287E-4, 4.1575012694403834E-4, -7.597352593333695E-5, -2.682833744394269E-4, -2.1344503744214128E-4, 3.993701744863548E-5, 1.0570089525188422E-5, -1.333133601514744E-4, -1.074295921128921E-4, -3.9569532626188925E-4, 9.788433368218915E-5, 6.681824197841133E-5, 3.963864214862484E-4, -6.462434063530849E-4, 0.0014007773323958808, -9.577784269009119E-4, -0.0025997150718230977, 0.0, 0.0, 0.028684386905365573, -0.014938328925050603, 0.0032908397441971425, 0.0011312838143307702, 5.459273147145172E-4, -0.0011218376627383736, 0.002301991305674082, -0.0016171749167064556, 3.8890211929191407E-4, 1.6999051949923917E-5, -2.606176207490714E-4, 4.8395985620219807E-4, -1.0689185505696511E-5, 2.1665375713585954E-4, -2.998856375785413E-4, -9.940321437147967E-5, 2.3525528541105E-5, -3.57067729831409E-4, 4.300727532383948E-4, -7.05598810619965E-4, 2.502491352932229E-4, -8.808497322187308E-4, -2.884445412470296E-7, 8.13740313313473E-5, 1.6319133021944714E-4, 0.002030071112940646, 0.0, 0.0, 0.0, -0.012512709006627305, 0.0011046606949449932, -0.001461960591484796, 0.002426608950067066, -1.6191762698021284E-4, -1.1879035760341278E-4, 4.125560721947367E-4, 3.624691779696268E-4, 5.201170960453146E-4, -2.912957458407076E-4, 3.4487864400789596E-4, -9.198432666067223E-5, -1.5736432970128534E-5, 3.055186046890541E-4, -2.7864468098450405E-5, -4.765894057838001E-4, 1.1403399421992907E-4, -6.13519167929979E-5, -5.994168369642888E-4, 2.2072733847250763E-4, -1.454505500867784E-4, 1.4418839901930106E-4, -8.700713644255081E-4, 6.705650716535511E-4, -2.656691181542351E-4, -5.425926215185503E-4, 0.0, 0.009288087922907284, -6.293553026054666E-4, -7.230852878856035E-4, 2.1906017076107353E-4, -0.0011135302434351014, -3.985762965151298E-5, -4.3184483863388176E-4, -2.012158553553761E-7, -4.162464165792532E-4, 3.954193057288311E-4, -2.1701571872195265E-4, -8.223142731883631E-5, 2.723982434421515E-4, -3.9182128331849474E-4, 1.0694335597027212E-4, -2.0821063327245953E-5, 1.6966488278035644E-4, 4.716995505316153E-5, -5.101378292799276E-6, 3.342938097984322E-4, -8.42323853904911E-5, 3.28902407884426E-4, -1.3974865454783667E-4, -1.7662924949110662E-5, 9.150586489793075E-5, 1.896037346194779E-4, 0.0032275373982902193, 0.0, -0.003559856553557604, -0.0028346396824705774, 0.0012718453271537535, 0.0010039386942598124, 4.4582125722304424E-4, 5.341971934078709E-4, 9.961691455186747E-5, -1.7290430252889184E-4, 6.794581949272252E-5, -3.5391389037918994E-4, 3.277533576252592E-4, 1.6957176429869504E-5, -2.02729380694936E-5, 6.161874070861823E-5, -1.4062688075216337E-4, -2.7456941628386347E-5, -5.4961876950242015E-5, -2.252416543867584E-4, 1.9541952732988796E-5, -2.9404823247964284E-4, -6.348725107126421E-5, -5.405014493016988E-4, 3.585489619995903E-4, -7.510278561806825E-4, 6.119625163241106E-4, -0.001049311371083173, 0.0019962424408222334, 0.0, 0.0012716214328954692, -4.4383702546434614E-5, -0.0011571916746311085, 1.5084952063544106E-4, -3.4636101749061985E-4, -6.941495555190221E-4, -1.7367067805217217E-4, -2.5361438895927054E-4, -1.7474584654506272E-4, -1.5126618756502617E-4, -2.1679916156499993E-4, -2.4641010695584264E-4, 6.917974724097062E-5, -4.712391408047936E-4, 2.971479361399403E-4, -1.0148319307283638E-4, -6.082210651738633E-6, 4.259617117342651E-4, -1.1541299958209521E-4, 2.55205134829375E-4, 5.022323896751419E-4, 8.105374713582435E-4, -9.770691365994085E-4, 0.0010750116519287571, -0.0022631311401806273, 0.0017219893750167988, 0.006632249024763427, 0.0, 0.004761634042496444, -0.001795367809233354, 0.0027152876268760427, 6.615185427605721E-4, -6.453362917054984E-4, 4.546931861693397E-4, 3.333089898445734E-4, -7.413170349941996E-5, -1.775801992303598E-4, -1.4569990245373994E-4, -1.3183645278055326E-4, -1.2926150885435395E-4, 4.1822248762070134E-5, 3.154241031607625E-4, -2.671161988070768E-4, 3.8994925000668024E-4, -5.9469940123392704E-5, -1.3599754723720052E-4, 1.8596677908324212E-4, -8.056556869379479E-5, -5.864569496322933E-4, -5.713171536439194E-4, 8.79765368697024E-4, -2.7970496013055696E-4, 4.886599653425102E-4, 7.765680282557546E-4, -0.003987432262448128, 0.0, 0.008253400719438649, -0.004540695115589333, -2.2312242429618843E-4, -0.0021734749463368504, 0.0013446397341138419, -1.6099806898043378E-4, -6.854687532118374E-4, 5.296091035123258E-5, -4.6422421806433965E-4, 1.9721097914444022E-5, -1.7110645768975792E-4, 5.992982805360859E-5, 4.347319793664195E-5, -1.137130068776428E-4, 5.440491180299025E-4, -2.7207728041371414E-5, 1.1526021035323266E-5, -3.6233389469107687E-4, -2.0420879801993566E-4, 2.0788352589633083E-5, 4.420597977320135E-4, 3.018049719770431E-4, -5.655824342083024E-4, 5.321278335708362E-4, -0.0010317528972163112, -0.001486792219783621, 0.0018974176401034778, 0.0, -0.014870472688474492, 6.89939934625764E-4, 0.001300642012605118, 0.002329391618867811, -0.001956793792813844, -2.1997772590736647E-4, 1.4723662864426102E-4, -2.466513598260237E-4, 1.6157001754384494E-4, -4.3762493791732823E-4, -1.1497789077826224E-4, -7.154561341801038E-5, 2.249600580358675E-4, -1.8568453511733565E-4, -4.378952855596904E-5, 2.9411827130946535E-4, 3.1862162838088747E-4, 4.0314190605931024E-4, 4.709027582938139E-4, 2.771034442994686E-4, -3.683054585070678E-4, 7.904009435816247E-5, 3.1808712992189504E-5, -5.9341166869810585E-5, 0.0019477827366281978, -0.0012402264427240494, 0.0, 0.0, 0.009156616318393346, -8.199112708683705E-4, -6.874035802266657E-4, -0.0018110583544763594, 0.0012221597758731437, -3.49687435804963E-4, 6.233445583960739E-4, 1.1845326532861615E-5, -8.007722489136063E-6, -1.105640429777354E-4, 3.636169317041452E-4, 4.1250229682299124E-4, 3.3759605245751436E-4, -5.895105734086569E-4, 1.8021139624341305E-4, -1.5539467614018507E-4, -2.521079268400892E-4, -4.024178317386879E-4, -7.348451155052553E-4, -3.028680506707151E-4, -2.6094648995614615E-4, -1.4281400595320156E-4, -0.0013421508242405886, -4.659255204040217E-4, -0.00160872751655976, 0.0023949622166615616, 0.0, 0.0, 0.0, -0.0073154346816946755, 0.003505550252617066, 9.403219547343342E-4, -7.904412607458904E-4, 1.3781818709724292E-4, -6.296948606901683E-4, -3.8130162705706644E-4, -1.7197813437097453E-5, -1.3318449056887735E-4, -2.2002147448614367E-4, 2.8259557936312026E-4, -1.1404692858307587E-4, -6.392527742230677E-4, -1.0361944435701462E-4, 5.29520056576732E-4, 6.073604047628182E-5, 5.320586925587588E-4, 5.974973215357723E-4, 2.2760014831425213E-4, 6.862992050275094E-5, -3.776081112852822E-4, 0.001764305050136115, 0.0011019719971012837, -2.8779686068519626E-5, -0.002871201475222235, 0.0, 0.0, 0.0, 0.008148783278157904, -0.003672150506132635, -7.010909517537385E-4, 5.066712026738982E-4, 4.885032059314454E-4, 3.5456347205765367E-4, 3.644735857195961E-4, 2.508391440498462E-4, -1.2506087276085645E-4, -1.9927779301340032E-4, 5.130221477606893E-4, -7.183767101786387E-5, 6.448818805136861E-5, 8.708835043113877E-5, 8.341556357514089E-5, 8.065986021846195E-5, -1.8796176327234114E-4, -1.6101929055865416E-4, -3.2489547217826606E-4, -4.366062772870435E-5, 3.772875492500832E-4, -0.001651938444487877, 1.940223760111323E-4, -6.589687122739388E-4, -0.001982623411645769, 0.018520284600431543, 0.0, 0.0028954103213574, -0.0027837146184265327, 0.0015753117638654995, 3.274292730894459E-5, -6.705010387884119E-4, -3.2846820979803756E-4, -5.912550862768296E-4, -6.479199626310769E-4, -3.7479134704238856E-4, -2.5186310616036144E-4, -1.322996768765814E-4, -2.5710614880924265E-4, -3.5005142749406856E-4, -4.4143469176870844E-4, -2.7567606897691444E-4, -4.4173460204027147E-4, -5.173163283974443E-5, -1.4886638846495964E-5, 2.2029777010053883E-4, 2.72462833834377E-4, 1.5355718807600447E-4, 5.29407580202356E-4, 0.001126810486455264, -3.4538478011614037E-4, -2.1603247056859189E-4, 0.009663281199452315, -0.07977906722870605, 0.0, 0.0, 4.867323253135798E-4, 0.0033423102307100364, 4.7778685709388014E-4, -1.8297612719634916E-4, 1.6142286032509815E-4, 5.617958975033314E-4, 2.9183558645050155E-4, 4.248876993484536E-4, -1.36114810589099E-4, -1.588265541106785E-4, 2.8954141771601763E-4, 2.0221939609481164E-4, -1.4738880208167062E-4, 4.6617742779894267E-4, -9.108573773259428E-5, 3.899681160996679E-4, 2.6746916947265954E-4, 1.2720500319708238E-4, -4.688094176238568E-5, 3.091682550002596E-4, -9.628694696331984E-4, -3.0116716242070896E-4, 3.853981483956985E-4, -6.274731273780461E-4, -0.0014739229164968354, 0.06995410907380863, 0.0, -0.13629470442544214, -2.23189585288603E-4, -0.001307753307002394, 0.0010944497402126203, 4.399349557890875E-4, -5.00578882258752E-4, -5.782100967367498E-4, -2.0146331880032138E-4, -3.747913317849262E-4, -1.649586071708411E-4, -4.544704021126525E-4, -3.972266387373137E-4, -6.296584428624979E-4, -4.5346840321240097E-4, -6.550932048763861E-4, 1.5496686050872387E-5, -2.63507255103203E-4, 1.6014331561104485E-4, -2.6377086573041485E-4, 8.75343906721265E-6, 8.35313074715662E-5, 5.864161924737961E-4, -6.499920231815136E-5, 1.8792704421984911E-4, -0.0012667239397994579, 0.0013347815460288217, 0.0, 0.0, 0.05668863608411, 0.009507659525035229, -5.612054252143857E-4, -0.0010112575161678942, -0.001229040290584707, 5.443142769016651E-4, 2.841474690438515E-4, -6.633118785048426E-6, 2.6498880450898064E-5, 4.9285247172336946E-5, -5.675908737537769E-5, -8.426927215899426E-5, 7.028545146353357E-5, 4.0238255681255725E-5, 4.0718368237443466E-4, 2.4313624874164848E-4, 2.755697043467797E-4, 1.635097438447581E-4, 3.4064902921615835E-4, 1.0119324080074239E-4, 3.444801734646741E-4, -5.037652915493211E-4, -4.939982865904389E-5, 6.443273388921092E-4, -8.844483619649368E-4, -0.0010455574373696157, 0.0, 0.0, 0.0020108408987256072, -0.011716821911005844, 0.0015483221182328172, 7.625240474962433E-4, 0.001073222550247545, 4.236085300480163E-5, -2.687661906994114E-4, -2.517023253843456E-4, -5.5224258845602374E-5, -3.24327756274963E-4, -1.2421516612642151E-4, -5.927319416674887E-4, -6.068919370141405E-5, -4.726434254798601E-4, -6.932487841821063E-4, 1.1085519213498854E-4, -1.1440700097269379E-4, -1.177606731889437E-4, -5.654570242345192E-5, -2.5240692106025524E-4, -1.6188344203879224E-4, 4.521673399113444E-4, -9.617721847694418E-4, -3.881418867092815E-4, 0.0020063368879248123, 0.00170980519160661, 0.0, 0.0, 0.0, 0.0090095169275514, 3.76876586649986E-4, 5.428102924148326E-4, -0.0014394824547684828, 1.2618993608034108E-4, -5.350597223033939E-5, 4.5696019002664624E-4, -1.3188785947335402E-4, 5.009388339491753E-5, 3.923922274791257E-4, 1.4260717568826705E-4, -2.6732960391753843E-5, 3.3029934311337527E-4, 2.129910352064926E-4, -2.8381730390931304E-4, 9.163496892929911E-5, 4.633795580766368E-4, -3.926308918055687E-4, 5.645835102547668E-4, -4.783732279888227E-4, 6.771471864054416E-4, -7.786650259811412E-4, -5.143495011793512E-4, -0.0018285097165890386, 0.002442325602860527, 0.0, 0.0, 0.0, 5.2382143187585E-4, -0.0011126494966569164, 5.459597049715767E-4, 7.777642511414442E-5, 0.0011508361400685743, -3.426361141850227E-4, 1.255829593366564E-4, -1.4176804084954102E-4, -6.893551535724925E-6, -4.5924942469464876E-4, 2.712141648272201E-5, -2.1813372754729606E-4, -1.5842872629400024E-4, 5.669146032022272E-5, -1.4427702331520738E-4, 9.830956009699805E-5, -7.763121165587771E-5, 2.50019541435322E-4, -5.714213544242886E-5, 3.5168601717281323E-4, -1.7617104795172503E-4, 7.454583346000581E-4, 1.1690663417670654E-5, 6.864267713047069E-4, 4.6310790189827886E-5, 0.0, 0.0, 0.017649328343224795, -0.002897250986956402, 6.839596679991188E-4, 4.163495483855559E-4, 9.336398386830446E-4, -0.0011339358692186042, 3.727847365914164E-4, -1.5842579483846869E-4, 4.6740473424097226E-4, -3.195217130932442E-4, 4.741104663255425E-4, -3.2359007005423605E-5, 4.758716512133333E-4, -3.618764704478703E-4, -9.20585974246374E-5, -2.7114213134067574E-4, -3.3420099517607685E-4, -3.3161016263794085E-4, 4.1537402658287396E-4, -7.454635561269894E-4, 3.4424886127069773E-4, -0.0016089339094350604, -3.379389439948585E-4, -0.0016908208919302805, -0.0018356177583560263, 0.0, 0.0, 0.0, 0.0, 0.0, 4.5256439128293273E-4, 0.0025381731961763247, -0.0014734057027144048, 0.0011321807345521231, -1.564300373599977E-4, 6.332070205725961E-4, -4.96944846874401E-4, 3.159519970247133E-4, -1.0292347307644639E-4, 5.877471681624038E-5, -5.068599823053251E-4, 4.1260338101441337E-4, 1.1089313238878838E-4, 9.169035509075054E-5, -4.88732047762561E-4, -1.1027677944429776E-6, -4.344762435142938E-4, -0.0010039597037285331, 2.2702500421479998E-4, 0.0018487657342627255, -0.0017729804159949659, 0.00636799302113178, 0.06065909351638264, 0.0, 0.0, 0.0, 0.0, 0.0, 0.039911564630194706, -0.004550352003920348, 0.0036309844522232947, -0.0020184228193143804, 9.401687664924413E-4, -3.289606239790095E-4, 3.8006768911018644E-4, -3.21745647045643E-4, 2.2619044836589078E-4, -1.1486404416069136E-4, 1.0734751953908463E-4, -4.828706572519133E-4, -2.6167163274141546E-4, -6.944673455570274E-4, 4.289592566286239E-4, -0.0010123283160123067, 1.8163778470273222E-4, -9.055613022237907E-6, -0.0011925101950302254, 7.942278723182882E-5, 0.0013133498817639408, 0.0016493384344090142, 0.0, 0.0, 0.0, 0.0, 0.0, 0.0, 0.0, 0.003292564425982679, -0.004073256644010814, 0.0018179777448855715, -4.905587213754369E-4, -3.1975886935892384E-5, -8.327794581824009E-4, 2.143909092261368E-4, -9.918248931369542E-4, 2.0039060367124656E-4, -6.958824983589688E-4, -8.813393903071013E-5, -5.392337585239466E-4, 1.0594838917151122E-4, -1.6910482596694463E-4, -1.7573295750026612E-4, -0.0012567156646731902, 0.0015838880982111721, -0.0021224946104371127, 0.00200146081920788, -5.550987993542166E-4, 0.010411382826905513, 0.0, 0.0, 0.0, 0.0, 0.0, 0.0, 0.0, 0.0, 0.0, 0.035781939398307275, -1.3645308911552773E-4, -0.002111245389902767, 0.0011621461004526822, -3.413157626056047E-4, -0.0015923814233865681, -7.094149589411121E-4, 4.3547646701445024E-4, -9.722244931579384E-4, 1.3974796627550876E-4, -7.386582191529444E-4, -0.001598168758028506, -3.238381507962303E-4, -6.113459332969243E-4, -0.002412651115963083, 0.04641945809673786, 0.0, 0.0, 0.0, 0.0, 0.0, 0.0, 
0.0, 0.0, 0.0, 0.0, 0.0, 0.0, 0.0, 0.0, 0.0, 0.0, 0.0, 0.0, 0.0, 0.0, 0.0, 0.0, 0.0, 0.0, 0.0, 0.0, 0.0, 0.0, 0.0, 0.0, 0.0, 0.0, 0.0, 0.0, 0.0, 0.0, 0.0, 0.0, 0.0, -0.0025082114707198713, -0.01362754378662286, -0.0064630383659045176, 0.0349241834791799, -0.03150354266948674, 0.0016982462880599587, -0.0018140782860865093, -1.4706272064462097E-6, -9.821567422362793E-4, 0.0014258233954210443, -0.004767486334290141, 0.015084862251501182, -0.08874860351229878, 0.030808066113967927, 0.020322038514695957, 0.0027308244364469235, 0.0, 0.0, 0.0, 0.0, 0.0, 0.0, 0.0, 0.0, 0.0, 0.0, 0.0, 0.0, 0.00550196855744781, -0.0010725504764754251, -1.6131345453335538E-4, -0.002782148515743073, -0.0010080758542189842, -3.377267333985729E-4, -0.0017155346790812542, -3.1652888096257557E-4, -0.0013182317165646024, -3.5849114862421055E-4, -4.550869309273207E-4, -6.624336291952109E-4, 2.847213828699944E-4, -0.0012025235202154417, -2.2771546898734874E-4, 7.76317255696195E-5, -0.0014314510905944636, 0.001334302378689212, -1.3644604579848832E-4, -0.03606508059464805, 0.0, 0.0, 0.0, 0.0, 0.0, 0.0, 0.0, 0.004127434755401862, -0.007507968741319072, 0.004377620431510793, -0.0019520048453447575, -0.0013088582005243178, -1.1476725467451144E-5, -5.291871845732654E-4, -2.767659391830292E-4, -1.750807877204315E-4, -3.0658576809715126E-4, -4.583069937740509E-4, -1.573047685439376E-4, -9.556390638883783E-4, -6.889237257720924E-6, -1.3670781302650595E-4, -3.46796410638152E-4, -7.365644769890035E-4, 2.83262461067961E-5, 2.727161231489457E-4, -0.0014349699780741077, 3.035917614522147E-4, 0.007167701726258139, 0.0, 0.0, 0.0, 0.0, 0.0, 0.008434754413856084, -0.005071520606187777, 6.685805215681119E-4, -0.0016302318089051612, 0.002620413083032442, -7.46331608440075E-4, 2.738368782506249E-4, 2.7707948585155545E-4, -2.972499770092883E-4, -1.9910322931024747E-4, 6.661645732385706E-5, -1.2756525065718013E-4, -2.864386244889732E-5, 7.838014750145127E-5, -2.455957577998343E-4, -1.399195204802836E-4, -6.328398575911744E-5, 1.4071337372647E-4, -1.3170694427888083E-4, -6.711978558840812E-4, 4.323177689796751E-4, 8.390642731384811E-4, -0.0023033020617455177, -0.0010807325697367249, 0.0, 0.0, -0.04384335245446507, 0.02870350156201523, 0.0038598285725444967, 0.002403583019109533, 3.4268349464945517E-4, 6.232787885830805E-4, -0.001429079790884658, 9.973059318846517E-4, -0.001004459755549939, 2.7468785160641274E-4, -8.042295362877952E-5, -2.337216350690945E-4, -2.8947893073217007E-4, -1.4568948769858427E-4, -1.4036388936894507E-5, 2.3619045307242664E-4, -1.9498808356673575E-4, 2.2998035501335735E-4, -1.6913629441089428E-4, -6.448554469614381E-4, 2.8371742648948563E-5, 3.628718935068053E-4, -2.2423335546558273E-4, -5.604124944138835E-4, -5.879313792662733E-4, 0.0036794689707233025, 0.0, 0.0, 0.0, -0.0023257973154295207, -5.983151954191054E-4, -0.0016567393562568829, 1.337956682154273E-4, 1.9134261121169695E-4, 2.2185487724659932E-4, -2.442128620329977E-4, 5.060027176866834E-4, -3.287803591224204E-4, -9.048906125879718E-6, -4.0474749497245057E-4, -1.3824535321273803E-4, -2.307080336116897E-5, -3.6789981067730576E-4, -2.8839779964343217E-4, -1.3121910352227522E-4, -3.994891786297598E-4, 2.8025294674937257E-4, -1.0928901499326757E-5, 6.636169294247163E-4, -2.37464819329561E-4, -2.4637524877872273E-4, 6.665293812479484E-4, -3.465107469899509E-4, -0.0016112031666223072, 0.008103947295636132, 0.0, 0.00443267822505848, 0.0010798306760729452, 2.819494970278043E-5, 3.5987898327287187E-4, -0.0010105173662962998, -3.6964393168849523E-6, -2.001950014323702E-4, 3.265348326933911E-4, -4.321333055730301E-4, -6.746211383250673E-5, 2.569417611552208E-4, -9.329841293441779E-5, -3.683734732320524E-4, -3.072915445798606E-4, -1.6603938299330354E-4, -4.131987211708319E-5, -1.2694828914039326E-4, -2.1978728736636538E-5, -4.866782923866146E-5, 8.317296000403042E-5, 3.745098723296433E-4, -2.249874495137209E-4, 1.418518589818784E-4, -2.3210820053965074E-4, -0.001051857768357406, 4.909340969975076E-4, -0.007638444642511052, 0.0, -0.0035659775814309803, 4.189048070142914E-4, -4.3262642826988654E-4, 5.024782767527618E-4, 5.342911469169296E-4, 2.896552428077085E-4, -1.2590130710861427E-4, 2.709899636827611E-4, 5.576075485127585E-4, 6.017480077502112E-5, -1.4118065812540327E-4, 5.339117088833763E-5, -1.6382155983547372E-4, -3.547544784602867E-4, -1.4029379869525714E-4, 1.4195001657797343E-4, -1.6295160555341638E-4, 1.1040343134544295E-5, 1.7299886538171773E-4, -1.4934238086132602E-4, -4.878167688424651E-4, -1.8486214978589885E-4, 4.8763805671634954E-4, 4.437496959076385E-4, -3.2033824764101786E-4, -0.0012571939222449217, -7.801771565867206E-4, 0.0, 0.0035804929409785496, -9.373568820825565E-4, -5.565334415524157E-4, -6.79804349321838E-4, 2.6519785308221197E-4, -3.111400352316957E-4, 9.268098533747515E-5, -2.5221959259222516E-4, -4.4981619498490346E-4, 8.595511817679906E-5, -1.909325362313119E-4, -1.755737463584812E-4, -9.178446467304013E-5, -2.7913644827261253E-4, -8.192018490443892E-5, -2.1128438853022896E-4, -2.4906291248015283E-4, 1.165282898101295E-4, 2.274710332357249E-4, 9.720106849688367E-5, 2.423802993621606E-4, 3.7984353987695856E-4, -6.334094211214675E-4, -1.6608262296534157E-4, -0.0017113346446222064, 4.8201709164327956E-4, 0.010168349161565133, 0.0, 0.0045342547634317654, -5.446592753391228E-4, -5.566052419323318E-4, 4.117055427360035E-4, -6.358419450071065E-4, 1.6632395688886083E-4, -1.366222052327514E-5, 2.203210908044111E-4, 2.3661079928712642E-4, 1.0059896868675164E-4, 1.334235183587999E-4, 2.809368951851965E-4, -3.0940574187410063E-4, -1.3086787961949663E-4, 1.775503009221969E-4, -1.525136015377037E-4, 1.8688180132908375E-4, -4.895566877967754E-5, -3.727951421990651E-4, 5.480395979946143E-5, 5.7856223919941653E-5, -1.6778125052628308E-4, -6.196298309948493E-6, -4.561354893235836E-4, 6.905155012255665E-4, -1.543369274785959E-4, -0.005959676508720698, 0.0, -0.017722187049374834, 0.002463362199827763, 1.3564396749129408E-6, 4.7905657146343864E-4, 5.879932486118214E-4, -6.647353225283794E-4, 1.127684388244742E-4, -1.1597367475781021E-4, -6.323404285001231E-4, 1.2288385867091696E-4, -2.4562341704985433E-4, 2.3703640304889752E-4, 7.303602248535609E-5, -2.0115976097617865E-4, 1.332956046450892E-4, 2.285841972417319E-4, -1.2098109666307146E-5, -9.273679144679238E-5, 3.0210843910660843E-4, -1.6379673631426893E-4, -1.1282862008278353E-4, 1.6240535631030766E-4, 3.305143203288116E-4, -2.895317711525481E-4, -0.0014384296605387493, -0.002937584457552542, 0.0019725434933523254, 0.0, 0.015880659617663093, 0.002861580313269501, -0.001779637445360936, -3.668928170784007E-4, -1.3503447890024798E-4, 1.3710501239139005E-4, -1.885999048870302E-4, 6.339508451677605E-5, 3.294724358798931E-4, -3.245212295247924E-5, 1.8902660279342874E-4, -1.0166024100786025E-4, 2.809320263594779E-4, -4.5433007953907993E-4, -2.874420603469831E-4, 2.4458398089625613E-4, 4.2187134036532527E-4, 1.966294357970555E-4, -3.6759906586807495E-5, 2.487218500592173E-4, -4.7551606375854797E-4, 4.0199239511910724E-5, -3.825350584583175E-4, 2.444177688494987E-4, 0.003291659421102808, -0.0036475506969756645, 0.0, 0.0, -0.02071793373734963, -0.003467573619196521, -3.509179832292673E-4, 2.8796129080882637E-5, 8.246091794792909E-4, -1.3362562410064097E-4, 1.9719207203016984E-4, -9.647857770159405E-5, 4.6069784679414835E-4, 1.4122868304957076E-4, 5.543205097281518E-6, 2.208104580377963E-4, 1.2713389057040142E-4, -3.966511164367658E-4, 3.8553415741558245E-4, -2.550009911791343E-4, 1.9293755285955513E-4, -6.120722297732652E-4, -1.9928800149887795E-4, -9.589871601852154E-5, 3.208343626811957E-4, -2.0198654372900878E-4, -2.0572830593443804E-4, -2.5901071342999076E-4, -0.003139377396446361, 9.482152421952006E-4, 0.0, 0.0, 0.0, -0.00296571231359277, 0.0016682974519476113, -9.476425022806409E-4, -6.450556767683981E-4, 2.2375274701530302E-4, -1.6422315690409184E-4, -2.061877019714102E-5, -3.2861380567854293E-4, -1.8543364587077018E-4, -2.682462980263854E-5, 2.2239819632681918E-4, -3.667924215924586E-5, -3.658297781511252E-4, -3.381321754759422E-4, 2.0403065932636026E-4, -1.7814778009260168E-5, 2.693854449326375E-4, 3.5274814407959966E-4, 3.1401198786836057E-4, -3.677329402675004E-4, 2.077292364447711E-5, 6.011619242087619E-4, -3.336910736434913E-4, 1.8508012948815407E-4, 5.504102143536302E-4, 0.0, 0.0, 0.0, 0.004485520637451593, -9.87989069827778E-4, 2.521919153008227E-4, 6.059136856514856E-4, 5.406599967955498E-4, 6.890613774133076E-4, 1.6658068805134848E-4, 6.753072657643047E-4, 3.467911226107528E-4, -4.852181421489556E-5, 1.1277003617716736E-4, 1.0308111125490012E-4, 6.805337850168484E-5, -4.469355536705258E-5, 5.173512014233943E-4, 2.1109306010205062E-4, 3.914086787095319E-4, 4.18090789221793E-5, 2.4046583090122986E-5, 6.026752496525743E-4, 3.8295046228005827E-4, -7.200399944281647E-4, 2.27966540973921E-4, 3.470038971165418E-4, -0.007840751319790585, 0.1002572324775438, 0.0, -0.006349009632761111, -0.0019709444845295984, 0.0011182638704623526, 5.676005006868268E-4, -2.1828290800947697E-4, -4.335580546355029E-5, 8.03501581047723E-5, -2.4998835994741804E-4, -4.01997157729125E-4, 5.7619313005737525E-6, 2.2663606939106912E-4, -8.126116749207341E-5, 6.950971799268057E-5, -1.56489638384998E-4, 2.9446940834107797E-4, -4.4256751313288877E-4, -1.3173819889545827E-4, -2.187307039406549E-4, -1.3116989711789488E-4, -3.798001793312262E-4, -5.05890337361435E-4, -1.5689031708212366E-4, 5.713141613366995E-4, -6.809732542891664E-4, -4.503396432031583E-4, 0.013498684777035724, -0.2151589738846047, 0.0, 0.0, 0.0018723891761209118, -6.305971929182176E-4, -7.155222791863071E-4, -6.037080196972007E-4, 2.762292789892651E-4, 1.584667794833612E-5, 7.204386749025502E-4, -2.883111662754452E-5, -8.921010724595423E-5, 5.1457704853089475E-5, 1.330839275548777E-4, -1.1050342041354964E-4, 5.7623272151686206E-6, 2.060257145274908E-4, 4.0777658915011074E-4, 5.330819748312578E-4, 3.346852450413407E-4, 2.2965277215271314E-4, 5.361356346033734E-4, -9.490831680253976E-5, 2.0421850989833375E-4, 2.1230003669795525E-5, 3.8961759464526985E-4, -0.0010830349270244545, 0.06059565183276841, 0.11596779508496037, 0.0, -0.17988194046662084, -3.8664524010917237E-4, -7.443689416127908E-4, 4.2055801763010063E-4, 8.904649279534877E-4, -0.0011918887229034531, 4.557477857478198E-4, -6.508788197585875E-4, 2.8154975374242516E-4, -2.935461967360918E-4, -3.7438130417503343E-4, 4.679272087807536E-4, -5.340014308795175E-5, 9.18561470780683E-5, -4.7213690101350443E-4, -3.7600346851168455E-4, -6.470833727283241E-4, -5.106952433744828E-4, -6.084794111878553E-4, -2.938376334681901E-4, -2.8476837358921145E-4, -4.8210125419377586E-4, -2.503518340874019E-4, -9.31577154843479E-6, 0.0011776464677512477, -0.028521625652951035, 0.0, 0.0, 0.08612942556150037, -5.70990321691349E-4, 6.582404618857749E-4, -6.902745033312854E-4, -7.626785260080086E-4, 4.664324765676247E-4, -4.2911228217549987E-4, 2.1516520120933589E-4, -2.7933039848387323E-4, 1.2612855602080233E-4, -1.967098555574261E-4, -8.183346674871858E-4, 3.559712600345028E-4, -2.212968133253619E-5, 3.183777863911052E-4, 8.3130179043458E-5, 5.125085584109643E-4, 9.568396880024912E-5, 4.259102323233862E-4, 5.353435836035972E-4, 5.394377430807733E-4, 5.845904317491437E-6, -1.3724047486668437E-4, 0.0013251524356744935, -0.0019066498401759404, 0.021318225585305318, 0.0, 0.0, 0.015301054244105959, 0.0010442403657171262, 5.025394313476026E-4, 3.90484887247244E-4, 2.8311774301372774E-4, 5.7895000982425066E-5, 2.406993386978908E-4, -2.8718770607030303E-4, 2.679095691757144E-4, -2.922561275624309E-4, -3.667693082523987E-5, -4.978347331521325E-5, -4.357373364157404E-4, 8.304488397463205E-5, 2.33721284100203E-4, -9.865092357271117E-5, -3.58945344179768E-4, 6.6597922574323E-5, -3.150589059491076E-4, -4.1838598641681646E-4, -1.7882708045956097E-4, -2.236657065003002E-5, -3.4481678104446463E-4, -8.985929325929205E-4, 0.002460536209676485, -0.012605093284081234, 0.0, 0.0, 0.0, -7.668365248396503E-4, -0.0016372431277809157, -2.1059202614152976E-4, -1.809888080879827E-4, -8.324963414484166E-5, -3.872120004639545E-4, 1.6255318037822067E-4, -2.953377228245752E-4, -2.054213624760351E-4, -1.0169408295117783E-5, 8.529673779579808E-5, 2.4344290266485111E-4, -4.1429398267073334E-4, 5.020208724134976E-5, 1.883152487539928E-4, 1.1828212148468992E-4, 4.296130437953435E-4, 1.3241549739698754E-4, -3.906294448859806E-4, 7.854606375667106E-4, 5.931933710711857E-4, 2.0619949033600296E-4, 4.914028848477878E-4, -0.003072426852355059, 0.004256035620948681, 0.0, 0.0, 0.0, -0.0033444413816230765, 0.0017773758439599944, 3.3481704873842557E-4, 1.3144147389497422E-5, 3.9859793791205417E-4, 1.795896292561315E-4, -4.719697210902042E-5, -3.465994211383521E-5, -1.1370972556845064E-5, -4.375865329300607E-5, -1.4339310828187656E-4, -2.4362599468770856E-4, 5.482520014647329E-5, -1.956629203264195E-4, -3.829749643957449E-5, -2.7961985645146313E-4, -3.313746117105177E-4, 2.8650293762656054E-4, -1.0539534525988208E-4, -7.330058152882037E-4, -5.421799636726221E-6, 6.511163275894089E-4, -0.002235195716001278, 0.0010188174881037735, -8.185309564754068E-4, 0.0, 0.0, -0.060610820238495, 0.014657054718078698, -0.0021004344496887723, 1.644589528652982E-4, -3.070032578951602E-4, -4.318048299577107E-4, -3.9675228690506345E-4, -3.0320700412469716E-4, 7.748389418547293E-5, -4.226501347863398E-4, 2.9951364101493806E-5, -1.055861318679107E-4, -1.0809627223909736E-4, -4.0365537418152875E-4, 2.9695039658778245E-4, 1.2525255265934744E-4, -2.613695694047955E-4, 3.1018349814623147E-4, -9.242474376820289E-4, 3.427256440644456E-4, 7.557883666470435E-4, -0.0013345412577333506, 7.772955403029761E-4, 0.0018016954742450062, -3.124098266353736E-4, 0.0, 0.0, 0.0, 0.0, 0.0, 0.004820837343412398, -4.4121212440406964E-4, 5.368880485241374E-4, -7.576474556953786E-4, 2.3136020143588992E-4, 2.1421835752165485E-4, -2.67416182289533E-4, 1.4364607171059342E-4, -7.980538308668934E-5, -1.0359038745511117E-4, 8.444065019193099E-5, -1.3269141938221788E-4, -1.0724271780735942E-4, -3.1211044456800214E-4, 0.001005081285881737, -2.148176827502409E-4, 8.183550083379096E-4, 2.886730399345418E-4, -0.0012558271341317144, 0.00496020079929369, -0.0063843682952584675, -0.0025118623646732795, -0.18457861126546912, 0.0, 0.0, 0.0, 0.0, 0.0, 0.0018423826535058643, -4.40792945231047E-4, 2.283109665526703E-4, 2.850079413777537E-4, -6.31892162803312E-4, -5.826819369531422E-4, 4.380396343578722E-4, -8.448825111324767E-4, -2.0509605982684152E-4, -6.617858608495515E-4, -2.3346010084100984E-4, -0.0011385418772091127, -2.4195340791239206E-4, -9.595987962329737E-4, -0.0018129591088810386, -5.699434168493589E-4, -0.002045935439733695, -2.3018733540009016E-4, -0.0012755653630894732, -0.003998370821616718, 6.235265904011775E-4, 0.006936015623562079, 0.0, 0.0, 0.0, 0.0, 0.0, 0.0, 0.0, 3.007001699370369E-4, -7.508458704513671E-4, 3.717213426611101E-4, -6.373916038377068E-4, -3.9856896435125236E-4, -0.0012799818387686961, 2.196375105260707E-4, -0.0012711500074442075, 1.9226674238256728E-4, -0.001198318383082201, 3.8312769009845307E-5, -0.001039692819063176, 6.357415248741606E-6, -5.047503450632876E-4, -0.0011479358660730818, -1.1640147954360002E-4, -1.6721830486660734E-4, -0.0015659743860915718, 0.006076267801360188, -0.006537303946292561, 0.028475441814694264, 0.0, 0.0, 0.0, 0.0, 0.0, 0.0, 0.0, 0.0, 0.0, 0.024048598588952624, 4.482924162999885E-5, -7.347738399897635E-4, -3.145260942626331E-4, -2.1909601781374677E-4, 3.002584744281595E-4, -0.0012934200015561166, 0.0011962315371566413, -0.0012100666420527633, 5.653360274005543E-4, 3.8249144034895765E-4, 2.176926261602003E-4, 0.0011738506373701544, -0.004636034082630933, 0.00615981113125977, -0.05426819564499067, 0.0, 0.0, 0.0, 0.0, 0.0, 0.0, 
0.0, 0.0, 0.0, 0.0, 0.0, 0.0, 0.0, 0.0, 0.0, 0.0, 0.0, 0.0, 0.0, 0.0, 0.0, 0.0, 0.0, 0.0, 0.0, 0.0, 0.0, 0.0, 0.0, 0.0, 0.0, 0.0, 0.0, 0.0, 0.0, 0.0, 0.0, 0.0, 0.0, -0.0020708833061202974, 0.03752600296444087, -8.701741375335858E-4, -0.06953937860507875, 0.05701729050939233, -0.005668080735856241, -2.4045059973392476E-4, -4.84857007747885E-4, -0.0014396938520532835, 0.0012185205498709167, -0.0019584381597735788, 0.0015376883997535757, -0.1453906306782348, 0.047415496854170805, 0.03393712667843927, 0.004778036278583296, 0.0, 0.0, 0.0, 0.0, 0.0, 0.0, 0.0, 0.0, 0.0, 0.0, 0.0, 0.0, -0.0015395585062865913, 0.0013378227626832954, -0.002155272852969461, 0.001158543260032957, -3.949001944756162E-4, 7.619736889194943E-4, -0.0010145820357580148, 2.9040191655761645E-4, -5.986490821938723E-4, -2.3949115420675467E-4, 4.923121090136722E-4, -6.380304927562333E-4, 2.4102920406068856E-5, 1.5297732182705112E-4, -7.364416492242072E-4, 0.0018411809380648719, -0.0023957614685690184, 7.677551180863882E-4, 6.59598351630179E-4, -0.003686015046702658, 0.0, 0.0, 0.0, 0.0, 0.0, 0.0, 0.0, 0.004124662675055641, 0.00173464649290271, -0.0013010928334350614, 0.0013067356990735628, 8.812944274773796E-4, -5.689815357463381E-4, 3.035457393789813E-4, 5.169644647974088E-4, 1.661303237961147E-4, -4.468289828685391E-5, -1.7851251051461854E-4, 3.4250956938726248E-6, 1.2683839952455387E-4, -5.833825726148106E-4, 7.414729736814213E-5, -2.9059915271824506E-4, -0.0010073226539676812, -1.8177544834760295E-4, -1.9662044511242223E-4, -7.763289534269389E-4, -0.0017892868996433032, 7.323297448680266E-4, 0.0, 0.0, 0.0, 0.0, 0.0, 0.009596338655454641, -0.00475023186768419, 5.058514496428437E-5, -5.335765489346063E-4, 4.115989435398517E-4, -8.607809321428033E-4, 5.200015390632052E-4, -8.553659168713815E-4, 2.2755519924776805E-4, -2.6578665928141565E-4, -5.558566285924E-5, 5.674543730931818E-6, -2.731370128654543E-4, 2.2508377189463435E-5, 2.0949587777386894E-5, -4.461989196663057E-4, -9.404159647620915E-5, 2.0034492969758918E-4, -9.601980452210898E-5, 1.8274340771739696E-5, -3.2020291779196093E-4, -0.0010088420549025385, 5.058752265332192E-4, -0.0013468998860306787, 0.0, 0.0, 0.012917905669016135, 0.04211842281942081, -0.012030613225188344, 0.0012904885300650997, -4.901134830219004E-4, 9.796052888427025E-4, -0.0011365731109854035, 9.974848117929858E-4, 6.92219884874575E-4, -3.409048361677896E-4, -3.410690083555255E-4, 2.3721793602965354E-4, -6.218191241316551E-4, 5.527883020155927E-5, 5.742858133109742E-5, -1.5025399374775998E-4, 8.469739560761997E-5, 9.161697116812813E-5, 3.620921004355256E-4, -2.446081601703325E-4, 3.085967743711214E-4, 5.454451701221302E-5, 0.0013370998393284412, 1.5338844225938047E-4, -1.2555725884135288E-4, -0.003197612362750459, 0.0, 0.0, 0.0, 0.028822957361778596, 0.0011976138312481904, -0.001413922446288008, -5.293940154903067E-4, -7.088361274653586E-4, 4.885331815155801E-4, -0.0011581626519296339, 3.7176828830772787E-4, 8.321491501625173E-5, 2.0056507362716064E-4, 3.431392505851563E-5, -2.2973987800198542E-4, -3.4927992687590196E-5, -4.856305215594668E-5, 7.408112914606369E-6, 3.706121264976714E-5, -9.921212162736856E-5, 1.6903425558309907E-4, 3.384283131287425E-5, 5.465653921936792E-4, 5.798407227642229E-4, 3.2606400458673305E-4, 3.216768389014089E-4, -0.0010200986356335559, 0.0031860030743695316, 0.002303550531984378, 0.0, 1.8543219346100012E-4, -6.437551913794473E-5, -1.0160390099467443E-4, 7.424453513919785E-5, 3.8009114993239494E-5, -2.2140341834156447E-4, 4.94465540353503E-4, -4.306431144384362E-5, 1.4627159339498873E-4, -8.026695547304165E-5, 2.8659483977087587E-4, 1.4087214770355374E-4, 1.9662766095441373E-4, -2.2714912079266667E-4, -9.883187924382562E-5, -5.823678813427275E-5, -6.920168408837909E-5, 3.2671439418973985E-5, -1.202351603125982E-4, 2.006126882195733E-4, -4.8163574343978077E-4, 2.6276143409939306E-5, -2.0928332456285039E-4, 0.0016789027975162624, 0.001337553043961453, -0.00333852416148722, -0.011189858728995831, 0.0, 9.880642585496254E-4, 3.470953248895341E-5, -4.7840835937882454E-4, -4.158880995518653E-4, 5.118625039955278E-4, 2.9390108353172722E-5, -1.45238344579383E-4, 8.266329289424703E-5, 1.5375053354975066E-4, -2.985067955672992E-4, -1.8588830936700512E-4, -2.158599775797386E-4, -7.267064664607342E-5, 1.977713086222486E-4, -2.0702892368060574E-4, 1.2921311978747758E-4, 2.1331665299812442E-4, 8.882788848414826E-5, 3.506576048370351E-5, 6.103058079144753E-5, 1.9934448265074102E-4, -2.1728262243332977E-4, 3.9901412216654484E-4, 0.0011071277155622937, -9.862076694261476E-4, 0.004400155402454268, 2.8865837649836673E-4, 0.0, -3.2118482357497994E-4, 2.5363800147094065E-4, -1.000812537502038E-4, 3.8510433296410815E-4, 1.3024004449838447E-4, -5.467710542686106E-4, 4.86502940398033E-4, -1.4471371756075136E-4, 3.678699759171287E-5, 4.059652611309707E-4, 4.305332302075327E-4, 2.968543578425086E-5, 8.479349508482702E-5, -3.211842172105512E-4, 7.408742352719716E-5, -1.143707192531948E-4, -3.548123671924689E-4, -6.763787974602813E-5, -1.8107331601816915E-4, -1.7841320217128624E-4, 2.4294047878861292E-4, 2.828212546558167E-4, -9.562260266118735E-5, 2.0715372910385093E-4, 0.004247333612917943, -0.0027895140200547386, -0.0062224262881935945, 0.0, 0.0044070014991286766, -0.0014420990977187292, 6.434068605688444E-4, -0.001070961091224271, 8.530612405447105E-5, 2.0264982609341842E-4, -1.5750152131378407E-4, 1.1048987676308925E-5, 1.1904314801750814E-4, 6.193208286231848E-5, -4.133647696570675E-4, 3.00969405265803E-4, 1.0749428736223404E-4, -1.0715023306054202E-4, -1.539502340366269E-4, -1.9609899159299724E-4, -3.1057335451472787E-4, -7.443848394457333E-5, -7.658094346279941E-5, -1.3926876122906325E-4, -3.170150593578378E-4, -5.59133142174545E-4, -5.167896375327546E-4, 0.0012328782092958857, 6.67192416230908E-4, 6.524060017507642E-4, 0.005536694318853366, 0.0, -5.352614743667572E-4, 0.0033122860402992624, -0.002694833154210647, 0.002224223809928038, -4.656604888067385E-4, 6.040328980795654E-5, 1.0292558170881542E-4, 2.465437943721824E-4, 2.3374031445219464E-4, -1.0824800740320135E-4, 4.143447851589583E-4, -2.5765208609168145E-4, 4.8041477994025986E-4, -6.394785299860363E-4, -2.9915699816711285E-5, 5.6795979991086254E-5, -1.0682746073063013E-4, -2.9727879003574884E-4, -2.991978005637022E-4, -1.623247618399237E-4, -3.299935670279519E-4, -6.017918479228695E-4, 2.812413378393013E-4, -0.0016055998538545449, 0.0022899489499457336, 7.092049851703878E-4, -0.007740836057734088, 0.0, -0.0029485127398612256, -0.0031478933994199426, 0.0019167054507160269, -0.001190586701474072, 0.001159404855388803, -4.387777130058245E-4, 1.8516909571512504E-4, -2.681548420758894E-4, 2.1861876718913636E-5, 4.970703018627344E-5, 1.3839258588764966E-4, 3.5092278398662E-4, 2.0957306200425886E-4, 1.4889102498595797E-4, -4.2468120135361737E-4, -2.1821168431493155E-4, -3.3314074949427583E-4, -3.1781142539832863E-4, -1.1274381056566605E-4, -2.852908151517607E-4, -9.839699296447152E-5, -2.3599815723352108E-4, -0.001518096227780565, -4.008349278635952E-4, -0.002062595248363081, 0.01692645158884461, 0.0, 0.0, 2.134945770088262E-4, 0.0021609029871382398, -0.0012965503128647936, -7.223737295890232E-4, 1.5757031294172968E-4, 2.3577361398355553E-4, 4.278355637269883E-4, 1.5941621286781287E-4, -6.188222797699006E-5, 2.465538792375807E-4, -9.439751690952874E-5, 3.304791860011379E-5, -1.2868604604395804E-4, -3.903988916392598E-4, 3.7956973048100594E-4, 5.173366781894287E-4, 9.849697230214654E-6, 2.4282667340364138E-4, 5.47332300350696E-4, -1.0613613612955778E-4, 4.2233545838767816E-4, 1.075181687359872E-4, 7.412188993555876E-4, -5.075115352209568E-4, 0.002279962744253027, -0.010374831704749617, 0.0, 0.0, 0.0, -0.00478047338061481, 0.0016899173090405082, 2.3577187019186598E-4, -9.888655376561314E-4, 8.093373549304049E-5, -2.820559858865398E-4, 1.0329094384450011E-4, -1.0109133347173618E-4, 1.6415168786380386E-4, -3.619819611630692E-4, 5.378748685539436E-4, 3.1710361242499386E-4, -4.6491537876751593E-4, -2.324356160345698E-4, -3.688241322501141E-4, -2.067735130938172E-4, -5.489362817703228E-4, -3.866837672279539E-4, 1.5339162977826492E-4, -0.0012788886215111884, -3.4809725406383964E-4, -0.001076448381780697, 0.0019178568646531467, -0.00134210600753311, 0.002716566928984084, 0.0, 0.0, 0.0, 0.0019215993364036519, -0.002368555102423334, 6.841197304939614E-4, 1.1888597021274601E-5, -1.930978023606281E-4, -6.217730547738409E-4, -2.2086282630442967E-4, 3.066368245478794E-5, -2.1834320116738282E-4, 2.1327391485448105E-5, -6.012632430033243E-5, -3.2292492276256415E-4, -2.0960237720752222E-4, 4.483777162514952E-5, 1.721745072739744E-4, -4.334995904561007E-4, 3.6116480992753295E-4, -5.41163472374459E-5, 6.839215601032393E-5, 6.258199912547014E-4, -4.896066581862336E-5, 9.58376964399423E-4, -6.734360006877752E-4, 0.0010720810090679802, -0.009267712433782252, -0.031595349374271005, 0.0, -0.0032135792028402605, -4.1750812583551993E-4, 0.0024034207829184387, 3.918375562802758E-4, 1.0123200895121345E-4, 1.3009312001256711E-5, 5.910142607897325E-4, -1.1755969596924223E-4, 3.0437921856947954E-4, 6.53215930957621E-5, -3.564212276618818E-4, 2.739845658603088E-4, -1.8587121025538957E-4, 1.8117033459973735E-4, -1.0320519927069945E-4, -2.8965413816192496E-4, 3.307734122349414E-4, 1.5808118217662287E-4, -1.7379063331009133E-4, -3.1578593557592577E-4, 6.91260175567315E-5, 1.641435427089965E-4, -6.827095801335566E-4, 1.0388426223289046E-4, -6.141454392588239E-4, 0.012370918570655455, 0.06417647863049651, 0.0, 0.0, 0.003735015888944736, -0.0027247496774612874, -2.1559016052880597E-5, -2.681699834059534E-4, -3.8782395300322975E-4, -6.203922170297278E-4, 9.302680649509725E-7, -5.040586305474433E-4, 1.6590946711905642E-5, -2.932215181642764E-4, -8.031787065140333E-6, -3.112740339366222E-4, -2.1953950465330662E-4, -4.316987614966344E-4, -8.414986820651505E-5, -3.863711819313758E-4, -3.894379772870966E-5, 2.5455878060733447E-4, -7.178426777914105E-5, -3.0560174821495046E-4, -4.2351833420230664E-5, -2.046397805013386E-4, 3.8033079489687343E-4, -9.089311232669241E-5, -0.00987934297219361, -0.07079442701437676, 0.0, -0.14287170913754466, -0.002609818364418202, 9.127952114774245E-4, -2.305140386114238E-4, -3.581312652747518E-4, 9.568527972548947E-4, 1.288202085029564E-4, 1.3697806145350163E-4, -5.201146272235734E-5, -3.3100008582331457E-4, 9.123115748778988E-5, -2.3072096814148862E-4, 1.575848243176613E-4, -7.185987089268564E-6, 4.0157290859559313E-4, 8.090780067870727E-5, 5.130562591132354E-4, 3.1977913929002327E-4, -1.0120752193410587E-4, 4.4794900392013744E-4, 4.24601275112377E-5, 3.965701708080506E-4, 3.905970289998272E-4, -0.0010613737422700597, 4.959728761453362E-4, 0.0032936847979665737, 0.0, 0.0, 0.07514658688404241, -0.003678377289914125, 0.0011847443884410592, 1.9957980148283281E-4, 8.618978277410927E-4, -8.177708022746434E-4, 4.579560993384167E-4, -4.000936113617618E-4, 2.732345923097214E-4, -2.9356687360780634E-5, -2.1997646607388674E-4, 1.024564228528803E-4, -2.3699442662638627E-4, -5.382142706587195E-5, -1.165398040044038E-4, -2.9468245553371724E-4, -4.2795831674146626E-4, -5.308081612765635E-4, -1.4374689877181347E-4, 2.0092854178058696E-4, -4.0290957038413637E-4, -2.4629408257157326E-4, 5.581666064676891E-4, -2.2740260170163082E-4, 1.7147298525375642E-4, -0.003389903755908127, 0.0, 0.0, 0.007783331486472551, 0.004280477377533119, -8.470314644132E-4, 8.662064875029672E-5, -5.874956088540612E-4, 5.360459456166825E-4, -2.2893593344890304E-4, 3.7527149885765906E-4, 2.0008550050574952E-4, 2.1145731482508188E-4, 2.099834727687646E-4, -2.489337783234852E-4, 3.0593040876792467E-4, -2.840538427806618E-4, 1.6825915079716816E-4, 3.3737823602556947E-4, 2.7664892593424176E-5, 4.8343598988869504E-4, 4.3893022148533027E-4, -5.198533174709666E-5, 3.786587405957052E-4, -3.5247345151898194E-4, -4.0385354017818324E-4, -1.1838714846582353E-4, 0.0010339300982606455, -7.474427797596628E-4, 0.0, 0.0, 0.0, -0.0019409380287111549, -6.470875710237812E-5, -6.920941598215945E-4, 0.0010472096644768873, -3.6440548044084796E-4, 8.43614815217678E-5, 1.0135822296196058E-4, -2.2567389001526555E-4, -1.1602056051213938E-4, -3.997109764315758E-4, 3.308358552712919E-4, -2.6829252540975655E-4, 1.4063109366884307E-5, -5.332696512009853E-4, -1.0237740728204203E-4, 1.0353539428132481E-4, -6.438300264141878E-4, -1.3086753014454215E-4, -9.822828100753246E-5, 4.8356319602451124E-4, 2.3738426765911779E-4, 6.312309553669964E-4, -1.9938469134112013E-4, -0.0024782291600728206, 0.002630426517101731, 0.0, 0.0, 0.0, 0.003646231438401955, 9.956849126183177E-4, -5.598406677372596E-4, 3.557304709009091E-4, -4.0647137217810755E-4, 1.8088189908082377E-4, -7.009627389817385E-5, 1.7634230042587332E-4, -1.3043961598278145E-5, 3.854807474439426E-4, -2.5354764040020695E-4, -4.4058431165923776E-5, -1.6049906450455923E-5, 1.6779890637033125E-4, -2.777126198809041E-4, 1.9827438402065942E-4, 4.727500801394141E-4, 2.11982249813013E-4, 5.535920584920232E-4, -9.382568447441936E-4, 4.082603682920299E-4, -5.837404522133735E-4, 9.754291716391119E-4, 9.426211140090916E-4, 0.001694167612360503, 0.0, 0.0, 0.03253422001985534, -0.009344516775650997, -0.0019837640193842462, 4.8528671697369854E-4, 7.157240614331474E-4, -6.924424387209931E-4, -1.6741300318523017E-4, 1.7870230589601098E-4, -9.880916367358563E-5, -1.2700951801547722E-4, -4.212671801726969E-4, 1.5802260032005613E-4, -1.3085920716080144E-4, 2.3034804962196163E-5, -6.016774182874164E-5, 4.662506075075052E-5, -5.44300109148076E-4, -1.5968431148844533E-4, 5.3121226109259105E-5, -5.194989629035938E-4, 0.0017694144440784272, -7.036091353432221E-4, -0.001070068684351319, 0.0012381208051916157, -0.00476105984265075, 0.0, 0.0, 0.0, 0.0, 0.0, 4.2317280145965687E-4, 0.0013483711509465353, -0.0014188557244797044, 3.6135445985126735E-4, -2.03878669471653E-4, -8.53631757709356E-5, 4.9746628059012385E-5, -3.866171819215858E-5, -1.2928860707265357E-4, 7.661854403119549E-5, -1.724503586867835E-5, -1.4157044699382213E-4, 7.119778956390947E-5, 1.9757893491482323E-5, -1.56021424254696E-4, 4.7041206906116114E-5, -5.412617298610629E-4, -7.963788478763245E-4, 7.01576579374428E-5, -5.318589678085478E-5, 0.0019934917547866846, 3.087934588034805E-4, 0.05215410934980056, 0.0, 0.0, 0.0, 0.0, 0.0, -0.0013411895288325882, 4.8581209699751133E-4, -5.608349848617902E-4, 0.0010118758834344805, -5.71252876286335E-4, 4.530275857373772E-4, 2.0302468067470925E-4, 3.0125046916647377E-4, 6.320691959173822E-6, 2.1101901412872866E-4, 4.3551345817574084E-5, -1.0231987537225151E-4, -3.830934233907763E-4, -1.5873528152007712E-4, 6.214597939834309E-5, -1.5979005482267509E-4, 2.8574326993582345E-4, -1.6445620817295327E-5, -1.0735669725723861E-4, 7.776654832223948E-4, 5.520081046892426E-4, -0.004030039046325597, 0.0, 0.0, 0.0, 0.0, 0.0, 0.0, 0.0, 0.027237135752264968, 0.0023804602431295326, -0.002113201261182368, 2.4987915300775304E-5, -2.568343430440334E-4, -4.5871682683650786E-4, -3.487264450655212E-4, -3.2779668002473806E-4, -1.7312542952134928E-4, -2.503730776704935E-4, -2.052432686821337E-4, -3.1732751242299846E-4, -1.6864622288733096E-4, -2.4377180746999792E-4, -5.252006066100834E-4, -8.12605516481506E-4, 8.923472220972677E-4, -0.002625229166038388, 0.0010780273332133754, 0.0029932673779178303, -0.016652280284484754, 0.0, 0.0, 0.0, 0.0, 0.0, 0.0, 0.0, 0.0, 0.0, -0.016999343776177983, 8.65998817087175E-4, -0.0016261318225322392, 3.192425213060756E-4, -0.0014823774426740014, 4.7814348491861535E-4, -6.409734282486342E-4, 0.0012072375465167486, -6.31275641563197E-4, -8.286457896510422E-4, 7.41073168249183E-4, -0.002129013380842727, 0.0020075791674078742, -0.001522662552697389, -0.0036110136758243302, -0.03080406040031383, 0.0, 0.0, 0.0, 0.0, 0.0, 0.0, 
