0.0, 0.0, 0.0, 0.0, 0.0, 0.0, 0.0, 0.0, 0.0, 0.0, 0.0, 0.0, 0.0, 0.0, 0.0, 0.0, 0.0, 0.0, 0.0, 0.0, 0.0, 0.0, 0.0, 0.0, 0.0, 0.0, 0.0, 0.0, 0.0, 0.0, 0.0, 0.0, 0.0, 0.004440144246143143, -0.02500709475529464, 0.014346055326585134, 0.029971870499916304, -0.022353006495059117, 8.461456134922343E-4, 2.3537601974372112E-4, 1.7487382331063026E-4, -4.05273876875807E-4, -1.7265696216147775E-4, 4.556402823838958E-4, 8.45252843564208E-4, -0.021339050294301002, 0.007937774279498079, 0.0038373877313861993, 5.635585919613534E-4, 0.0, 0.0, 0.0, 0.0, 0.0, 0.0, 0.0, 0.0, 0.0, 0.0, 0.0, 0.0, 0.0029130673597466366, -0.001279502716746797, 2.790394917037123E-4, -5.267031968377242E-4, -3.227973494746708E-5, 8.299662583376825E-4, -6.855914000501427E-4, 5.658322115850989E-5, 2.9605381025959223E-4, -3.31485119524179E-4, -1.7421059113105676E-4, -2.2308479465038917E-5, -3.815805603032754E-4, 6.297899882716311E-6, 1.8291712041783935E-4, -3.038418309573085E-4, -5.495897664306122E-4, 7.451250750307077E-4, -0.0012431078214776366, -3.4457622972064846E-4, 0.0, 0.0, 0.0, 0.0, 0.0, 0.0, 0.0, -0.004689838928453126, -8.400094595418217E-4, 4.969321661633162E-4, -8.662452216348541E-4, -4.48580084976846E-5, 1.6574821991888327E-4, -2.955974038416411E-4, 3.951106887938102E-4, -2.15364912523297E-4, -1.8864193727234917E-4, 1.352013128374056E-4, -1.3906698952869943E-4, -1.5879747107955574E-5, -2.61794250491626E-5, -2.0931114322786184E-4, -1.9202985054109751E-4, -2.1045893767323128E-4, -8.088719878550928E-5, 9.369561377720085E-5, -4.1725009690710976E-4, -3.844801891985211E-4, -0.0032657270523863855, 0.0, 0.0, 0.0, 0.0, 0.0, 0.0072032333147025954, -0.0016596173287453263, 7.318565891841966E-4, 6.488989962642381E-4, 1.6089103414694165E-4, -2.0286501944377452E-4, -3.950355591549282E-4, 2.185544780865773E-4, -2.0351457642182755E-4, 2.9112938468998776E-5, 8.825561906532854E-5, -1.0469576565356698E-4, 2.0498788584299073E-5, 6.857125617280156E-5, -1.1125459164942471E-4, 1.1600677685416673E-4, 1.1827500029942699E-4, -4.436188140627039E-5, -1.406963467111288E-4, 3.625674358467882E-4, -1.334669992040791E-4, -9.703255142654405E-5, -3.663550009273443E-5, -3.1892552323278084E-6, 0.0, 0.0, -9.4639664035407E-4, -0.005975740231744162, -0.0029002347185324165, 3.015724401420036E-4, -6.562716320279724E-4, -1.2018849341001672E-4, -2.8707834285609023E-5, 4.991521787997274E-5, -5.533145831620411E-5, -2.0318213711452204E-4, 2.1519168652864396E-4, -1.4281820330656254E-4, 1.688442566875104E-4, 4.6852655702035614E-5, -1.6270363317908755E-6, 1.5093549803155964E-5, 8.499195606172501E-6, 7.484438776445426E-5, -2.1193800113082178E-4, 1.9484553262926371E-4, -1.6752155820302293E-4, 1.1162118106318665E-6, -2.884952859204772E-4, 2.5927908485116607E-5, 7.657068210446454E-5, 2.0223062117304515E-4, 0.0, 0.0, 0.0, 0.0061110860305322295, 4.0311622233053074E-4, 4.325808787571948E-4, 1.562265555776759E-4, -8.014522227117723E-5, -9.923795478482595E-5, 6.543056640095235E-5, -1.0253145452345455E-5, -1.6115217571887054E-4, 6.2872816112926E-5, -8.447888648590499E-5, 6.166451169476043E-5, 3.2190159277670306E-5, -1.6474346642517474E-5, 2.096567158039271E-6, 7.396375167702195E-6, -5.9360557100306995E-5, -1.4329716770389017E-5, -5.430558413334886E-5, -8.526652068755155E-5, 1.3811205160316854E-4, -2.9610614887732206E-4, -2.2776536340826285E-5, -1.9944826419145373E-4, -7.828769158312623E-5, -8.209429284521648E-4, 0.0, 0.0010827235416702554, 6.596806606240471E-4, -1.1172961241785019E-5, -2.6032916911679355E-4, 7.261230418771559E-5, -7.286349623091065E-5, 8.578325797441872E-5, -3.917748206115289E-5, -1.0228648740206061E-4, 7.009793598473867E-5, -1.4821214210358106E-5, -3.816327839912636E-6, -6.686346996227286E-5, 8.902098140709052E-5, 1.4117458401471125E-4, -8.819971431643466E-6, -2.326349272738478E-5, 2.0155770241309323E-4, 1.0905629394657238E-5, 5.541909290649099E-5, 1.7551068130000066E-4, -1.0162275017006837E-4, 2.3927868229971428E-5, -8.296112254974663E-5, -2.271670615964248E-4, 2.726790839283552E-4, 0.0011791259000099074, 0.0, -7.738711050806052E-4, -1.8483264927239568E-4, -8.48962249948294E-5, 1.2682593159338637E-4, -9.596923393997743E-5, 2.315129647617227E-6, -1.107767008070993E-4, -1.6993832137523498E-5, 8.218047070762029E-5, -1.7470296268182494E-6, 5.7384117049419505E-5, 3.684818966526333E-5, 1.9059246818184714E-5, 4.744258657143761E-5, -5.732515319539748E-5, 1.4545525275937103E-4, 4.4577452792822E-6, -4.9520481040761424E-5, -7.398965035589763E-5, 1.5588283061437186E-6, -2.6160908793299427E-4, 2.1734754862465827E-4, -8.47969390306294E-5, -4.087847369134366E-4, 2.0652469651747404E-4, -9.53222955006809E-4, -6.587577247721398E-4, 0.0, -1.4633752074100554E-4, 5.473420178687488E-6, 1.8977897800528566E-4, -1.8387355235191684E-4, 1.572723156847983E-4, -5.7013506699870306E-5, 1.0841587367501813E-4, -7.64908997548406E-5, -7.399517405858572E-7, -3.5754118138650084E-5, -3.5912270597688185E-7, 7.73096693830514E-6, -7.21743518980931E-6, 5.0153705312982687E-5, 7.189573629015339E-5, 6.953863682717152E-5, 4.771085910198966E-6, 1.7704307963612413E-4, 1.374362507914229E-4, 1.3234994322160494E-4, 1.6180830116781686E-4, -1.337843988617853E-4, 1.0204825228540571E-4, -1.1786965761723651E-4, -2.678542338687438E-4, 4.7625624156235783E-4, -1.1405944166883631E-4, 0.0, 1.1851420028516521E-4, 3.8517319594084075E-4, 7.232363477546656E-5, -2.6777748237412255E-4, -3.938760583954514E-5, 1.7327669344503142E-4, -2.1294957220994523E-6, 6.355825638972522E-5, -2.885643543728204E-5, 6.573334994613526E-6, -1.0607874224295196E-5, 6.787354033141158E-5, 1.7833250261446447E-5, -3.638663997965935E-5, 3.857725525060304E-5, 5.630131874784237E-6, 8.012874228627626E-5, -3.437801937204948E-5, -6.0716151566213945E-5, 4.849801921597555E-5, -1.9362507640034236E-4, 3.818363065360595E-4, -2.9628159330846376E-5, -3.617180121188769E-4, -5.078152309387838E-4, -7.117827472036339E-5, -2.2653011764039158E-4, 0.0, 7.42746086177138E-4, 4.802880925856632E-4, -2.7218213165281435E-4, 1.3027533981271598E-4, -1.465632169334619E-4, -3.1300795327552126E-4, 4.989283375490791E-5, -1.6371542236662273E-4, 4.0757718565810515E-5, 8.919225117762027E-5, -6.056736280191121E-5, 6.667968389758853E-5, 3.294037200195051E-5, 2.2255458478966702E-5, -7.170595032654492E-5, -6.785138488341898E-5, -2.6575231494496762E-6, 1.7488866985484506E-4, 6.298332900803225E-5, 1.605161127560784E-4, 1.3173018766984162E-4, 1.1884975927821386E-4, 2.3446132996570032E-4, 3.090783073507495E-4, -5.200084876568755E-4, -1.6090166348572797E-4, 0.0010957604296338759, 0.0, -0.0012538352306201515, -5.429345895044935E-4, 1.294572845893179E-4, -1.4683017596413525E-4, 2.0308249488222715E-4, 4.00687928253146E-4, -2.152182374515859E-4, 2.641965790613725E-4, 3.707291638299372E-5, -1.1193927176269648E-4, 4.733676384014382E-5, -4.90697321397975E-5, -1.3871200015666584E-4, -1.0480965482283088E-4, 3.9807546605783944E-5, -1.1510520632571628E-4, -7.27254067235528E-5, -7.707515850633072E-5, -8.346655572402218E-5, -6.467787225885619E-5, 5.059754760015844E-5, -5.7046484087393986E-5, 2.0315031280124037E-4, 5.896737930304484E-4, 4.6477414789510533E-4, -0.002686104899240397, 0.0, 0.0, 6.2839687419951E-4, 0.0015939189641818864, -8.492504250683505E-4, 1.4662614701418559E-5, -3.108868236237397E-4, 7.438736244599789E-5, -1.0306156643490103E-4, -8.324457200868296E-5, 9.823893230186794E-6, 6.41851932522297E-5, -4.456850385144853E-5, 3.4688446338528806E-6, -5.7779122212733745E-5, 2.47034262267462E-5, -7.901844261292246E-5, 9.71786624995223E-6, -1.5822331663779105E-4, -8.605776221385724E-7, -1.2244230426412331E-4, 7.992361973811011E-5, -1.6347440823238443E-4, 2.704138961662967E-4, -4.313306651718482E-5, -1.4911833748015234E-4, -2.995842024584578E-4, 8.292014632305633E-4, 0.0, 0.0, 0.0, -7.174213782621956E-4, 2.7879549870146904E-4, 6.86641656807116E-4, 1.106410771961545E-4, -9.689625878518516E-5, 8.576855690247743E-5, 6.376331840187212E-5, 1.575745002843743E-4, 3.969783815401488E-5, 1.114257969118997E-4, -1.5446782944078725E-4, -8.640275028460962E-5, -1.2961275602935073E-4, -3.2246945514850574E-5, -1.259284709134604E-4, 3.750071440486461E-5, -1.6049229320092286E-4, 4.021546263018198E-5, 6.110600958678542E-6, 3.473956054685005E-4, 1.223502212072187E-5, 3.6849100909215333E-4, -3.806404074736192E-4, -8.854222889910952E-4, 0.001381986626458536, 0.0, 0.0, 0.0, 2.530118554066668E-4, 1.54762606482851E-5, -6.073030239610789E-4, 1.9089101455150982E-4, 1.0309772913298688E-4, 4.483781078373499E-5, 5.652956638252238E-5, -1.6053819929104318E-5, 7.751663504123076E-5, -1.7909023701509557E-5, -9.329036148055833E-5, 8.376870238119112E-6, 4.5025186271878276E-5, -4.090291598842439E-5, -2.5131770715582582E-5, -1.0441489477644164E-4, -8.924381985499752E-5, 1.4494097388670925E-5, 4.489307836066333E-5, -1.7028456363183043E-4, 2.1153381511052868E-4, -4.2281529933304524E-5, 1.7134394472873168E-4, 5.997859193744929E-4, -0.0012475301319481663, -0.051477154034370656, 0.0, 0.007361342213754503, -0.0015426919298114998, -5.817337125378589E-4, -1.312081385319682E-4, -1.3805965773080512E-5, -1.0438280446014374E-4, 4.929208648920008E-5, 1.0609189029474603E-4, -3.935286799379989E-5, 1.4069531985635246E-4, -3.172143327595362E-5, -1.9802683591839588E-4, 1.8846336715654283E-5, -1.4332390736970405E-4, -5.05582219699821E-5, -1.407223224372422E-4, -4.152182733549671E-5, -1.1627678074268288E-4, 7.175482586640055E-5, 8.309984680814337E-5, 4.761504059671765E-5, -2.8139406719454124E-4, -1.5826350517589215E-4, 1.7760019523366274E-4, -2.098459886253808E-4, 0.0026102253490280837, 0.11519701761404272, 0.0, 0.0, 0.0026945278773272104, -4.194840225487966E-4, 2.671564802812414E-4, 2.779199554874248E-4, 2.4124656947361502E-4, -4.6259305721387664E-6, -4.425222193096938E-5, 1.855017936016845E-4, -1.083193259001863E-4, 1.1782304829687194E-4, -8.199668889217798E-5, -1.0514813738312781E-4, -3.075068043857243E-5, -4.578691693507215E-5, 1.0454554221802266E-4, 3.7249267190441467E-6, 1.228408098413775E-4, -4.2904453508099565E-5, 4.2448408763457176E-5, -6.718645308017885E-5, 1.6387171924581552E-4, 2.930311604963487E-4, -4.216892009441712E-4, 5.412560918884946E-4, -0.19632508465350423, 0.1400951242459027, 0.0, -0.18539489425035927, -0.0014366958347369033, -1.1928306908850018E-4, -2.1112292467823706E-4, -3.183619678601411E-4, -7.718470403834459E-5, 1.3907751467557097E-4, 3.536223549593619E-5, -1.242553248427225E-4, 8.068067554535104E-5, -5.86351535562566E-5, 3.525324626923121E-5, -3.0400217444076993E-5, -7.08161603964639E-5, 3.927790041255672E-5, -1.8620067168621565E-4, 3.095667847137273E-5, -7.363749800953564E-5, 7.393162666960329E-5, -1.7564427123779684E-4, 3.876879426568994E-5, -1.6649482322319333E-4, 1.79252670474528E-4, -3.4397245007917814E-4, 1.9412084460809849E-4, 0.08512491909537603, 0.0, 0.0, 0.08971659921442567, 9.462869295001662E-4, -2.3541153028417067E-4, 4.313410020096327E-4, 1.4587760200854692E-6, 1.1015331122100937E-4, 5.055194227445059E-5, 2.647639835896324E-5, 2.202556010274638E-4, -1.3085895673624467E-4, 1.0545434685763411E-4, 6.815177983669795E-5, 3.963459369641836E-5, 5.2800846210517256E-5, -8.200025600775093E-5, 1.295792435535537E-4, 1.3307387811197159E-5, 2.3715879623654337E-5, 2.0815038311810416E-5, 4.333104183662016E-5, 3.650461423053204E-5, -8.947991144624232E-5, -1.0345147137983765E-5, -1.2040753189007043E-4, 1.9310259067963954E-4, -0.05085633984354736, 0.0, 0.0, 0.014688317550389322, 1.7790640511958632E-4, -3.7841652356652495E-4, -1.9104922088620393E-4, 1.5018625919514263E-4, -1.196010095661817E-4, -8.967632791686117E-5, 2.6114035361668937E-5, -1.3742590442289012E-4, 1.4035619351479328E-4, -9.046503192468795E-5, 1.858688255734374E-4, -2.68978147299657E-5, 6.495421619901629E-5, 7.224996559661782E-5, -1.904144995441679E-4, 1.9620847432340513E-5, -5.5978507883037545E-5, -1.2193568041872659E-4, 2.0921658274576811E-4, -1.6009832475576228E-4, 1.7986925675958853E-4, -1.679579116861682E-4, 5.071588366749531E-4, -0.0010959509365762443, 0.009884751288804719, 0.0, 0.0, 0.0, -1.4578923099068256E-4, 4.895713911998948E-4, -2.5950680461100458E-5, -1.6102092414552944E-4, -4.148402094727465E-5, 8.030751803847644E-5, 7.383264494336646E-5, 1.5977555390424907E-4, 5.334995804673253E-6, 1.1345120129248546E-4, -1.5918041124447945E-4, 7.703373435993055E-5, 2.956543349486517E-5, 2.152658493501343E-6, 1.777391356697037E-4, -5.449098230669266E-5, 7.54725691804274E-5, 6.502453873988851E-5, -3.225143093741562E-4, 2.4176139056129815E-4, -4.270534634208421E-5, 6.150182158793854E-5, 2.543494636032998E-4, 9.596334583934826E-4, -0.0012992959036159935, 0.0, 0.0, 0.0, -0.0010960416622903231, 1.1182289539029664E-4, -4.686100658106657E-4, 1.9968323637851475E-4, 2.2065853050624743E-5, -2.1606976022712737E-5, -3.3450133174026514E-5, -1.010282169939218E-4, 7.542888979330754E-5, 4.950550690978976E-5, 7.586237479291013E-5, 6.418908094967343E-5, -2.452112265961368E-6, 4.2090913916693976E-5, 1.7580953728199976E-5, -5.1763605327819735E-5, -9.826747211648538E-5, -9.17995902379508E-6, 1.7010810257464447E-5, 2.288672316817699E-6, -1.4251494177094673E-5, -3.83277191367116E-4, -6.450095206515884E-5, -0.0017343407604560198, -4.5119978322935594E-4, 0.0, 0.0, -0.0052601545349301, 0.0017017493244507464, -5.951177836145534E-4, 5.423315031422967E-6, -1.1916506356344314E-4, 1.8840263060217655E-4, -1.0010497402224476E-6, 4.7350959562231416E-5, -2.8488306304498562E-5, 5.066635691503643E-5, 5.258025421705351E-5, 8.542295797036666E-5, 1.5017785133113092E-6, 1.354562867542986E-4, 8.453804672714107E-5, 8.900531083715141E-5, 1.748593480292444E-4, 1.3479353178394324E-5, -7.618521862837059E-5, 1.0970303072308539E-4, -4.0753721930725115E-4, 5.709387689746302E-4, 4.8124886933149545E-4, -6.702790633095391E-4, 0.0021136253458635267, 0.0, 0.0, 0.0, 0.0, 0.0, 1.4727997902013105E-4, 8.340416349602515E-5, 8.567557598417368E-5, -1.356829809743215E-4, 1.9829268945295423E-5, -1.3931127497974105E-4, 4.1293209571351584E-5, 6.700494853881428E-5, -1.6574267613144315E-4, 2.1038313664377133E-5, 3.483143150178002E-6, -8.701013482970156E-5, -6.375888300843998E-5, -5.1512190827452355E-5, 1.1508515379440135E-4, 3.6227117907405096E-5, 1.1008981863036954E-4, 3.4043916960238796E-4, 2.7065644460437787E-4, -3.642231808075666E-4, -5.961520068912047E-4, 2.308057550619574E-4, -0.008859702334198936, 0.0, 0.0, 0.0, 0.0, 0.0, 0.015518797623941856, -0.0010009360645977683, 3.175325487158522E-4, -4.1318525688598947E-4, 1.0563344591569484E-4, -6.368032512422026E-5, -1.0640247798948492E-4, -2.1954159774527398E-4, 2.264720197472334E-5, -1.3206842702723277E-4, -7.343593936183432E-5, 1.6527473066148276E-4, -1.0932171149476589E-4, 1.3702103592801385E-4, -2.4053955374912238E-4, 2.762940992661129E-4, -2.7796890651996615E-4, -1.563058532120573E-4, -2.4970749894703473E-4, -6.400803100010686E-4, 1.4282850437193114E-4, 0.0014021643929182067, 0.0, 0.0, 0.0, 0.0, 0.0, 0.0, 0.0, -0.005019664148554417, -4.026278078153727E-4, 1.310768011687704E-4, -2.4098512230380064E-4, -1.3654224304314994E-4, -6.878172611669176E-5, -1.2120194055801943E-4, 4.393311149834493E-6, -5.2060137285134933E-5, -2.0806820991067134E-4, -1.3274274135126283E-4, -1.953760438797162E-5, -9.087515749547026E-5, -1.4320062636296213E-4, 8.921227627682984E-6, 3.0291076833500156E-4, -2.663518668869899E-4, 6.960932901132467E-4, 6.989951671488793E-4, -0.001177809089565454, 0.0018035503436267758, 0.0, 0.0, 0.0, 0.0, 0.0, 0.0, 0.0, 0.0, 0.0, -0.016560695409268616, 0.0020213557106606417, -7.547264686991547E-4, 4.1358845434195566E-4, 2.8555150582748834E-4, -5.884206171053047E-4, -5.238240378740876E-4, 6.977933377724244E-4, -9.116586807228716E-4, 4.032581090029361E-4, -2.7049098698968114E-4, -4.755849700720981E-5, -1.8062389219964273E-4, -3.2309956627885484E-4, 0.0014696883389901613, -0.01674799321310243, 0.0, 0.0, 0.0, 0.0, 0.0, 0.0
0.0, 0.0, 0.0, 0.0, 0.0, 0.0, 0.0, 0.0, 0.0, 0.0, 0.0, 0.0, 0.0, 0.0, 0.0, 0.0, 0.0, 0.0, 0.0, 0.0, 0.0, 0.0, 0.0, 0.0, 0.0, 0.0, 0.0, 0.0, 0.0, 0.0, 0.0, 0.0, 0.0, 0.0066855748726110135, -0.021833069533837318, 0.012619698977621918, 0.03134826299071237, -0.027663126508531876, 0.0027635296307838, -3.3368958517947944E-4, -1.5928243976317567E-4, 1.2918813998805297E-4, -3.193139258329301E-4, 3.0563091276997596E-4, -0.001580748983347421, -0.056907790688565336, 0.019275861235624914, 0.0130893249769835, 0.0018896722793361662, 0.0, 0.0, 0.0, 0.0, 0.0, 0.0, 0.0, 0.0, 0.0, 0.0, 0.0, 0.0, -0.0015885848660156475, -9.464491458562947E-4, 6.836123142589036E-4, -5.364447802239994E-4, 5.231448040078671E-4, -5.309160909313258E-4, 3.1442833962768454E-4, -8.372724634593925E-5, 2.1001433061355548E-4, -1.7568689458832089E-4, -8.295539755589486E-5, 3.480058862855817E-5, -2.2076152491288563E-4, -2.5577988734875186E-5, -1.7512456662347275E-4, 4.386332876727225E-5, 7.387737279318769E-5, -3.812186291811871E-4, 4.387136125032951E-4, 0.005525953111141388, 0.0, 0.0, 0.0, 0.0, 0.0, 0.0, 0.0, -8.710917578733501E-4, -4.7517249536611705E-4, 1.5327089828181192E-4, 5.086456305546102E-5, -9.12386300643976E-5, 7.063105914741969E-5, -1.0841461218529299E-4, 2.090191698710424E-4, -4.202213805261036E-4, 2.0966843336703194E-5, 5.097975001717229E-5, -1.261102436421176E-4, -3.139633578698553E-5, 1.4522025798842682E-5, -2.0489948577290894E-4, 3.8922359811731446E-5, -4.106059999006154E-4, -2.0040011270938945E-4, 1.1943470711665732E-4, -1.7738772424523877E-4, 3.688863181502631E-4, 0.0017368700123099874, 0.0, 0.0, 0.0, 0.0, 0.0, 0.0017117323638394925, -5.812759702227088E-5, 4.230093674795045E-4, -2.863135271086588E-4, -8.194493317945945E-5, 1.0976659545461891E-4, -1.1633316031486811E-4, -6.499269466933446E-5, 4.652792145391322E-5, 1.2742431518979484E-4, -9.542032441443221E-5, 1.1580005823955861E-4, -8.404341667786372E-5, -6.13036487525035E-5, 1.4451321033852237E-4, 3.537000873610224E-5, 1.8638589857506053E-6, 2.4150345764047625E-4, -1.5068797569342356E-4, 3.4339832461009073E-4, -4.2371684917443534E-4, -3.4732398350935665E-5, -2.138694841603884E-4, 3.268580874246184E-4, 0.0, 0.0, 0.0074010724283112735, 0.0034560441365016304, -2.0792520948916806E-4, -1.4438391784990455E-4, -2.2988117867134915E-4, 2.4224972953544866E-5, 8.697516716895527E-5, -1.6040223714971528E-4, -1.5266055961888616E-4, -2.938103472386458E-5, -4.9125082276544174E-5, -7.091103429422774E-5, 1.234987449534167E-5, 3.093564687829272E-5, 7.882975393874944E-5, -6.190352763213156E-5, 1.3256579806564088E-5, 8.081251184535039E-5, -2.2934514956516022E-5, 1.3914303710736635E-4, -3.273212986047937E-4, 3.4301621263142627E-4, -1.1158879381963356E-4, 2.1216338652605635E-4, -1.1307214735074072E-4, 8.021624961627054E-5, 0.0, 0.0, 0.0, -0.014534722482798815, 3.472563078566101E-4, -1.6408290519821987E-4, 3.7578564314313197E-4, -2.2394063304860288E-4, 4.10465250665296E-6, -8.735969246865706E-5, -1.104040609458427E-4, -9.656664900847909E-5, -4.826457292658831E-5, -8.684194485496422E-5, 6.703738447864178E-5, -1.0700786718000421E-4, -7.397620645787145E-5, -5.548672688087358E-5, 3.56370717031691E-5, -1.7315094564168492E-4, 2.8810148948481804E-5, 9.520970196094998E-5, 8.251124323555936E-5, -5.715622005251325E-5, -2.7791288456404094E-4, -2.0165975345895553E-6, -9.831495408192159E-5, -1.2859773175472383E-4, 4.953425686354178E-5, 0.0, -8.12258986066774E-4, 0.0014113753183732382, -4.63184010761817E-5, 4.9174236173050084E-5, -2.459274411285377E-4, 1.420664583270145E-4, -1.4829540059637384E-4, -1.954032916798739E-5, -2.382285853619298E-5, -2.092247487309853E-4, 6.768912026495309E-5, -5.3446957631676597E-5, -4.7169242696927105E-5, 1.6163221017591556E-4, -7.061590138601119E-5, 7.22219671663581E-5, -3.862181200320789E-6, 1.0956081887727129E-4, 1.305584234669041E-4, -5.2980874372662176E-5, -6.994648239933184E-5, -3.353002403104237E-5, 1.826728745055327E-4, 1.1351160902489454E-4, -2.6352752872497027E-4, 5.687141165456851E-4, -0.0014437122499066353, 0.0, 3.3629991839291995E-4, -4.917829596927388E-4, -1.3903015491299915E-4, -1.773584887631254E-4, 1.91682756930238E-4, -9.07771966530716E-5, 9.80050211987227E-5, 2.8848206968940598E-5, -4.144439030819122E-6, 3.744162345197741E-5, -1.4548373513617168E-4, 1.4172418993481728E-4, -6.21714379294566E-5, 4.099724143422229E-6, 9.602782243912766E-5, -5.550211905601342E-5, 4.3707423678666064E-5, -7.475378373112181E-5, -2.59557633604483E-5, -1.2174014712457366E-4, 4.448509263886945E-7, 1.4562975351658563E-5, -1.614509572039249E-4, -2.7931514900511384E-4, 3.409958806481326E-4, -3.357414587969852E-4, -6.963729270467972E-4, 0.0, -5.43593617537041E-4, 7.005113416245714E-4, 3.501241869186451E-5, -7.314284300991906E-5, -8.393791908304622E-5, 4.5573564166912316E-5, -1.7919199268952117E-4, -7.630384842549832E-6, -5.182066876379598E-5, -2.64148815348317E-5, -1.956477900384045E-4, -2.5131004982715612E-5, 5.84019836286079E-5, 1.275062078615077E-4, -5.455506523061811E-5, 4.17695931893421E-5, 1.0979581041920939E-4, -2.3365786326156038E-5, 1.789826754692653E-4, -2.8080609541874435E-5, 1.2201120391571833E-4, -1.8291082484823954E-4, 2.060213662852828E-4, -9.955807106927696E-6, -3.569929937114497E-4, 3.663559273043459E-5, -5.570371250864315E-4, 0.0, -0.0013240418676691871, 5.899257305398371E-4, -1.0080714941564157E-4, 4.717995008240439E-5, -1.5858157180088857E-4, 7.865929796392901E-5, 4.800765664105744E-5, -1.0081877762443917E-6, 3.390731451345463E-5, 4.446375600387574E-5, -9.189424020405621E-5, -1.257877212533004E-4, 1.4455148729577414E-5, 2.554444509312398E-4, 9.147540473674435E-5, 2.7444006062744115E-5, -1.3185363649190478E-4, -5.5120462026210064E-5, -1.259838051333142E-4, -7.97770086934562E-5, -1.5676132712920832E-4, 4.6965728258375495E-5, -1.3165483032386642E-4, -2.570933801606578E-4, 1.566300547720781E-4, 1.1832503992131723E-4, 2.054598254795779E-4, 0.0, -4.983029999200072E-4, -0.0010683762027458004, -7.02703203690779E-5, 1.8042120875388752E-4, -9.509836957347103E-5, -3.360062429172504E-5, -1.4396147999637122E-4, -1.2147948029358101E-4, -9.956902517941776E-5, -1.2063542903836641E-4, 2.1262852015441463E-5, -7.969256821401899E-5, -2.2541292042094308E-4, 3.474090066814027E-4, 1.489079478425137E-4, -1.4637009800444513E-4, 4.0491229667685405E-5, 1.0818485856046685E-4, 9.870697949233923E-5, 3.8871747811965097E-5, 1.8465122878683808E-4, -8.700604098817481E-5, 1.422363589938644E-4, 1.688196125200701E-4, -0.0010445212853800146, -3.6480292132220706E-4, 1.5313993828408958E-4, 0.0, 0.0022444795833169735, 0.0017036914356333872, 1.289729242853741E-4, -3.19030500586185E-4, 2.0242653300406318E-4, 4.695249456560561E-5, 1.4082876628618613E-4, 1.71430528037527E-4, 1.1543387192729087E-4, 1.1873111734362452E-4, -2.151576289093349E-4, -6.122014510937893E-5, -1.5665286999237867E-4, 5.521008828613764E-4, 1.6918592356688978E-5, -2.1632258256157533E-4, -9.726566912308098E-5, -5.009809630673324E-5, -1.0716706724275471E-4, -6.1462145555758936E-6, -1.0012534526415224E-4, 1.0725224048222004E-4, 1.1640092422539664E-4, 1.136142074931449E-4, 5.989795749808271E-4, 3.5840385104090016E-4, 0.0, 0.0, -0.0013196281659909718, -0.0013479973017731237, -8.670834213208218E-4, 5.4754029693611E-4, -3.477845039519483E-4, 8.169838502965017E-5, -9.235034583039158E-5, -1.3030034725071285E-4, -6.522112008843368E-5, 2.092901904740831E-5, 4.2512712558532356E-5, -3.1368242111330956E-4, 5.097292456681201E-5, 4.775576433131945E-4, -4.929207314524229E-5, 1.813491618019819E-5, -2.1383821053268517E-5, 1.4000562974581594E-4, 4.352120444269357E-6, 7.848635316731039E-5, 4.928136393973566E-5, -4.5513839063458785E-5, 2.0746573039572244E-4, -1.7096144077918598E-4, -8.188005967151332E-4, 0.0013840356663587104, 0.0, 0.0, 0.0, 0.001101389331075456, 5.586515903568861E-4, -8.981451682460386E-5, 2.5355065745884974E-4, -9.6052391801453E-6, 4.5999806584559984E-5, 1.937639912608096E-5, 3.28817078252572E-5, -7.704532553395214E-5, -1.6877940530096775E-5, -4.0208809064543353E-4, 2.760020216803405E-4, 2.465851508623772E-4, -4.2917894239571704E-5, -1.921458786651055E-4, -1.0811617635286148E-4, -3.7504275349875935E-5, -9.487467154129684E-6, -3.1634004101165224E-5, -1.5678131634052818E-5, 1.4052332164039467E-4, -1.9537828442869412E-4, -2.6090951052344858E-5, 8.533597544280773E-4, -0.003765550470481301, 0.0, 0.0, 0.0, -9.85628093220441E-4, -4.631182789338641E-4, -1.788580338894707E-4, -3.809649773185892E-5, -8.999074498881269E-5, -2.3592570587327727E-6, 8.913771903939468E-6, -6.578914449023094E-5, 9.703012333697849E-5, -6.930037437109821E-5, -2.2167774286699547E-4, 2.604409394978136E-4, 1.2530096982401418E-4, 2.0604527925913323E-4, -2.1595829418928432E-4, 2.284336793019085E-4, 5.499389285105399E-5, 5.95183404026484E-5, 5.12523199388874E-5, 1.0818012447253503E-4, 6.256760200744299E-6, 4.727958394896591E-5, -2.0036994926253055E-4, -2.567393725243835E-4, 0.00262729043083156, -0.039537711555837206, 0.0, 0.001917764160971782, 6.650853265024381E-4, 2.3445421667408516E-4, 1.8034871035264938E-4, -1.0927604994990327E-4, -2.2487481193026946E-5, 1.7988145140768437E-5, 5.580305377318678E-5, 5.382926968426821E-5, -6.554253102521347E-5, -9.27321990424569E-5, -4.4150382187821805E-5, 1.1378152845619836E-4, 2.0045690401525472E-4, -1.4785913898894876E-4, -3.432896303292144E-5, -1.3623193818310643E-4, -6.125753230579954E-5, -7.455281635390479E-5, -7.248454398255799E-5, -1.2119908277468925E-4, -4.30566571486163E-5, 9.832912571477716E-5, 3.849733759701399E-4, -5.635447038440902E-4, -0.01343928087094174, 0.1609901109890493, 0.0, 0.0, -0.0010808999562212395, -2.015988448861875E-4, -2.1003115379937003E-4, -5.958857156905905E-5, 3.585880993005171E-5, 5.536678519001644E-5, 4.855954876544235E-6, -1.3754563554768727E-4, -8.523319421138347E-5, 1.263272763055521E-4, -9.75436556496133E-5, 2.1864075153572464E-4, 1.859238378258593E-4, 6.248785370117994E-5, 3.264112960445398E-5, -1.0655555742125225E-6, 1.103024800063621E-4, 5.820249421054574E-5, 9.404357466266521E-5, 1.6489391837781677E-4, -5.6237810365956004E-5, 7.449127341134485E-5, -4.8356381271319265E-4, 8.305458122283751E-5, -0.19905496747689067, 0.11656322996560345, 0.0, -0.24258733714548533, 1.2166491255418447E-4, 8.017071836074215E-5, 9.650754318048963E-5, 1.5282425174662742E-4, 6.143139391188442E-5, -1.8087431658015391E-4, 2.379655460683395E-5, 8.830880584856639E-5, -5.6788769648301274E-5, 1.223481070195281E-5, 5.070827996402782E-5, 1.5280460240505816E-4, -2.9298734823860766E-5, -2.905770997725485E-5, -6.167364204533148E-5, -6.956863936498199E-5, -2.1731859281442462E-4, -1.7320571063475682E-5, -1.3310735587508608E-4, 3.898609880338919E-5, 8.580582809123275E-5, -2.445157901886265E-5, 1.9581040237214072E-4, 1.2536109916720794E-4, 0.08413738784086404, 0.0, 0.0, 0.11707312623053569, -6.611685972464599E-4, 6.843149672486702E-6, -1.1918298479746981E-4, -1.9205011663542067E-4, 1.597784369167922E-5, -5.736470693692472E-5, 4.0676479973822726E-5, -9.866375319023066E-5, 9.902482652791511E-5, -9.306894294103333E-5, 1.4770604424100306E-4, 1.2853230396235309E-5, 1.3929993438789254E-4, 1.1877512534920895E-6, 2.690193369817354E-5, 2.464039447451577E-5, 9.993286456832364E-5, 1.6588343843695E-4, -6.012689815619925E-7, -1.3147331093795822E-4, -5.438775904707541E-5, -4.172232481389669E-5, -3.143711787435941E-4, 2.9139025160630544E-4, -0.05147182131801935, 0.0, 0.0, 0.020089430142982936, 0.0011250119477050516, 8.407993643834155E-5, 1.8618723370648924E-5, 6.514373123562538E-5, -1.1207586122267527E-4, -2.034912694375571E-5, 3.530860969307415E-5, -8.243774583186926E-5, 3.0497808492189097E-5, 9.520676113059033E-5, 4.385287356742091E-5, 2.7418742939341043E-5, 2.3744074441892766E-5, 4.885799543032364E-5, -1.3209138420666573E-4, -2.5137799060501208E-5, -1.8976677164878966E-4, -1.0837351584033053E-4, -1.6326413790921164E-5, 1.3347385527876705E-4, -2.293131861766292E-4, 2.6940112480477096E-4, -1.1478816026223199E-4, -6.315510926491863E-4, 0.01011208756267475, 0.0, 0.0, 0.0, -0.001608271267610578, 2.7899906666873557E-4, -2.8706533524098435E-5, -4.329335915428203E-5, -5.0522789548458E-6, -1.520893996357634E-5, -1.25473320452893E-4, 1.2290574971658016E-4, 2.391701694749674E-5, 5.46720200644373E-6, -3.719558815310889E-5, -1.2529162410675259E-5, 9.909956762053508E-5, 2.965245573615639E-5, 1.1790432214576758E-4, -5.746595035367281E-5, 1.1607309838408908E-4, -7.444436456372321E-5, 1.616385426204529E-4, 4.9274396441925826E-5, -1.8357844996080703E-4, 7.830171420341952E-5, 2.2671462767486565E-4, 9.508969581151022E-4, -0.0016482795740050211, 0.0, 0.0, 0.0, 3.106513116432295E-4, 2.4075273837067152E-4, -1.286338309233234E-4, -1.8987873363600943E-4, -9.64360436203767E-5, -2.1039856587836737E-5, 1.1058074397457234E-4, 3.520262816654998E-5, 2.198100905436839E-5, -5.51732583087496E-5, -2.8356678013327883E-5, -2.641375093502411E-5, 7.424114040650525E-5, -6.262723961334079E-5, 1.1361869151399808E-4, -1.0909615345881205E-4, 2.302295069220454E-5, -1.2281593301815928E-4, -1.6667158523853446E-4, 5.1461359294955307E-5, -1.6201591201936907E-4, 1.3512894797312945E-4, -5.814574150841983E-4, -0.0011315364028532204, -5.499931122957875E-4, 0.0, 0.0, 0.003791732136624572, -0.0025642045228342586, -3.182935490407317E-4, -6.018124535218374E-5, -3.546890955970025E-5, -5.034418697158037E-5, 4.881726354968197E-4, -1.737972888828175E-4, 3.582292540919028E-5, 6.572995812139451E-5, 4.45713666042529E-5, 4.659092671511061E-5, -7.106036701267236E-5, 1.355845286936462E-4, 7.446423120029502E-5, 1.2821013446970427E-4, 3.832642227957167E-4, -1.14304028734736E-4, 4.526122517154041E-5, 5.396841554534425E-5, -1.1724909349146571E-4, 0.00105032314542969, -0.0012993093134085996, 0.002035359063643899, -6.568662223425554E-4, 0.0, 0.0, 0.0, 0.0, 0.0, 8.441984020703355E-4, -0.0016658143112047513, 6.134738738745163E-4, 3.069622365070149E-4, -1.6574039194949402E-4, -1.29078794725639E-4, 2.9457126008537314E-4, -9.205166113292002E-5, -1.437993172008619E-4, -4.651046574709953E-5, 1.181398274912376E-6, -1.8224273786212733E-5, -1.0920693970805699E-5, -2.394382038365241E-4, 4.252710194227295E-5, 3.006836316174101E-4, -1.0801181490797535E-4, 4.010319569503708E-4, -4.119626712483981E-4, 3.628174534197262E-4, 4.034351369811113E-4, -0.004398680225439613, -0.03172517335194857, 0.0, 0.0, 0.0, 0.0, 0.0, 0.02308596582882394, -8.895742045507911E-4, 8.524343024072117E-5, -1.850427863043782E-4, -6.992824696364707E-4, -4.5526459947634616E-5, -5.245229879635776E-4, 1.1360981480086942E-4, -9.497172038343564E-5, 1.149820902772876E-4, -1.7286303587211034E-4, -1.1135830836300627E-4, 1.125402838557084E-4, 5.9588173078479425E-5, -6.420861237273238E-5, -7.286146514411393E-5, 1.3388181772024108E-4, 1.4577876264842336E-5, -3.7887960949729117E-4, -3.1545449897898547E-4, 0.0014957713908956506, -0.0018125237740258843, 0.0, 0.0, 0.0, 0.0, 0.0, 0.0, 0.0, 8.569518560599391E-4, -8.993833753428007E-4, -1.046112996952174E-4, 4.1657620617094527E-4, 7.227356351490796E-5, 8.813712151685317E-5, 2.6394482118874742E-5, 2.763246840052636E-5, 5.013067132132596E-5, 8.145747945371885E-5, 1.5746160657821516E-4, -2.9468062711212335E-5, -7.151660548107806E-5, -7.895557953740767E-5, 8.425925887672799E-5, -3.521066068688816E-4, -5.550004587346218E-4, 0.0012204587233107808, 2.0491108961338952E-4, -2.501008685585589E-4, -0.006177187307563034, 0.0, 0.0, 0.0, 0.0, 0.0, 0.0, 0.0, 0.0, 0.0, -2.1805420890277653E-4, -4.410064455258316E-4, 9.001162265017449E-4, -4.846434489804094E-4, 6.28389972245323E-4, -4.3777362130596796E-4, 4.963868552086224E-5, 6.053230602257038E-6, -1.3919352208327336E-4, 4.459685112572658E-4, 5.034452277941055E-5, -1.1965442998714206E-4, 3.985814926907955E-4, 1.0814219720573493E-4, 0.0023866576516525244, -0.00974436577642828, 0.0, 0.0, 0.0, 0.0, 0.0, 0.0
0.0, 0.0, 0.0, 0.0, 0.0, 0.0, 0.0, 0.0, 0.0, 0.0, 0.0, 0.0, 0.0, 0.0, 0.0, 0.0, 0.0, 0.0, 0.0, 0.0, 0.0, 0.0, 0.0, 0.0, 0.0, 0.0, 0.0, 0.0, 0.0, 0.0, 0.0, 0.0, 0.0, 0.0021286156715786203, 0.0025712370016841867, 0.012460672337038278, -0.020652644122483344, 0.017796677662365343, -0.0011297280985073598, -2.9679347063399174E-4, -6.677716002267564E-5, -1.3293375882965594E-4, 6.316580466384551E-4, -0.0012517863424042564, 0.004637263016531142, -0.07624538655859234, 0.025892944171560645, 0.016801353422642062, 0.0023930560956505038, 0.0, 0.0, 0.0, 0.0, 0.0, 0.0, 0.0, 0.0, 0.0, 0.0, 0.0, 0.0, -0.0034133391818316483, 0.004465408499978639, -0.0015304567144826984, 1.3445116060512355E-4, -6.964577702403037E-4, -7.537145511532434E-5, 5.19508404197327E-4, -6.639250824654935E-5, -7.07259023093788E-4, -3.0016982431267875E-4, -4.704513330579051E-5, 1.6370523833060788E-5, -2.0777615711932743E-4, -1.7680723619253977E-4, -2.708484827158023E-4, 1.7461263513441437E-4, -4.040054503291996E-4, -4.7535929127879694E-4, 0.001111543219350558, -0.018281151350600294, 0.0, 0.0, 0.0, 0.0, 0.0, 0.0, 0.0, -0.00279942340101995, -2.65817470015539E-4, -0.0011736043515684076, 0.0016069101489846864, -7.91462067173866E-4, 4.959233103686169E-4, -1.0363908269057177E-4, -6.341659919245826E-4, 6.926531125616891E-4, -3.242463311341534E-5, 2.383947197279877E-4, -1.8748646265079772E-4, -1.110539648906817E-4, 1.6644011997792962E-4, -3.5670416435719644E-5, -6.527356989757345E-5, -1.1595286781728695E-4, 5.0919285914099266E-5, -3.880960318626189E-4, 5.279604830479545E-4, -0.001342390231346586, -2.012143951782014E-4, 0.0, 0.0, 0.0, 0.0, 0.0, -0.005113899830819058, 0.0024894836498568404, -1.4822954076465551E-4, -3.6521932663766544E-4, 7.146330774263675E-4, -2.7847790230350867E-4, 1.6014425883474566E-4, 1.3333580893285768E-4, 6.368061126553217E-5, 6.601253673160826E-5, 2.1637902127963243E-4, 4.967833203210188E-6, 2.2747188618386626E-4, 6.492673455841175E-5, 1.4388335194019837E-4, -5.017194282558098E-6, 3.2943394434733945E-5, -1.8164228873946187E-5, 7.221045695882142E-5, -3.163466541022935E-4, -5.861453846635453E-5, 3.82039958446344E-4, -2.9296010073710495E-4, 6.67044622248705E-4, 0.0, 0.0, -2.107760329528963E-4, -0.011469723573951849, 0.0027797690013432776, -5.566519587824069E-4, -2.3246861482617193E-4, 1.3741946711800382E-4, -6.353876592387733E-4, 6.047631090148426E-4, 3.9951576231778274E-5, 1.1403756328413802E-4, -4.3724387438234676E-5, 8.127126188060385E-5, 8.642690419610439E-5, 1.136190039521404E-5, 1.076882984153361E-4, -1.5649238663829902E-5, 4.4802978774659624E-5, 3.3515548977493417E-6, -1.5316628714768554E-5, 8.079045565310062E-5, -5.021281913201107E-6, -3.293475307970099E-5, 2.571975404867856E-4, -7.464176543962104E-4, 4.0353417625124216E-4, -6.229276321800802E-4, 0.0, 0.0, 0.0, -0.005582535252168582, -1.1767691763833754E-4, 5.999563410614622E-4, -9.442269956014519E-4, 6.493125348406201E-4, -1.8842862242335432E-4, -6.100792279988585E-6, 4.4327428498816397E-5, -2.1413690573083048E-5, 1.198611833191404E-4, 3.2090340862674925E-6, 6.122100396573116E-5, 1.587919543901315E-4, -7.712069598751844E-5, 7.37553022218261E-5, 6.251865869072931E-5, 1.4067545549122922E-4, -7.057382800192785E-5, 5.295831781509838E-5, 1.4653954099137475E-4, -1.1512201276204324E-4, 1.3052204127087075E-4, 3.2798785525442714E-4, -2.819261495941425E-4, 1.9746499957747787E-4, 1.0692274873797145E-4, 0.0, -0.0013908470684184466, -4.3572723227816617E-4, -3.542943406086671E-4, -3.02876989444513E-4, 7.062285343597578E-4, -2.983523881147491E-4, 2.857359374438502E-4, -9.43874712445626E-5, 2.4798649624155842E-5, -1.8794076952614782E-5, 2.686243925396269E-5, 5.0538342633541246E-5, -6.685760694269227E-5, 1.1599059748147889E-4, -3.9688045359772636E-5, 1.3567017685601048E-4, -8.105709757125273E-5, -1.1574766797778454E-5, 9.649798757893362E-5, 2.7837261926982614E-5, -1.3292645342384885E-4, 1.4542630859300546E-4, -1.0771909897915905E-4, -1.3755331411675485E-4, 1.568023992464274E-4, -3.356711007841355E-4, 1.3942527012459553E-4, 0.0, 9.332473073726009E-4, 3.8339043319167275E-4, 1.7366934254313572E-4, 1.0423590129743228E-4, -1.376319789581187E-4, 1.6679315119007084E-4, -3.2029560885695206E-4, 2.049656523548839E-4, -1.1187184759694356E-4, 3.76862102866827E-5, 1.268065455901604E-5, -1.298298726117058E-4, -7.106531064121225E-5, -5.523559698498145E-5, 4.573224124895917E-5, -5.261443876213596E-5, 6.06891428801185E-5, -8.931201905573673E-5, -1.5728567086554824E-5, 2.861426340417761E-5, -3.123167529696482E-5, -1.4266017348511193E-4, 1.1127639669157906E-4, -3.948237092285799E-5, 8.030387336236091E-5, 3.2939102789539894E-4, 3.0285305704649538E-5, 0.0, -6.295889640332769E-4, -9.588059774161967E-4, 1.3172737590708445E-4, 1.2843364802373603E-4, -6.230773068316813E-5, -1.8676047983673342E-4, 2.6850669189880266E-5, -3.326379850435074E-5, -9.23334764527204E-5, -5.1204620017913516E-5, 9.503592176791891E-5, 4.9452782759345E-5, 1.5899966710340244E-4, 6.694961297345704E-5, 1.2025057996084939E-5, 9.197994415270604E-5, 4.196004309064029E-5, 1.1283413576972046E-4, 9.101999694054543E-5, 1.5247001492800034E-5, 8.596945062331948E-5, 1.9334244031391905E-4, -4.912994841245236E-5, -3.786227293383668E-4, 2.465266428880564E-4, -2.575202192291078E-4, -0.0020167700355562335, 0.0, 5.793731255179544E-4, 3.7066661810263024E-4, 4.300813171398072E-4, -2.73386951733817E-4, 3.100494828171076E-4, 2.450310189694943E-5, -4.273796635939906E-5, 1.8163390736494972E-4, -2.613238141781648E-5, -1.1627589163176183E-5, -1.4570987570785302E-4, -2.0349372741809767E-5, -1.0020842978824789E-4, -4.149313614620337E-5, 2.2311650863131135E-5, -6.22342497192669E-5, 1.8629215093687376E-5, -1.5139020055272736E-4, -4.760516479000292E-5, -1.756329953900318E-5, -1.816428928788134E-4, 7.182945409300006E-6, 2.9357713236406524E-5, 2.5103032568486684E-4, -8.708055462937513E-5, -1.774370296690114E-4, 0.0012462867608207077, 0.0, 0.004212426666200138, -0.001544496377167721, -6.586398768193141E-4, 1.6896932373803407E-5, 2.5873702147506065E-4, -1.1065559041678083E-4, -1.642225645982246E-4, -1.1841070419802987E-4, 5.82921621492781E-6, -9.81299516698103E-6, -5.9590943001078615E-5, -7.065794577879406E-6, -6.105061015855868E-5, 2.759535453603956E-5, -1.2754175608399216E-4, -7.60191495138783E-6, 2.2633982697111722E-4, 1.99393151163727E-5, 1.1372311295094026E-4, -5.359202135942856E-6, 1.2658760551119628E-4, 1.165176797397205E-5, -1.218635148061556E-4, -6.689397877581578E-5, 5.491018439146126E-4, 0.0019224198144000137, -0.0029002831239086507, 0.0, -0.00449045328789868, -0.001541175543998724, 0.002239640479740835, -3.272800792636351E-4, -3.3495760754422027E-4, 1.3212347536461575E-4, 1.1559447721787979E-4, -1.904647276464508E-5, -5.368113240066353E-5, -1.2922410066025787E-4, -1.116546951093139E-4, -1.8162791931756209E-4, -6.454893009572817E-5, -4.0862380022161607E-4, 9.321791030144459E-5, -4.357306330553987E-5, -1.2484945282173902E-4, -5.628946201928799E-5, -1.1112333448960253E-4, 1.8218070178590075E-5, -6.720925799452075E-5, -1.9220493178284478E-4, -3.669644080284963E-4, 2.9460046830634146E-4, -3.9448057150731527E-4, -0.002980069996600838, 0.0, 0.0, 0.00786827580343682, -0.0024066333465160646, 0.002257540427671626, -1.1366146517571144E-4, -9.449029059344361E-5, -5.971769116782312E-5, -1.617775734652191E-4, -7.376391604607643E-5, -1.2486621029904218E-5, 6.311681434861509E-6, -7.82560172369558E-5, -7.679938977445893E-5, 2.121049936013896E-5, 3.154064190872892E-5, -5.4783692179355E-5, 6.287610149765825E-5, -9.542668347315662E-6, 3.860974692119876E-5, 1.3955998042455216E-4, -1.3487039541218955E-4, 4.946403473275078E-6, 1.0498632173530444E-4, 2.3390049689805503E-4, 1.5906419531652326E-4, -1.9095164146294027E-4, -7.542607173656491E-5, 0.0, 0.0, 0.0, 0.0031884917461440943, -0.002181185355761811, 7.119132947995093E-5, 2.654376822703829E-4, -3.2324986979276636E-4, -4.327186450358042E-5, -1.0047050390764E-4, -1.1291159118447905E-4, 2.222680362629382E-5, -7.30001593665586E-5, 1.2277260379125126E-4, -1.3610765061983855E-4, 1.3885975603596806E-4, -1.047536976020321E-4, -3.7050298499083476E-5, 1.64641374875479E-5, 2.6029985690744024E-5, 1.8883268005879898E-5, 4.412379058386282E-5, 3.6586747392600444E-5, -2.5910603456380933E-4, -3.310416020357829E-4, -2.544387555098629E-4, -2.9678123008406685E-4, 0.002421061463296782, 0.0, 0.0, 0.0, -0.0013461790108690729, 0.0016879046304291397, -4.216155549260916E-5, -7.210853371193381E-5, 1.611962515291161E-4, 9.352903538248753E-5, 2.3373873029238442E-4, 5.5006396302166114E-5, -2.6178945199877618E-5, 8.411980595234428E-5, 3.8225686644475817E-5, -7.695047726542634E-5, 3.338457414705028E-5, 3.179854380830889E-5, 7.283032013932957E-6, -6.143141436485423E-5, -4.532832594307018E-5, -1.2389057305552966E-4, -1.8737788894149622E-4, -7.970184035244308E-5, -1.362634740883154E-4, 5.073811109240966E-4, -2.7352642574432603E-4, 5.015095935048509E-4, 0.002276819863892051, -0.03851507394432922, 0.0, -5.524649038546111E-4, -0.0011503466893455312, -0.0013999147414204553, 3.945839525307399E-4, -2.5918225420063054E-4, 1.5255647024125957E-5, -1.1564815770798444E-4, -1.8003823832165577E-4, -2.9450898948744664E-5, -5.1786528871476556E-5, 8.457706036182684E-5, -4.5116849229987125E-6, 1.8436856110928685E-4, -1.3442191978293698E-4, -8.618133829047827E-5, -8.38798122449856E-6, 9.967786285391974E-5, 7.462895076507295E-6, 2.1046745027811776E-4, 2.977933768406809E-5, 3.2367220024829164E-5, -1.1801058322627719E-4, -7.045012598073402E-4, 2.9620853888913444E-4, 0.0017478743210479432, -0.0028106190642915346, 0.0719730791197938, 0.0, 0.0, 0.0016693959202805243, 8.085710824558297E-4, -3.031641398390289E-4, 6.619436579860629E-4, 1.1592305953546307E-4, -1.0150677004464849E-4, 1.678442782492627E-6, 1.453756196998752E-4, 5.5347657238631774E-5, -2.6238351226275418E-5, 9.035780442323353E-5, -4.12368075211988E-5, 7.327947732973241E-5, 1.5466685595791005E-4, 1.6142810441617647E-4, -4.446509816330373E-5, -1.059422824273695E-4, -1.1122595934440232E-4, -3.0838897647306364E-4, 4.535960711064094E-5, 2.920206617632586E-4, 3.761713028110634E-4, -3.359140681666982E-4, 8.264310913074136E-4, -0.16776771682244815, 0.15748539807559825, 0.0, -0.1804047609875238, -0.0019262955590075863, -1.3287684883458946E-4, 2.1418725941920152E-4, -3.9652811996266474E-4, -3.542829298515749E-5, 3.661077066873439E-4, -2.1331659967099002E-5, 2.4259683857822816E-5, -1.179648101896888E-4, 2.613083766189217E-5, 7.548045512980262E-5, 1.0187309407041176E-5, 2.2488367329193096E-4, -3.71700009768145E-5, -2.5849791637289046E-5, 1.4568196668382064E-6, 5.39894295945047E-6, 1.2702792815187409E-4, 1.3658948998609467E-4, -4.873356943636657E-6, -4.7010274607042616E-4, 7.304864463916167E-5, 7.719304069071973E-4, -0.001028370346071781, 0.07665306801242013, 0.0, 0.0, 0.09083793948909075, -3.502109194627134E-4, -1.5179728705351554E-4, -1.138982713594687E-5, 4.355545724094349E-4, 1.56483958369255E-4, -2.83227867628745E-4, 8.848359384995792E-5, -3.1056302511324274E-5, 3.1139368848579224E-5, 2.284926955987156E-4, -1.0810870528970511E-4, 1.301744236752919E-4, -3.453003772306078E-5, 1.0239777406832661E-4, -1.2348914088391956E-6, 1.4671980118371346E-4, -3.3779815379764924E-5, -5.756062336285598E-5, 2.1721068397270146E-4, 1.1470399298821328E-4, 3.1895588212986394E-4, 1.3503504420720974E-4, 1.858781328795178E-4, 8.391463198192406E-4, -0.044028490701997686, 0.0, 0.0, 0.013494870141596726, 0.001345800510010796, -6.33315622045323E-5, -3.302043179479115E-4, -7.018951953845954E-5, -2.2859473174775905E-4, 2.631870973090895E-4, 5.4973129106473766E-5, 1.9365055182394495E-4, 9.490442856979016E-5, -1.0340182182756571E-4, 3.7054195719013283E-5, -2.2165269682179343E-4, 7.114299353878579E-5, 1.0190841755459733E-4, -4.032453047304364E-6, 2.0418842251951495E-5, 2.2556244515010515E-4, -1.583772264907885E-4, -9.027865286643429E-5, 2.79305056671515E-4, 1.905390711442326E-4, 1.5971920238913993E-4, 4.039337140692285E-4, -0.001091925928277517, 0.008333568170357943, 0.0, 0.0, 0.0, -0.0016050180646897646, 2.1688899409662052E-4, 2.5843987584114176E-4, 3.50478681656491E-4, 2.821172891003012E-4, 8.763168467105613E-5, 3.764290796859002E-5, -2.1590758623649234E-4, -1.0015136863928609E-5, -1.1394032122202424E-4, 5.0384358252410184E-5, 8.174657401653969E-5, -2.013516907139728E-4, -9.353625813949573E-5, 1.1788992635681849E-5, -4.956812350812519E-6, 2.8412269538196343E-5, 3.70103779085339E-4, -6.044386690511279E-5, -3.3076098338007007E-4, 2.8110251929213663E-5, -6.958901658391079E-6, -2.7096183383470135E-5, 0.0023207842907919745, -0.003693169096198946, 0.0, 0.0, 0.0, -6.340621194190451E-4, -0.0012787019007505828, 5.228684068168379E-4, -1.4783494975033844E-4, -2.408603180069727E-4, -2.1819990866721163E-6, -9.50487544893832E-5, 2.7856439985696234E-4, -1.3624731784593939E-5, 7.676913163866069E-5, 8.17328898388314E-5, -1.3767066200866593E-4, 3.233519456061695E-5, -4.861798071865654E-5, -9.239545474502085E-5, -4.158700175746449E-5, -1.1908193809499915E-4, -1.0559709146124935E-5, 2.9853950879655217E-5, 3.0397416716874194E-4, 7.104843046376053E-4, -5.319400601910485E-4, 7.340461976101356E-4, -3.201634611750252E-4, -7.248426220042858E-5, 0.0, 0.0, 0.004917021931298306, -7.439878720865872E-4, 0.0017268760838319286, -6.015373084337639E-4, 6.344021889064189E-4, -4.228605708287136E-5, -6.0296889128947334E-5, 1.2624747741808004E-4, -2.1435410484642653E-4, 5.17580101905962E-6, -1.3691230396399256E-4, -1.5390773706063987E-4, -9.145406796486228E-5, -2.2026081419851545E-5, -7.197309787198273E-5, -4.6141014314900215E-5, -1.3303039889582131E-4, 1.4935005954939322E-4, -1.9237256313263864E-4, 5.512086876623396E-4, -1.555779276061596E-4, -9.684432796372613E-4, 0.002046988207942859, -0.002245588179137377, 0.003529964295961171, 0.0, 0.0, 0.0, 0.0, 0.0, -0.0023423445242809772, 9.416888245908686E-4, -6.369530822459079E-4, 2.4530727199878738E-5, -1.2646603438773004E-5, 2.1397395040083014E-5, 1.4296979743627687E-5, -2.5184375918218942E-5, 1.3499641507986408E-4, 4.990096542795233E-5, 1.3648283108869217E-4, -2.389140581082057E-5, 1.365350572057593E-4, 6.591897592198358E-5, 5.864180850685151E-5, -1.7581456270555188E-4, -6.326415137811901E-6, -6.578401207579816E-4, 5.179782183256997E-4, -6.033951261640863E-4, -0.0012972346815764409, 0.006352110769501855, 0.07239253125633671, 0.0, 0.0, 0.0, 0.0, 0.0, -0.0021445955194046296, -0.0017445397506346103, 4.7419097307055744E-4, -6.210913365235066E-7, -3.4612940780888576E-4, -3.0123521965398488E-5, -2.1016653804074265E-4, 1.3752177893352907E-4, -6.615962373296011E-6, 7.151368093297504E-5, 2.5415245625664336E-5, 3.513212419509444E-5, -2.3069304701900422E-5, -8.247722325876578E-6, 1.0927123963475286E-4, -1.811630766904177E-5, 6.386680182600829E-5, -1.7844475149725965E-5, 5.741643564622345E-4, 0.0016980888015032188, -0.0029246418709738173, 0.0030948236587255524, 0.0, 0.0, 0.0, 0.0, 0.0, 0.0, 0.0, -0.0030899581700585344, 4.803887266015056E-4, 7.65995142452061E-5, 2.6684362666876674E-4, 2.5663811010656395E-4, -6.564224092565109E-5, 8.223798124785573E-6, 1.2311855959209508E-5, -1.7934390064744537E-4, 1.65354703537816E-4, -7.532497318025242E-5, 1.0482350957531908E-4, 1.6468473488787225E-4, -1.3835610907634771E-4, 5.210355058819946E-4, 4.037868961417152E-4, -8.325226049180804E-5, -7.425847488848844E-5, -0.0018635907605576993, 0.0010238442562828408, 0.0055062805827093214, 0.0, 0.0, 0.0, 0.0, 0.0, 0.0, 0.0, 0.0, 0.0, -3.5007064920832996E-4, -7.474272654706523E-4, 4.926039085577361E-4, -3.8144384626269254E-4, 8.383654616765947E-5, 2.9397062896976815E-4, -1.7576756874877435E-5, -5.960849673196993E-5, 1.7699128285485904E-4, -3.685565591284576E-5, -6.332223280703425E-4, 7.351575071672027E-4, -0.0015928533337096072, 0.002328252335562944, -0.0032816879640748266, -0.03724599763817726, 0.0, 0.0, 0.0, 0.0, 0.0, 0.0
0.0, 0.0, 0.0, 0.0, 0.0, 0.0, 0.0, 0.0, 0.0, 0.0, 0.0, 0.0, 0.0, 0.0, 0.0, 0.0, 0.0, 0.0, 0.0, 0.0, 0.0, 0.0, 0.0, 0.0, 0.0, 0.0, 0.0, 0.0, 0.0, 0.0, 0.0, 0.0, 0.0, 7.714529714980768E-4, -0.004528884107223815, 9.519623325519019E-4, 0.012964924500451917, -0.012255913920304175, 0.0011776121260094192, -1.6478422204567076E-4, 5.453094739876016E-4, 2.64908169478376E-4, 2.2173481406412963E-4, -1.7873006453416655E-4, -2.9114637379154285E-4, -0.08575347562080757, 0.030166375452222775, 0.01980954621874776, 0.0028349878704725206, 0.0, 0.0, 0.0, 0.0, 0.0, 0.0, 0.0, 0.0, 0.0, 0.0, 0.0, 0.0, 0.0017881326125182711, -0.001964718349412358, 0.0015262675164985234, 3.8143927265942273E-4, 2.2613285196771492E-4, 7.225139662091662E-5, 1.291506081997605E-4, -1.9365337163072428E-4, 1.550058794397538E-4, 2.1816200572467907E-4, 9.536344400671494E-5, 2.7778921863158345E-4, -1.4194286710425682E-4, 4.55149579589676E-4, -5.394405529736472E-4, 2.8668265522097596E-5, -2.4133993619838165E-4, 1.9337323886438448E-4, -7.263535266928394E-4, 0.037224493733446086, 0.0, 0.0, 0.0, 0.0, 0.0, 0.0, 0.0, -4.06303663871899E-4, 0.0017593627888676296, 0.0011677007846663916, -0.0014813405387096765, -1.4380576380293574E-4, -2.1136554012517116E-4, 1.1964877361803331E-4, -4.2904799679509373E-4, 1.788349349081271E-4, 1.412422096539503E-4, -2.154711812717468E-4, 2.3150815825219396E-4, -1.508339275236742E-4, 6.339301743217927E-5, 1.7822087619163488E-4, 3.068636524254804E-5, 3.381810027653551E-4, 1.3249644013145481E-4, 2.330340773964565E-4, -2.804993408249599E-4, 6.835855170456403E-4, -0.00260783415738446, 0.0, 0.0, 0.0, 0.0, 0.0, -0.011689835832399997, 0.004316425523601105, -0.001701986444475443, 1.2740394356134616E-4, -6.236112096818623E-4, 7.421412021273668E-4, -1.6219772096483007E-4, 2.935240117688633E-4, 6.070983599318642E-5, -9.720853971575271E-6, -6.915606486813448E-5, -1.0037213786660678E-4, 1.814319755977341E-5, 3.690400881528941E-5, -4.367214527584796E-5, 5.430447354709221E-5, -1.6252586407897502E-4, 9.098181641081494E-5, 2.7011351802060264E-5, 8.293353575872285E-6, -9.71865955331025E-6, 3.9708505772978014E-4, -7.171875427135412E-5, -9.447445964072415E-5, 0.0, 0.0, 0.007773045318859646, 0.0010688917080893825, 0.002956862214445252, -1.7370250725474163E-4, 4.078806825411002E-4, -5.971928464049178E-4, 0.0011509404799731416, -9.01778257898319E-4, 2.302645928019709E-4, -4.979152577406352E-5, 1.2161619408386073E-4, 2.008763340384209E-4, 5.8725476750694984E-5, 1.5943868930435012E-4, -1.515659121596338E-4, 3.250884011743267E-5, -6.645934732198261E-5, -1.0403681185120211E-4, 1.1310236940273185E-4, -1.3862643192229387E-4, 7.067719307303312E-5, -2.805525236360689E-4, -9.767182721151372E-5, 1.2581670789065379E-4, 4.2437559116591886E-5, 7.30648228508747E-4, 0.0, 0.0, 0.0, -0.016253225574829708, 8.392093487898306E-4, -3.620623826942382E-4, 0.0012047880804777436, -1.2882097703482536E-4, -5.050432676367423E-5, 2.568540496365616E-4, 1.4657243779228594E-4, 1.735595473844387E-4, -1.9717054548613002E-4, 1.598123513150212E-4, -4.543944075192527E-6, -3.272447061600362E-5, 1.347421229460732E-4, -6.1450045031627484E-6, -2.346526294265632E-4, 1.186494616214538E-4, -1.1344297528173096E-4, -2.2632735958174162E-4, 3.4171277361033265E-5, 8.381682128295568E-6, 8.702560364114296E-5, -3.7466975654151303E-4, 2.2245925962249412E-4, -2.915846058012977E-4, 0.0010475876267263865, 0.0, 0.0022714274103786064, -2.601512979004753E-4, -4.755010055320436E-4, 4.6797328816941306E-5, -3.6412187901546384E-4, 3.334166551988601E-5, -2.8717155594078984E-4, 6.161244477780712E-5, -2.642210691704951E-4, 2.1587155754315373E-4, -1.2650443412286243E-4, -4.78585442673132E-5, 9.294116955107357E-5, -1.3046329387383983E-4, 7.919735048936444E-5, -1.9503252736579785E-5, 1.360669461365483E-4, -1.6060061574422067E-5, 5.0436914386246634E-5, 1.3931711673966055E-4, -4.712442757120832E-5, 3.759405125669825E-5, 4.465609631264854E-5, -2.8529412881392054E-5, 3.13381867772502E-4, 5.337013952124624E-5, -6.921966575577499E-4, 0.0, -7.729954295263812E-4, -0.0016720243915153328, 9.479241112500153E-4, 4.947272960197592E-4, 6.287344793785167E-5, 3.297016144167018E-4, -3.184894948359945E-5, -3.490158868375526E-5, 4.9167342416367754E-5, -9.751083468304658E-5, 9.957348693354266E-5, 6.585047509302856E-5, 2.4038964791969446E-5, 1.6782772661869246E-5, -5.194687380072263E-5, -5.5074123908568764E-5, -2.1122044166225926E-5, -8.700040397066318E-5, 2.7068119620283882E-5, -1.1804864795629146E-4, -3.602353866455393E-5, -1.3681068459103825E-4, 7.194399612777941E-5, -1.750671631897446E-4, -3.379742246995546E-5, -8.139218604654218E-5, 0.0016284972046580208, 0.0, 1.0073083599161822E-4, 6.279066649010492E-4, -5.665717379336896E-4, 3.8087608659968465E-5, -3.58733935274547E-4, -2.1716555888214094E-4, -7.728463222694979E-5, -1.4226350525375816E-4, -3.662891546203694E-5, -6.955585976264042E-5, -1.1048070156069699E-4, -9.979940251627942E-5, -5.6029130787681454E-5, -9.245738683338063E-5, 1.3789649126141475E-4, 2.1927312966934844E-5, 8.352964436371574E-5, 1.7235846907459916E-4, -4.195979446909021E-5, 1.0718798713597523E-4, 1.403732242240918E-4, 2.85695699635444E-4, -2.090607353543818E-4, 1.1843305005127867E-4, -2.6280763562163334E-4, 4.962869195482708E-4, 9.64903593712822E-4, 0.0, 0.001971327698954306, -9.263938602325477E-4, 0.0011875357563652063, 5.225655921162905E-4, -1.0211522393948868E-4, 9.201546397136555E-5, 1.785342282261901E-4, -4.605243253481121E-5, -2.15076609541149E-4, -7.39500034949096E-5, -3.993024606904286E-5, -1.010867364820469E-4, 6.704604713811514E-5, 1.601516514443351E-4, -8.43100621893561E-5, 1.5384134090176796E-4, -6.866035599981723E-6, -1.2318494152023084E-4, 1.272371645759702E-4, -8.103650630153168E-6, -1.4195549857763247E-4, -2.9713332055866624E-4, 3.918573236915105E-4, -6.477676626671966E-5, -8.913334870683494E-6, 4.959559239811551E-4, -3.297650037979964E-4, 0.0, 0.004961172276472889, -0.0028845584121240217, 5.071430374913966E-4, -0.0012935769274303294, 4.885010375325428E-4, -7.176420578073098E-5, -3.626371375149628E-4, 5.134260284106978E-7, -7.492356173863949E-5, 3.892295010701662E-5, -7.872259374418282E-5, -8.090803413265171E-6, 2.2056906413654918E-5, 9.260689392806493E-5, 2.9488270422441283E-4, 4.048950830680147E-5, 6.265424033228231E-5, -1.655118986662105E-5, -1.1921098335917212E-4, -2.5944281080688773E-6, 1.8014196225034089E-4, 8.311885694730499E-5, -1.7772126978337E-4, 1.301144441966399E-4, -4.774055642145821E-5, 5.8941743091137414E-5, 3.764948968633827E-4, 0.0, -0.007858946978322307, 0.0016412488214238433, 1.3582728675109613E-4, 0.0010171590118410482, -8.099367613966208E-4, 1.0904733952595234E-4, 3.157144395274932E-5, -7.770079631959782E-5, -2.5829038381450622E-5, -2.1233279504656425E-4, -3.84322057522929E-5, 1.2048044133542516E-5, 6.727633112263608E-5, 2.7206854194135855E-5, -2.2866829549378338E-5, 1.021762957683072E-4, 3.3599276074875906E-5, 1.1920059586723657E-4, 1.985841713488402E-4, -1.927011242249237E-5, -1.3171802244245337E-4, 9.52390936300779E-5, -8.420877854130952E-5, 1.8768887131003897E-4, 4.935441153483101E-4, -8.424096208142637E-4, 0.0, 0.0, 0.005090171252549867, -7.338221633970129E-4, -9.70471043927036E-5, -5.131503806080172E-4, 4.0457562252853275E-4, -1.9000201783141247E-4, 1.8154307522291302E-4, 6.475900183726211E-5, 8.912163189440666E-5, -2.776738174492153E-5, 2.2064533809803964E-4, 1.1068720593185412E-4, 1.0462200674521036E-4, -2.917030712188631E-5, 2.598901470333244E-5, 8.368006491022746E-7, 1.1454429466941228E-4, -5.6034649205920656E-5, -2.8609706596234666E-4, -7.732826112679932E-6, -6.675072551989576E-5, 4.8926892937142066E-5, -4.2680690584330993E-4, -3.3859713105777823E-4, -4.7021965271116765E-6, 0.001658787654583864, 0.0, 0.0, 0.0, -0.002723978972091262, 0.001372064424303989, 4.350341655112005E-4, 6.118960690065294E-6, 1.8213962716931884E-4, -1.041617065742081E-4, -1.494692201745655E-4, -6.842343664245867E-6, -5.432498876219238E-5, -5.284781836899173E-5, 1.6207280367248707E-5, -1.161423218340175E-5, -1.5696900735388613E-4, -5.2316912123075615E-5, 1.0394864875644192E-4, -6.475033724360659E-6, 1.1342009933268769E-4, 1.7521564677752216E-4, -2.2267966600899923E-5, 4.182597139793528E-5, -2.726129102514019E-4, 7.37188606182392E-4, 3.17640926499064E-4, -2.945531453809971E-4, -0.001491045830256648, 0.0, 0.0, 0.0, 0.0035617635875092014, -0.0017919309278319412, -3.8011700887009825E-4, 9.051353776345722E-5, -7.114882535550098E-5, 6.170085813519502E-5, 1.1176536686800116E-4, 4.254504289119866E-5, 6.445181739343095E-6, -8.872348501431186E-5, 2.186579275851113E-4, -2.42895726445811E-5, 1.2539490695498786E-4, 5.003710494598996E-5, 9.806999507664806E-5, 2.5736778126916535E-4, -1.6459324917322078E-5, 2.6659616477363464E-5, -9.315423983626128E-6, -4.6879070552908045E-6, 3.2465769810730775E-4, -7.174259990854304E-4, 2.897821555736598E-4, -2.93247850400335E-4, 0.0014476078207678329, -0.07068938596537222, 0.0, 0.00184229869900607, -7.145556098837039E-4, 8.103132910715494E-4, -7.396299981734267E-5, -5.780560228200991E-5, 2.7352317602388818E-5, -1.0796775535457613E-4, -1.8884321517617813E-4, -6.0280887407861663E-5, -1.403787219266028E-4, -7.39001494428198E-5, -1.3612539037868463E-4, -5.922615363139821E-5, -9.666972368631589E-5, -1.2514922000195333E-4, -1.243433881114335E-4, -7.16093683717571E-5, 2.9939566711710077E-5, 8.714007011187495E-5, 5.914591321335841E-5, 2.3992632644398447E-5, 4.603340409971996E-5, 5.730171478310542E-4, -2.856284798281604E-4, 3.2656135867187275E-4, -0.0026581907433127065, 0.1726265034398977, 0.0, 0.0, 3.960366511283932E-5, 0.0015317689814713258, 1.0447107328618873E-4, -1.6897802784686855E-4, -1.231496720219894E-4, 1.8490748511067564E-4, -1.707145421455869E-5, 1.7877096683688057E-4, -6.0447384862811514E-5, -3.169118996665384E-5, 6.960413173216964E-5, 1.0465789653517064E-4, 4.6988131944758286E-5, 1.9962369249526288E-4, 1.8327408003188285E-5, 2.0971627273989253E-4, 8.45039196108956E-5, 5.863754605859596E-5, 1.4084430913611845E-4, 2.274254310983421E-4, -2.405841596858711E-4, -1.1679273910131471E-4, 2.4131393743542833E-4, -4.816034322228919E-4, -0.2682416740511981, 0.18534500367649095, 0.0, -0.22250738722339028, -7.101611398680775E-4, -1.4316173043317813E-4, 4.7689837785314863E-4, 1.9683598240824375E-4, 9.346639706601863E-5, -2.916265649619802E-4, -2.3413998567245453E-5, -1.5402575965578754E-4, 6.803006795504209E-6, -2.005191739450781E-4, -1.9169421156765428E-4, -2.2835156880015347E-4, -1.43273960718841E-4, -2.55865551333609E-4, 1.3880621879656657E-6, -1.1450167324479343E-4, 6.382212482220569E-5, -7.735343779346862E-5, -1.295928810057957E-4, 6.309715275247353E-5, 1.0943482186576756E-4, -3.1158187402338204E-5, 1.7694275854116524E-4, -6.476440313573405E-4, 0.11651917587949871, 0.0, 0.0, 0.10316724070649103, 0.004687242674920199, -4.7038247903803123E-4, -4.540756961194106E-4, -5.654750863176218E-4, 2.389716499438372E-4, 8.852982181059237E-5, 1.7064417478517154E-6, 3.686843234771095E-6, -1.0907232421621327E-4, 1.4208473439135196E-5, 3.5474437335464026E-5, -6.324018903124687E-5, 3.436109795788097E-5, 1.682896718559093E-4, 1.3065148991796318E-4, 1.949305777229371E-4, 1.7256726849298578E-4, 1.6038768280361585E-4, 4.3008141317398546E-6, 1.427872655807233E-4, -5.385518686177961E-5, -1.3875439188302627E-4, 1.4187855743954655E-4, -6.843225814065531E-5, -0.07036229756560564, 0.0, 0.0, 0.016726111513210806, -0.005493787805838383, 9.78388953480417E-4, 3.917459421196462E-4, 4.1343462388684395E-4, -3.805207253729645E-5, -1.047331346747636E-4, -2.7466848881578072E-5, -1.4243791576999567E-4, -2.3821682790606377E-5, -6.759317215560627E-5, -1.4198445312302226E-4, -1.0921535871579972E-5, -1.686090903926335E-4, -2.4078032314971007E-4, 3.5383322853501187E-6, -5.682168803973761E-5, -1.3093999981495517E-4, -4.2730080690361727E-5, -9.105116606046091E-5, -3.666912777258259E-5, 9.484431525333491E-5, -2.0536991152160462E-4, -2.6921732264701866E-5, 1.754332521279533E-5, 0.015436555815838466, 0.0, 0.0, 0.0, 0.004309137856249096, 3.215872487905066E-4, 2.2230903063872717E-4, -4.58576767679714E-4, 4.896598411549103E-5, 4.080781952138596E-5, 1.6013610271821134E-4, -6.201381774712372E-6, 5.139498426422736E-5, 1.50376006218687E-4, -5.579271658259182E-5, 6.220809124691539E-5, 1.2552656744547076E-4, 1.2246500827452485E-4, -1.966265667114299E-5, -3.673159801414039E-5, 3.197192360162689E-4, -9.853547463762615E-5, 2.1236529612109886E-4, -2.487355343370579E-4, 1.815192257398499E-4, -3.9027847793878716E-4, -2.1961067437735682E-4, 4.455972737237182E-4, -0.0018780458980822245, 0.0, 0.0, 0.0, 1.214123168248902E-4, -6.91767595894914E-4, 2.322766255390976E-4, -1.0081159874412475E-4, 4.794229410227912E-4, -2.6745589876491714E-4, 9.477759532363708E-5, -1.0177426725287973E-4, 9.752810832527237E-5, -1.9006675026829936E-4, 1.3702072685114444E-4, -1.2256973130638914E-4, -3.1670969710710005E-5, 7.54065830823014E-5, -1.020729682694487E-5, 8.236727285736458E-5, -4.9662541707180476E-5, 1.2486827835455882E-6, -1.4053679909074754E-4, 2.7675833526258435E-4, -1.918029889716594E-5, 7.96069164045099E-5, 6.787484637080498E-5, -4.29226344275751E-4, -5.708122175332E-4, 0.0, 0.0, 6.38928162092467E-4, -1.9372413391453025E-4, 2.481368637510983E-4, 3.015945120900099E-4, 3.9726560119819474E-4, -4.010120010111984E-4, 2.734019490835239E-4, -3.9849830487070976E-5, 1.9650693414592947E-4, -8.374740068802258E-5, 2.1611867879379708E-4, 4.931933401535688E-5, 2.2984178220654283E-4, -6.12367238516419E-5, -8.759843853648413E-5, -9.468585920763227E-5, -4.0540279512017476E-5, -1.9177987489660668E-4, 3.544938903544124E-4, -2.844675280199541E-4, -8.271434558774104E-5, -4.7499845244230364E-4, 1.4331839104635195E-5, -9.464129063458378E-4, 7.468784238062944E-4, 0.0, 0.0, 0.0, 0.0, 0.0, 6.820512755453062E-5, 8.081029249343853E-4, -4.2904028379003314E-4, 6.436038248226938E-4, -1.6392951272089723E-4, 3.219492214355691E-4, -1.5286802331591448E-4, 1.4469041190368702E-4, -4.9609376937180794E-5, 7.643928227447377E-5, -1.824159041741163E-4, 1.5376827836245858E-4, 1.8249961587416889E-4, -5.9366095012067665E-5, -6.896884330789869E-5, 3.690450895423211E-5, -8.837280150019603E-5, -1.713410879276987E-4, -1.6247445184343492E-4, 0.0012627368107926311, -6.017229515380984E-4, 0.0017347446287926409, 0.014148697923720512, 0.0, 0.0, 0.0, 0.0, 0.0, 0.02232892574181787, -0.0019566642580954065, 0.0016543418412578118, -0.00106509557564011, 6.495657144371008E-4, -1.2821055668505552E-4, 2.460595559005235E-4, -1.059618036883678E-4, 1.6474952763726884E-4, -3.889443256164857E-5, 1.05775137746147E-4, -2.129823455473485E-4, -6.486597474045922E-5, -1.5864707347591018E-4, 1.6789839120304835E-4, -3.3648926439172844E-4, -5.596400447921159E-5, 3.5957312687281956E-4, -4.824472101966435E-4, 1.044539086551836E-4, 4.311259913303988E-4, 6.204894531805412E-4, 0.0, 0.0, 0.0, 0.0, 0.0, 0.0, 0.0, -0.0024392510438750923, -0.00236673963157434, 0.0010726808923564575, -3.397882827974971E-4, -8.649457533588098E-5, -2.3189732791148294E-4, 5.381725668707143E-5, -3.444346814685346E-4, 1.1113068371562101E-4, -2.955280767446106E-4, 1.878834631552293E-4, -2.1498668921878167E-4, -4.361764493130456E-5, 8.503183065203E-5, -2.3327657281139105E-4, -4.8148706704785973E-4, 1.9803847502905027E-4, -5.198631974662444E-4, 2.0825834455288287E-4, 5.2164520314666756E-5, 5.86185872797526E-4, 0.0, 0.0, 0.0, 0.0, 0.0, 0.0, 0.0, 0.0, 0.0, 0.011575224901399585, 4.25385587278596E-4, -5.400291294342284E-4, 6.914801943595786E-4, 4.4851980693955705E-5, -5.466131363918856E-4, 1.995181070003286E-4, -1.226422533159086E-4, -9.797462923688212E-5, 2.8504598893921935E-4, -2.946477747298051E-4, -3.3852891781319594E-4, -2.6483070364438654E-4, 1.926753712735543E-4, 8.778623175986299E-5, 0.01143170334397136, 0.0, 0.0, 0.0, 0.0, 0.0, 0.0
0.0, 0.0, 0.0, 0.0, 0.0, 0.0, 0.0, 0.0, 0.0, 0.0, 0.0, 0.0, 0.0, 0.0, 0.0, 0.0, 0.0, 0.0, 0.0, 0.0, 0.0, 0.0, 0.0, 0.0, 0.0, 0.0, 0.0, 0.0, 0.0, 0.0, 0.0, 0.0, 0.0, 0.0038402931654726424, -0.010994382302167802, 0.01688766731983982, -0.0011804983542077587, 3.8705569900134E-4, -1.8005360849568E-4, -3.0115539229394093E-4, 1.7660417139125966E-5, -1.7430006647307518E-4, 3.156192436556085E-4, -0.0010190230761166403, 0.0036553490702258998, -0.0730209901926955, 0.02582310633808412, 0.015631263031855254, 0.002235228456214674, 0.0, 0.0, 0.0, 0.0, 0.0, 0.0, 0.0, 0.0, 0.0, 0.0, 0.0, 0.0, 0.0012855793475872149, -7.637738563045733E-4, 0.0010824707924868174, -9.659264369731149E-4, -4.6837790914926457E-4, -3.793594624557637E-4, -2.5106505615215527E-4, -1.5648183099925512E-4, -5.795244610157297E-4, -8.297682247646455E-5, -2.1177459377134434E-4, -2.58872074873338E-4, 1.0685362847560049E-4, -5.446896462144242E-4, -9.300112383917106E-6, 1.9564255869107934E-4, -2.6644040218737965E-4, -1.3180630355795762E-4, -5.690213205588135E-7, 0.013700348855271448, 0.0, 0.0, 0.0, 0.0, 0.0, 0.0, 0.0, 0.0015930262481972039, -0.003478778469441039, 0.0030893720260927507, -0.0016140000867640846, -9.354462067468376E-4, 6.644560834076489E-4, -4.7504955019462647E-4, -9.374111426768526E-5, 2.039345562343173E-5, -1.2081577295171076E-4, -8.929995687647905E-5, -1.7327232901877935E-4, -2.228343269875351E-4, 7.481798455061153E-5, -1.6564209264780208E-4, 1.512281192047042E-4, -5.658371715442731E-4, 2.348868339243621E-4, 1.6127367897620184E-4, -3.6864691781526957E-4, -2.2350370811321352E-4, 0.005776765677907108, 0.0, 0.0, 0.0, 0.0, 0.0, 0.0027137894468929405, -4.5540758288877757E-4, 3.875351681810306E-4, -8.683931912210933E-4, 0.001488721000652816, -1.6531838442006874E-4, -7.641144927579484E-5, 4.306117386154456E-4, -1.8489349650284203E-4, -3.68573167571587E-5, 1.2408019248053652E-4, -2.1169118620926265E-6, -4.458110013278721E-6, 1.215454635945199E-4, -7.595024225752233E-5, 4.668578134213123E-5, 4.6157282006472665E-6, 1.8293437009457407E-4, -1.3824587036720588E-4, -3.765154308804024E-4, 4.433913860539679E-4, 2.920216719108109E-4, -7.761152522901066E-4, 0.0010453084306715312, 0.0, 0.0, -0.03396320694036114, 0.0010567453609545703, 0.0032172383585789134, 4.95952195340818E-4, 4.6231154460857154E-4, 3.5393880748501384E-4, -6.507264202352211E-4, 4.460099227145447E-4, -4.571818267145771E-4, 6.531429232320792E-5, 1.5299818333677502E-4, -1.403897921074408E-4, -9.672583322325101E-5, -2.503919803823522E-6, 2.043194984466253E-5, 2.0488867870488049E-4, -1.3519662742703096E-4, 2.250610502815076E-4, -1.623355092372807E-4, -7.453805120927237E-5, 9.448541029149477E-6, 3.5415622235035075E-4, -1.962843277350672E-4, -1.7939833750945096E-4, -4.821906514704016E-4, 0.001638474126909492, 0.0, 0.0, 0.0, -0.010358959829207492, 9.5421845710344E-5, -4.2081750784467596E-4, -7.3358765643647E-5, 2.1791193084518967E-5, 1.2938368136072222E-4, -6.28466231017211E-5, 2.0914240664635057E-4, -1.4844289675141636E-4, 5.115792213171452E-5, -1.6930913643649307E-4, 1.4564702470149136E-5, -1.0719891138784362E-5, -1.9091677507286736E-4, -9.84954272757966E-5, -5.3958420274718483E-5, -1.171546975722785E-4, 9.426082716289763E-5, 1.1813608121389858E-4, 2.4239696540566118E-4, 2.2792747459635644E-5, -9.100756315082817E-5, 4.4840696340887903E-4, -2.594498795576431E-4, -7.900020573589338E-4, 0.004242195699082831, 0.0, -0.001808058878996488, 4.92873820277026E-4, -1.4690996674183372E-4, 1.1969923089000848E-4, -1.920370319249461E-4, 2.4912864353951916E-5, -9.262563099984172E-5, 2.6410177239938684E-4, -2.021208570418933E-4, -2.7187798461230025E-5, 1.231495513669245E-4, -1.530629381580343E-5, -2.0967448732646483E-4, -2.78263401621967E-5, -5.0597419530342515E-6, -2.3491788525842927E-5, 5.614530054264555E-5, -5.799478579041808E-6, 3.865626635376753E-5, -1.460125848815873E-5, 1.9969404366951453E-4, -2.469394637399491E-4, 1.5083698562354492E-4, -9.074941537435374E-5, -3.138216000132438E-4, 1.5418672909780782E-4, -0.004561022603665086, 0.0, 6.679408765039397E-4, -1.028266174454807E-4, 4.6018380296275956E-4, 1.6294035237368186E-4, 1.3807430052478485E-4, 1.7476863480015908E-4, -1.4471847325249495E-4, 1.231975975979321E-4, 2.271680232862196E-4, 2.877205826784654E-5, -1.6197441842607805E-4, 3.613707668618402E-5, -6.006480807616942E-5, -2.1407991550778774E-4, -5.9641580416192024E-5, 1.4212335718222364E-5, -1.2112933925090376E-4, -2.8804596423270825E-5, 8.52435771450245E-5, 4.5442541180079185E-6, -2.1388183859043024E-4, 3.352440045341219E-5, 1.902707258089317E-4, 4.4585765546646E-4, -5.081963983970315E-4, -2.2411509399633363E-4, 1.8233987581807402E-4, 0.0, 1.625990890801432E-4, 2.2950693468155807E-4, -4.894146610894589E-4, -3.06727007598529E-4, -8.298531282548037E-5, -2.479350800245006E-5, 9.429196653395044E-6, -4.5717745773330063E-5, -4.6956655518409454E-5, 2.0384765467327339E-4, 2.2052231014540578E-5, 2.1200335246693226E-5, -6.950115283223759E-5, 4.1002303835338363E-5, -1.924953192929378E-5, 4.268459187056026E-5, 3.3847148056384125E-5, 1.0965757249689598E-4, 1.8782278881244235E-4, 6.553046112975652E-5, 3.50943279639647E-6, 1.291482403070142E-4, -7.782696741383163E-5, -3.810975255517495E-4, -1.081019314671349E-6, 3.433116492106126E-5, 0.0017602052076307905, 0.0, 0.0022822374780658828, -4.3824715075990926E-5, -1.8694252211788427E-4, 3.830174117222611E-4, -1.8077677053726224E-5, 2.425659008817851E-5, 8.272402208380263E-5, 8.172361460943788E-5, -1.4645915137975602E-4, -9.805121402834993E-5, -4.095617297975574E-6, 5.778746579567597E-5, -1.336591859004849E-4, -5.3794490559848575E-5, 1.2609504960072018E-4, -1.3675408128774924E-4, 6.654334546659992E-5, -1.2806406823734833E-4, -1.888678019917778E-4, 1.6898301006077644E-5, 1.8086060860697108E-4, -8.958898664703741E-5, 8.241941557182205E-6, -1.6527929722025126E-4, 2.3638779379130196E-5, -5.975274959408609E-5, -8.236576439083904E-4, 0.0, -0.006842802144163505, 8.917659485339983E-6, 2.3428176517500425E-4, 3.583969359604739E-5, 1.4565779449728214E-4, -4.087916974343261E-4, -1.632938004934836E-5, -1.6454001824845327E-5, -4.237287566428668E-6, 1.8782846656928624E-4, -3.444822427384913E-5, 1.348996539600631E-4, 4.423466680118774E-5, 3.0609473344804214E-5, 8.961575409491694E-5, 1.851294936412365E-4, 7.064955686608155E-5, 1.4275987044785394E-4, 1.601305532844443E-4, -3.986191884552114E-5, -8.130599963784741E-5, -4.452899654764582E-6, 1.9152750336982814E-4, -2.6787459979124275E-4, 2.5491416790079646E-6, -5.72435861096642E-4, 8.120827023806444E-4, 0.0, 0.005586363274640924, 0.0033181884640311778, -0.001174651352901555, -3.675420149893318E-4, 3.4900507539957105E-5, 3.076140743344671E-4, -9.955561873066605E-5, -3.64733257175446E-5, -4.0171635475521914E-5, -5.7697600520174284E-5, 4.8219966469818584E-5, -3.5664059849928286E-5, 4.874518061515322E-5, -8.994232511145195E-5, -1.5109040736385808E-4, 1.1026722714938974E-4, 1.178400487276619E-4, 1.430135924826368E-5, -8.202015940833315E-5, -7.503795826214408E-5, -1.726693681203199E-4, 1.0058440762683356E-5, -2.5004236960690933E-4, 3.068548174142165E-4, 9.885680477256205E-4, -0.0017675625480607457, 0.0, 0.0, -0.007176452371765938, -0.0027224786877831815, 1.3514389511053995E-4, 4.18139671135425E-4, 2.762351372193429E-4, -1.3869162295941228E-4, -5.862319948025533E-5, 1.2628269402989656E-5, 3.6170740321108546E-4, 9.794759532033569E-5, 6.309862512340069E-5, 1.767982243120748E-5, 9.942517941876953E-6, 2.426888168112609E-5, 8.196695077862518E-5, -1.601504713585873E-4, 2.2160199864606329E-4, -2.5188862020176833E-4, -3.76832818950779E-5, 3.4936235647100085E-5, 1.2073699555141208E-4, -6.373668077195246E-5, 1.0615535175808677E-5, -2.9199398850080106E-4, -7.513827144061787E-4, 8.67974713387974E-4, 0.0, 0.0, 0.0, 6.303462549503308E-4, 4.5651104446524073E-4, -6.143037218313257E-4, -7.66720823263155E-6, 2.1194959179975204E-4, 9.985965303631505E-5, 7.550611253979391E-5, -1.672987818821306E-4, -4.9348387461047786E-5, 3.4870691879032754E-5, -2.5230716551666446E-5, -4.550008840517641E-6, -2.2327130316887474E-5, -1.2076264468846092E-4, 6.675522541186431E-5, 1.1368469115357031E-4, 1.6796382053109538E-4, 1.6174820180317055E-4, 1.2730361005589263E-4, -4.570411019805136E-5, 1.3758578051405214E-4, 3.590796531385444E-4, -2.1227307312398508E-4, 3.259831046037283E-5, -0.001174554905258886, 0.0, 0.0, 0.0, 9.178789381489245E-4, -2.969379834786925E-4, 4.0331993785265797E-4, 3.18024008511123E-4, 9.770320032004337E-5, 3.38764198258992E-4, 3.5151769941498655E-5, 2.5623525927940323E-4, 2.2823241038366868E-4, -1.3629122430510731E-5, 2.851615206510654E-5, 6.098344668042979E-5, 1.1692008565426776E-4, -6.898186302227704E-5, 1.661243604866167E-4, 1.151081358093994E-4, 7.10183941463225E-5, -8.591795745812428E-5, -8.022557494477747E-7, 1.5902715462065537E-4, 1.3880185189885292E-4, -4.6026301572316266E-4, 3.1680489184901636E-4, 2.59084578845227E-5, -9.195757397998206E-4, -0.01986037535431877, 0.0, -0.002659015265478904, -4.4655208003344517E-4, 5.201219858591573E-4, -6.775387649768028E-5, -1.2165554792742796E-5, 3.2666080646408593E-5, 1.4634121105431657E-4, -2.9415748036862327E-5, -1.1128282138345598E-4, -1.7192577519844732E-5, 1.1356351146289234E-4, -8.418470970968004E-5, 1.350910972719273E-4, 6.0766561192093197E-5, 1.7783393445964577E-4, -1.3821731898826117E-5, 5.300478590272602E-5, 1.002385488132009E-4, 1.1750470171333664E-4, -8.147180674723747E-5, -1.246376495121208E-4, -1.9782857090872748E-4, 3.789261787507491E-4, -3.9131623495564766E-4, 1.0650878992988892E-4, 0.0015828010520912454, 0.06312388675455122, 0.0, 0.0, 7.994281287542756E-4, -2.864950535439464E-4, -2.8490029451432096E-4, -1.4634469392328135E-4, 2.166329319180206E-5, -5.26174512119464E-5, 2.49267266115113E-4, 8.504353426449047E-6, 1.1007807727535378E-5, 7.650875989410355E-5, 1.870516501971499E-5, -8.326211461972E-5, 6.901770851655008E-5, -3.4520841526971535E-5, 1.294689934064674E-4, 7.63973131097732E-5, -8.027884824586037E-5, -1.2390526894540658E-4, 1.9832496685985262E-4, -1.7400568044907051E-4, 2.643259558221853E-4, -8.037454159438453E-5, 1.4161319813867389E-4, -5.063061314013222E-4, -0.16642130310225917, 0.1558531247086717, 0.0, -0.19575976949997242, -9.071301674431437E-4, -3.7975880553348425E-5, -5.954989451937243E-5, 2.014145610207441E-4, -3.8604411978967237E-4, 1.421723810620508E-4, -3.0698796619812335E-4, 8.667437719934121E-5, -1.336137924931806E-4, -1.5880870344891102E-4, 1.985459971765377E-4, 2.3781863098289536E-5, 1.1911436560951991E-4, -9.912621076148361E-5, -8.334126707425089E-5, -1.470903393025888E-4, -1.2301743043237792E-4, -5.237029432978874E-5, -1.026642016973985E-4, 6.771935079471575E-6, -3.067117151064874E-4, -3.2783431195542564E-5, 1.7522878368711418E-4, 4.770714224080166E-4, 0.07108047206665608, 0.0, 0.0, 0.09512748205080664, -6.430952469794969E-5, 2.743460202825942E-4, -1.0550412065827166E-4, -1.3066118670088448E-4, 3.223551675649474E-4, -1.9695418424960114E-4, 1.5479592046225597E-4, -8.038412484976637E-5, -5.047588056275207E-5, -4.9076687516695866E-5, -2.9282332196969456E-4, 1.500842880945702E-4, 1.3899155621141533E-5, 5.7977946076734414E-5, -8.25255976201003E-5, 1.4807230875546639E-4, -1.6288890978317967E-5, 1.2718928539459146E-5, 8.393615769902215E-5, 1.0933136828976956E-4, 1.4888406973832437E-5, -2.2374547386949838E-4, 3.29699048800387E-4, -4.463914291046426E-4, -0.041339786378129344, 0.0, 0.0, 0.01397956773339543, 5.367857311761635E-4, 3.756183722586231E-4, 7.890198207278333E-5, -1.6216002988410418E-4, -1.1318098564332428E-4, 1.1598013493270923E-5, -1.1030133659878988E-4, -4.6037045277306684E-5, -5.795870136224632E-5, -5.786038852623571E-5, 9.322152519333329E-5, -2.3538139430461118E-4, 1.114091639302446E-4, 2.2419770424909544E-4, -1.7668178452685555E-5, -1.0045608126705162E-4, 4.60664413456678E-5, -1.3361876531272268E-4, -1.0207040299004254E-4, 1.003971756732645E-5, -3.1733758103175553E-6, 1.4732319163200962E-4, -3.665951956995576E-4, 3.288213990956876E-4, 0.006256180886076163, 0.0, 0.0, 0.0, -1.0575947255497727E-4, -7.373991727887386E-4, -1.27987387837614E-4, 1.8356938552983583E-4, 3.4862948675289434E-5, -8.064497411951916E-5, 5.274159404181996E-5, -7.408662811383351E-5, -5.626966494351982E-5, -3.6375306181477026E-5, -6.668850868848739E-5, 2.0412293944496864E-4, -2.4286601430085285E-4, 4.779213373525817E-5, 1.244868280241802E-4, -9.683860990308169E-5, 2.067310979269321E-4, 9.473188835113843E-5, -3.889780609092546E-4, 2.8459648923236135E-4, 1.3650670313949832E-5, 1.4937759807342113E-4, 3.0534640762277555E-4, -1.7828330994493848E-4, -0.0010471002992232992, 0.0, 0.0, 0.0, -0.0024723848435077413, 7.804909359032609E-4, 1.3549416724979173E-4, -1.4903030857292668E-4, 1.4476445788573505E-6, -5.2447910426865924E-5, -6.032842602535173E-5, -1.0054061943351153E-4, 3.0715675876774517E-5, -1.5798503064745866E-5, 3.215451722422859E-5, -1.6390587535524068E-4, 3.8583932452531536E-5, -3.361867838203781E-5, 6.758561525201815E-5, -1.0304214730573931E-4, -1.6900334565710746E-4, 6.026811037697311E-5, -1.7362972922833208E-4, -2.3388785665867665E-4, -1.7794404791474675E-5, 7.488517626626012E-5, -0.0010189622274609366, 1.9092824176513443E-4, 2.5430530194240725E-4, 0.0, 0.0, -0.027778891845046734, 0.00989452502265086, -0.001159570678927448, 1.0068042563512244E-4, -2.4719162483488187E-4, 2.0630276278034454E-5, -1.1346439721317923E-4, -7.1194530839119E-5, 3.494724319953866E-6, -6.11850083610242E-5, -3.441368197714036E-5, 4.007869701339343E-6, -5.932926253037623E-5, -7.255068716776974E-5, 1.1544102408822067E-4, 1.2773079556278142E-4, 1.1741982671209246E-5, 1.2939439412228915E-4, -2.9220326200674453E-4, 2.824423769283247E-4, 9.673728491032699E-5, -2.923654078645205E-4, 7.014203545769997E-4, 7.305881274241072E-4, 5.403614356666189E-4, 0.0, 0.0, 0.0, 0.0, 0.0, 0.002200353900008983, -6.070525553291383E-4, 6.198893819359479E-4, -3.6295960470822294E-4, 3.2412307083794944E-5, 4.840324273785085E-5, -4.99329031439014E-5, 1.489235315949454E-5, -3.071545870958595E-5, -1.2097412972739753E-5, 9.35776552069083E-5, -1.3416018578846066E-4, 5.954373929697837E-5, -2.617143518644233E-4, 6.635548084515814E-4, -6.846517319309069E-5, 5.402641373474903E-4, 5.89910761578907E-4, -7.99368245370668E-4, 0.002228036544955971, -0.0026042025477183467, -0.003606925319264731, -0.054919766378121966, 0.0, 0.0, 0.0, 0.0, 0.0, -6.484299138905215E-4, 3.393257135730459E-4, -2.513164622355711E-4, 1.5441262920292876E-4, -1.1130277226359346E-4, -3.188830400994244E-4, 3.2723637615175217E-4, -4.2403853645504066E-4, -6.691144986081532E-5, -2.9721053129292384E-4, -6.0968407897413955E-5, -5.390164204697065E-4, -5.087084398660943E-5, -3.127679256027414E-4, -9.493199928865187E-4, -7.659477585632028E-5, -0.0011938015300244692, 2.1696258728296064E-4, -4.709863440992479E-4, -0.0016793506185427832, 4.4670089599769413E-4, 0.0036375224442182197, 0.0, 0.0, 0.0, 0.0, 0.0, 0.0, 0.0, -0.0023201142171716876, -4.163780971306644E-4, 3.7627433826334947E-4, -4.434908713465765E-4, -1.8920301021967383E-4, -5.119740524872994E-4, 5.182302850513028E-5, -3.779275345881073E-4, -1.0643064423397753E-5, -4.699044823888794E-4, 1.735097848695383E-4, -4.3886583924657884E-4, -1.074248528185524E-4, -3.218020619583727E-5, -6.744750525070599E-4, 8.642147438206915E-5, -7.055191190528318E-4, -3.5819735319354726E-4, 0.0022621551246128375, -0.0029641006543132454, 0.0068437623020877495, 0.0, 0.0, 0.0, 0.0, 0.0, 0.0, 0.0, 0.0, 0.0, -3.72302238547098E-5, 7.569586092731352E-4, -1.22919361069187E-4, 2.1995322290027265E-4, -2.762186951798344E-4, 4.7113000513417856E-4, -1.1405483394581323E-4, 2.8749698580069193E-4, -2.909620638575525E-4, 6.172827205001015E-4, -8.285283554529577E-5, 6.67835288343551E-4, 1.1897885604707093E-4, -0.0011182604130704152, 0.0032479930039545383, -0.02403267449225191, 0.0, 0.0, 0.0, 0.0, 0.0, 0.0
0.0, 0.0, 0.0, 0.0, 0.0, 0.0, 0.0, 0.0, 0.0, 0.0, 0.0, 0.0, 0.0, 0.0, 0.0, 0.0, 0.0, 0.0, 0.0, 0.0, 0.0, 0.0, 0.0, 0.0, 0.0, 0.0, 0.0, 0.0, 0.0, 0.0, 0.0, 0.0, 0.0, 0.003865158577357497, -0.0032904808856299753, 0.011729536837814617, -0.005119971772951972, 0.0030164522208434414, -0.0011296589447555663, 1.6530818222886134E-4, -3.6671925468321494E-4, -5.934836197657417E-5, 1.7580975025957817E-4, 7.103506204424315E-4, -0.004648361750461082, -0.03984955789849423, 0.013424317001939518, 0.009206634781592627, 0.0013106283405500548, 0.0, 0.0, 0.0, 0.0, 0.0, 0.0, 0.0, 0.0, 0.0, 0.0, 0.0, 0.0, -0.002099148495984004, 0.0011394371844478878, -3.099586303521255E-4, 6.370933438410412E-4, -1.3291473014263505E-4, 9.796843297053335E-5, 1.7495401545515628E-4, 8.597221360893979E-5, -1.4562008452511196E-4, -1.2160588521653645E-5, 2.1560504808202331E-4, -1.9457272052336505E-4, -8.927584980363777E-5, 1.7211530246971497E-4, -5.018232269838024E-4, 0.0011865670340890121, -0.0012575192974988575, 2.821124565441071E-4, 7.150317003770228E-5, 0.0012646446000973374, 0.0, 0.0, 0.0, 0.0, 0.0, 0.0, 0.0, 0.0031090414365311492, -3.1103758833268493E-4, 5.942764730749925E-4, -2.2883101784862268E-4, 3.0032658439570626E-4, 3.797151183352907E-4, -8.701532924946738E-5, 2.420964617119571E-4, 1.880637441356511E-4, 1.8861315101174856E-5, -4.7561934392115535E-5, 1.673644280550957E-5, 1.1397639168175029E-4, -1.1073235230373048E-4, -1.2615350875992552E-4, 1.3733689867618165E-4, -6.222261672866496E-4, 9.44567581390042E-5, -2.59322861488346E-4, 2.879555704266003E-4, -0.0014946877282476317, 0.0023515019738591402, 0.0, 0.0, 0.0, 0.0, 0.0, 0.0028260323129831754, -6.010300244045936E-4, 5.628950789667032E-4, -1.8499775650373604E-4, 4.257098354314901E-4, -3.261922635805618E-4, 6.14957546068287E-5, -1.3086616580819667E-4, 2.6373715642195992E-5, -8.824281058699104E-5, 1.4212194171930766E-5, 7.453877744241491E-5, -1.3983441839760059E-4, 8.173850352331875E-5, 3.688143018002029E-5, -9.517857146077097E-5, 6.963841597153065E-6, 1.5194984768733774E-4, -2.543555842634266E-5, -1.0822759931110979E-4, 1.7848849742941754E-4, -8.118563068193312E-4, 7.342733938472275E-4, 6.00078918942836E-4, 0.0, 0.0, -0.002279642026428767, 0.010577495044876392, -0.0034365456615997273, 1.5205738826843598E-5, -1.7763633159888627E-4, 3.62409634915436E-4, -3.421677584392714E-4, 3.493815394652233E-4, 3.345194120067322E-4, -2.0635258978809313E-4, 1.66974335445906E-5, 1.3917871442274343E-4, -2.2287759995177922E-4, 5.184236762871498E-5, 7.616161545285695E-5, -3.0629591168039835E-5, 1.3032013329227634E-5, 1.5872125492960283E-4, 9.244367705375999E-5, 9.576643056993042E-5, 1.3129176332447705E-4, 1.9426019331728457E-4, 4.8125862301973555E-4, 2.4748797823239885E-4, -3.202054558902903E-4, -0.0015431269833026007, 0.0, 0.0, 0.0, 0.005547309734682175, 6.91921432802342E-4, -1.633490774007058E-4, -3.136026469043829E-4, -3.5637011876784187E-4, 1.733090583434683E-4, -3.90986321337959E-4, 1.441540780569491E-4, 2.7678895820141728E-5, 1.4452930371681134E-4, -8.917528670606962E-6, -4.562668457175706E-5, -4.6721514582388555E-6, -3.489984940393179E-5, 2.53329924710308E-5, 4.0055135964486254E-5, 8.192533743561449E-6, 4.940657076508402E-5, 1.0227078719794169E-4, 1.910219599234198E-4, 3.139058907273599E-4, 3.437580182786359E-4, 6.526555213653473E-5, -5.367990955978706E-4, 0.0013725558020425566, 0.0017858292728163078, 0.0, -0.0016123220267978083, 7.616860491618163E-5, -6.364848188963908E-5, -1.4308761317371744E-4, 2.8648193343241545E-4, -3.0952284524185785E-5, 1.493001197126259E-4, 2.534557467817014E-5, 2.2942214520138447E-5, -6.036201076865859E-5, 8.205155706419892E-5, 6.867138098643858E-5, 7.134988229454348E-5, -7.529454966680617E-5, 1.4086015019500928E-5, -1.5125464172771481E-5, 6.230327338277282E-6, 4.467925031257692E-6, -4.687142576782318E-5, 1.0053101423016592E-4, -2.2981375292794605E-4, -4.4825600368149325E-5, -3.1355940802101283E-5, 9.350189978114169E-4, 9.93882511171242E-4, -0.0017601768515619828, -0.006843976283401002, 0.0, 0.0011455579381710035, -4.574418232566875E-4, 1.3554505892502357E-4, -9.817823985022351E-5, 4.7998158432365375E-5, 2.6072945589237882E-5, -1.227172117826036E-4, 1.1806841863935363E-4, 1.294123278396029E-4, -5.922879649807971E-5, -8.14285177665281E-5, -2.8611350785125876E-5, -1.3754515795833805E-5, 1.238138763507768E-4, -1.124990567829169E-4, 5.578891295192619E-5, 1.1506707617829425E-4, 6.709830207255948E-5, 3.212195961245328E-5, 1.9871054891436547E-5, 8.469126182494445E-5, -2.7761094425689856E-5, 5.73455230676621E-5, 7.108795898405723E-4, -8.180524829157829E-4, 0.002650996955001773, 6.591631695024845E-4, 0.0, -2.6495861233978644E-4, 6.062003946063749E-4, 4.4230453664241144E-5, -3.127187727763342E-5, 6.567760351235591E-5, -9.930661194960702E-5, 8.305320066207579E-5, -1.23698492942776E-4, 5.503500393541523E-5, 1.683495985457831E-4, 1.7266152981585504E-4, 3.19317631892129E-5, -3.066395271793962E-5, 8.451227434288018E-8, 1.4041075152411287E-5, -2.5034734219440577E-5, -1.2037623473602333E-4, -4.951000970711337E-5, -3.5649066395047463E-5, -3.0012623907684525E-5, 3.3944831987780155E-5, 1.468696055989759E-4, 2.6794401838039974E-4, -2.5385640102752163E-4, 0.00289216126219878, -0.0015356369908309014, -0.00681314334925252, 0.0, -3.053278655979835E-5, -5.87196929216407E-4, 1.4631310251581942E-4, -2.379021595407631E-4, 2.3452302669206958E-4, -2.9131892741753866E-5, 1.1791874815599193E-4, 1.7815382403196605E-4, 5.264876462168693E-5, 1.4054306209133866E-4, -1.4011076806205125E-4, 1.4814798513440418E-4, 1.0712998873265796E-4, 6.022527433724226E-6, -2.5888950621460025E-5, -2.088103673269781E-5, -3.882819007649017E-5, -5.210339389452433E-5, 3.6089107258529636E-6, -4.5761997642630655E-5, -6.496669661016189E-5, -3.6372517558950693E-4, -3.7318035296291614E-4, 7.98748795677318E-4, 1.595118827814013E-4, 3.488432221373171E-4, 0.0050754830581894944, 0.0, -3.9123264736911544E-4, 0.0018432855402020839, -5.935308159172053E-4, 7.643762234838852E-4, -3.539833345165211E-4, 4.68258175853204E-5, -2.17081240427984E-4, -1.5257963096754686E-4, 2.4173281606657783E-5, -2.2682741674011017E-4, 1.8386512655900586E-4, -1.659880480535821E-4, 1.9562852023728992E-4, -1.9856826962981672E-4, -4.898732595635271E-5, -3.938337005556422E-5, -1.9665414571278338E-4, -1.4992524191048353E-4, -2.827737708787989E-4, -1.49782430203645E-4, -2.44228395460522E-4, -3.7675030852649376E-4, 1.29223279465343E-4, -0.0010114363575974346, 0.0015127170937513962, 0.0014392920573533248, -0.005044869507277727, 0.0, 0.0010921141022243153, -0.0019229237807524382, 5.808956243246376E-4, -7.801927842131088E-4, 5.759210880185603E-4, 4.880667951207158E-5, 2.4816447752175547E-4, 1.7972419917621258E-4, 2.1504867040235897E-4, 2.126181759771426E-4, 1.451103943383973E-4, 2.0507113808227362E-4, 3.952840511966079E-5, 1.9428965443781467E-4, -1.2689717984777513E-4, -4.190609663845837E-6, 1.8710083388386713E-5, 1.802473866582132E-5, 1.6981066792299117E-4, -1.7017395752369878E-4, 1.694378059843463E-4, 1.6950886713445389E-4, -6.230185542194419E-4, 1.6855907526418915E-4, -9.503355555053712E-4, 0.007139536915429757, 0.0, 0.0, -0.0014508178139938871, 0.001465405589273003, -1.679253831508502E-4, 2.338903086532664E-4, 1.2612762765947216E-4, 1.3160583004047792E-4, 4.558533185557292E-5, -5.949061248390853E-5, -7.674555564747459E-5, -1.2718139454073313E-6, -6.91438247629748E-5, -4.075209101243488E-5, -1.0048301176819008E-4, 4.35419677711021E-5, 4.8854728340317376E-5, 1.1588242145225467E-4, -8.773690132923972E-5, -1.0318184015705208E-4, -1.7506252930941455E-5, -1.2726001725348342E-4, -1.1035603268502561E-4, -2.538893395960534E-4, 8.65088936809463E-5, -7.457594992821219E-4, 0.0013215782828615561, -0.0036223816246055305, 0.0, 0.0, 0.0, -9.98653741726575E-4, -1.6848127000693256E-4, -1.6985619176862157E-4, -4.618135241038368E-4, -2.3808679114331182E-4, -1.2268007807606234E-4, 4.22446407760763E-5, -4.405957481701299E-5, 1.2720247799957E-4, -7.949408208438281E-5, 9.91353471236206E-5, 1.2486615652135995E-4, -1.222399753863893E-4, -1.1299890063418604E-4, -1.7063311195081345E-4, 1.2319556091831358E-4, -7.31926607224462E-5, 3.7237429355898866E-5, 1.8372413776807678E-4, -2.3029593276690632E-4, 2.168354729594905E-4, -6.300596798784579E-5, 9.99660408509725E-4, -5.110495744406096E-4, -7.492282824122891E-4, 0.0, 0.0, 0.0, -6.048781726786702E-4, -7.72168533007072E-4, 6.50470601851512E-4, 4.916673224597887E-4, 1.8913637049528616E-4, -1.0188943869433322E-5, 5.863143859456485E-5, 2.719854342154545E-5, 5.463018720135148E-5, -2.8740685118676587E-5, -1.7776336291296524E-5, -2.9117277696424367E-5, 7.404872141055714E-5, 9.604121962614485E-5, 8.58089427821856E-5, -1.5540589477776735E-4, 1.0970906086472677E-5, -1.6223855629696036E-4, -9.114773760679204E-6, -1.511426365982679E-5, -1.719877833249202E-4, 1.485567050407483E-4, -1.0792384753506652E-4, 3.1404201032836506E-4, -0.0016755527001453413, -0.046832437659528915, 0.0, -0.0013248504740661698, 9.753784791624282E-4, 0.001069581411050639, -2.445700655282208E-4, -3.4971278182760495E-4, -3.006097294465074E-4, 2.124495743632201E-5, -1.7419025858344557E-4, 1.1211737898156152E-4, -1.322323589593524E-4, -1.479483984503558E-4, -4.1166862628938945E-6, -6.884057541617274E-5, 8.434167793148817E-5, -2.113588914148706E-4, -1.3681716740724414E-4, 8.724974263380762E-5, 1.8688785558763186E-4, -2.1174853332851576E-5, -1.2691751359994644E-4, 1.6767817473933765E-4, -1.26209817222394E-6, -9.71053657587191E-5, 5.28264183335347E-5, 1.2829585265892437E-4, 0.0034538567798748296, 0.09926443755923232, 0.0, 0.0, 7.120203629367157E-4, -0.0012572227665723862, 1.2477683519363474E-5, 3.0150151734038714E-4, -5.039993799157977E-5, -6.46573566649173E-5, 5.821775528819175E-5, -9.478962666451769E-5, 1.4756294196770626E-4, -1.619407779645813E-5, 1.7276462349900026E-5, -6.374426458820882E-5, 1.2824952365442634E-4, -3.977753719426253E-5, 1.8608896295007298E-4, -8.737282117509578E-5, 3.9189137584767764E-5, 1.1721757871246602E-4, 8.075484710060903E-5, -1.6955730793834686E-4, 9.658554818746971E-5, -1.2276726589150906E-4, 4.607219137288209E-5, 6.357385733480551E-5, -0.20836997833071888, 0.17172813682341811, 0.0, -0.21874224734470615, -0.001307568830492056, 8.48131494800531E-4, -2.902800646013456E-4, -3.8716332686214086E-4, 5.435949611028575E-4, -2.0321859206115633E-4, -7.781837778780383E-5, -1.2196627378215463E-4, -2.2556222274761447E-4, -3.103475622614846E-5, -2.0447273059919104E-4, 4.7069208476740977E-5, -1.0389377508041753E-4, 4.762296957090831E-5, -1.7436355053587519E-4, 5.0011872141474124E-5, -7.412601860082131E-5, -8.897765661817029E-5, -1.3915215804857885E-5, 7.885826311696148E-5, 4.018477586400628E-5, 2.079388574311621E-4, -2.9472118390545734E-4, -9.359057743183274E-5, 0.09012061478935858, 0.0, 0.0, 0.10998550541575063, -0.0023301592415920017, 3.7785307631273786E-4, 1.9230835940045292E-4, 5.22090115297987E-4, -2.595344191287714E-4, 2.8069314295990096E-4, -3.7957181811515424E-5, 2.1256048549377163E-4, -5.3749446217544024E-5, -2.698004690460212E-5, 2.479889491254257E-4, -1.066371050888004E-4, 1.3860574523909746E-4, 8.260010205979553E-5, 7.788355902124362E-5, 5.8284395816809945E-5, 2.720160201952426E-5, 7.772147309817379E-5, 1.5294445526887305E-4, -1.8551611789624533E-4, -5.938463493442795E-5, 1.26901934475101E-4, -5.196005666231958E-5, 4.5702807060556653E-4, -0.05497070504322587, 0.0, 0.0, 0.016735972073990135, 0.0029515609234172387, -2.7479695514127332E-5, 1.1633561118708826E-4, -3.643712771108772E-4, 1.778890276755333E-4, -1.070223814439943E-4, 2.2747935649213447E-4, -7.307274020066379E-5, 1.631603936950559E-4, 5.26225563351731E-5, -7.191164374075605E-5, 1.297117309320475E-4, -1.9493432514816695E-4, 2.639520384887573E-5, -1.061857644764782E-4, -1.3144776461617124E-4, -2.6676800517595564E-5, -9.184404597450135E-6, -7.630419586378731E-5, 1.5110060468037108E-4, -2.1050561045296887E-4, 1.3970964937874076E-4, -2.1814079991902161E-4, -4.878288324619767E-4, 0.011371739057360665, 0.0, 0.0, 0.0, -0.001367414269330995, -9.036462785608203E-5, -5.636043243450961E-4, 6.561177218702418E-4, -2.513075069440656E-4, 3.418108544415267E-5, -1.027916521620453E-5, -8.750641294654715E-5, 4.6064775561079345E-5, -2.0874946980897324E-4, 8.121458593325034E-5, -4.194860885590372E-5, 5.959452136172861E-5, -1.2496265438608577E-4, 1.520876722233886E-4, 8.088502396573805E-6, -1.3231993358596818E-4, 1.0047878825186375E-4, -5.855934380277548E-5, 1.9259301167514164E-4, -5.9637436829149925E-5, 2.2693677545172753E-4, 2.346180786177502E-4, 4.278235576154865E-5, -7.224139119166016E-4, 0.0, 0.0, 0.0, 0.0012182742986565547, 4.576291438427923E-4, -1.3952818730401912E-4, 1.4213549557884098E-4, -2.3985284015922074E-4, 2.2588151777376706E-5, 1.0359986428308482E-5, 4.8274274500226103E-5, 6.58839148736388E-5, 1.866690314782784E-4, -1.7739622912922607E-6, -3.793527470353529E-5, -3.7140913408993536E-5, 1.0576511304840251E-4, -8.745661837282121E-5, 9.578193611563288E-5, 1.443563689987787E-4, -3.703344996548218E-5, 6.71767243647666E-5, -2.837067693237025E-4, 6.402292461280707E-5, -3.4731448492358776E-4, 2.469169887348998E-4, -3.9112642000497036E-4, 1.4800741708692505E-4, 0.0, 0.0, 0.0022217555804904692, -6.320583939217121E-4, -0.001223250462506914, 1.9452650843968167E-4, 2.691274406492828E-4, -2.730320206419325E-4, 1.1613166154284711E-5, 8.740906447730676E-5, -9.275403097511181E-5, 3.989458751822288E-5, -2.335520379415264E-4, 1.1417920290511275E-4, -5.745237920503534E-5, 1.3144064294968723E-4, -5.027751079313205E-5, 8.515813812753063E-5, -1.5505386063218853E-4, -9.595539930651577E-6, 1.4059285848246525E-4, -1.386664251534305E-4, 5.613715706545814E-4, 1.696112749410633E-4, -2.990769572852955E-4, 4.2171012577889576E-5, -4.0655663935421283E-4, 0.0, 0.0, 0.0, 0.0, 0.0, 2.0988882503882172E-4, 4.951435238275787E-4, -3.2681287322660946E-4, 1.932643118322017E-4, -7.419363485345099E-5, -1.4022772163554246E-4, 2.1183241699782482E-4, -4.514163288853668E-5, -6.300408441924833E-5, 1.0603137915490803E-4, 4.408931317767942E-5, -8.894883311997155E-5, 1.0493767212861733E-4, -3.0074546210279945E-5, 6.494709342526718E-5, 5.056825837932221E-5, -6.736343545391839E-5, -1.0763614059418409E-4, 1.4636625599447617E-5, 3.2600356290645E-4, 0.0014290982594014987, -0.00205598461833237, 0.0074892510362458715, 0.0, 0.0, 0.0, 0.0, 0.0, 0.0018696348050538211, 5.321002150532925E-4, -4.535331052841331E-4, 5.549551081999624E-4, -1.5421966426352196E-4, 3.293934519507841E-4, 4.995780811615571E-5, 2.4071505421088636E-4, 6.573174249854275E-5, 9.831566178047796E-5, 7.946059339468925E-5, -2.7260512164621592E-5, -3.287045042000942E-5, 7.91441467209965E-6, 7.236024347689615E-5, 1.0206796520533719E-4, 3.982907337030349E-5, 5.318516664852218E-4, -2.998843983576291E-4, 4.637997428088302E-4, 2.9555062175876275E-4, -0.0028855978137049005, 0.0, 0.0, 0.0, 0.0, 0.0, 0.0, 0.0, 0.010776027333265818, 8.814966618100855E-4, -7.088808195147271E-4, -1.1495660633815483E-4, -1.1822350909073544E-4, -1.28124349364986E-4, -2.013795432516619E-4, 2.8096723389209445E-5, -1.2259932895160652E-4, -2.8187861848033945E-5, 9.005624854617766E-5, -1.5353970473438026E-4, -5.289547417183543E-5, -3.7836732006919735E-5, -3.109591520380521E-4, -2.4313065119725564E-4, -5.534031265557992E-4, -3.992589113374572E-4, 2.4075321567348904E-4, 0.0018384111772797816, -0.010597479061217021, 0.0, 0.0, 0.0, 0.0, 0.0, 0.0, 0.0, 0.0, 0.0, -0.0012718571868778252, -1.5897246684240624E-4, 1.2738094518961548E-4, -1.7536890325719836E-4, 3.0101841760926714E-5, 4.3443414595168843E-4, -4.11410485433173E-5, 4.7177441400992687E-4, -1.721021853863473E-4, 2.08312003087211E-4, 1.0548375432501312E-5, -1.1970764409752852E-4, 3.760557366328193E-4, 2.2502922784549216E-4, -8.949194390075045E-4, 0.003861684679618414, 0.0, 0.0, 0.0, 0.0, 0.0, 0.0
